{"learner":{"attributes":{"scikit_learn":"{\"_estimator_type\": \"classifier\"}"},"feature_names":[],"feature_types":[],"gradient_booster":{"model":{"cats":{"enc":[],"feature_segments":[],"sorted_idx":[]},"gbtree_model_param":{"num_parallel_tree":"1","num_trees":"1533"},"iteration_indptr":[0,3,6,9,12,15,18,21,24,27,30,33,36,39,42,45,48,51,54,57,60,63,66,69,72,75,78,81,84,87,90,93,96,99,102,105,108,111,114,117,120,123,126,129,132,135,138,141,144,147,150,153,156,159,162,165,168,171,174,177,180,183,186,189,192,195,198,201,204,207,210,213,216,219,222,225,228,231,234,237,240,243,246,249,252,255,258,261,264,267,270,273,276,279,282,285,288,291,294,297,300,303,306,309,312,315,318,321,324,327,330,333,336,339,342,345,348,351,354,357,360,363,366,369,372,375,378,381,384,387,390,393,396,399,402,405,408,411,414,417,420,423,426,429,432,435,438,441,444,447,450,453,456,459,462,465,468,471,474,477,480,483,486,489,492,495,498,501,504,507,510,513,516,519,522,525,528,531,534,537,540,543,546,549,552,555,558,561,564,567,570,573,576,579,582,585,588,591,594,597,600,603,606,609,612,615,618,621,624,627,630,633,636,639,642,645,648,651,654,657,660,663,666,669,672,675,678,681,684,687,690,693,696,699,702,705,708,711,714,717,720,723,726,729,732,735,738,741,744,747,750,753,756,759,762,765,768,771,774,777,780,783,786,789,792,795,798,801,804,807,810,813,816,819,822,825,828,831,834,837,840,843,846,849,852,855,858,861,864,867,870,873,876,879,882,885,888,891,894,897,900,903,906,909,912,915,918,921,924,927,930,933,936,939,942,945,948,951,954,957,960,963,966,969,972,975,978,981,984,987,990,993,996,999,1002,1005,1008,1011,1014,1017,1020,1023,1026,1029,1032,1035,1038,1041,1044,1047,1050,1053,1056,1059,1062,1065,1068,1071,1074,1077,1080,1083,1086,1089,1092,1095,1098,1101,1104,1107,1110,1113,1116,1119,1122,1125,1128,1131,1134,1137,1140,1143,1146,1149,1152,1155,1158,1161,1164,1167,1170,1173,1176,1179,1182,1185,1188,1191,1194,1197,1200,1203,1206,1209,1212,1215,1218,1221,1224,1227,1230,1233,1236,1239,1242,1245,1248,1251,1254,1257,1260,1263,1266,1269,1272,1275,1278,1281,1284,1287,1290,1293,1296,1299,1302,1305,1308,1311,1314,1317,1320,1323,1326,1329,1332,1335,1338,1341,1344,1347,1350,1353,1356,1359,1362,1365,1368,1371,1374,1377,1380,1383,1386,1389,1392,1395,1398,1401,1404,1407,1410,1413,1416,1419,1422,1425,1428,1431,1434,1437,1440,1443,1446,1449,1452,1455,1458,1461,1464,1467,1470,1473,1476,1479,1482,1485,1488,1491,1494,1497,1500,1503,1506,1509,1512,1515,1518,1521,1524,1527,1530,1533],"tree_info":[0,1,2,0,1,2,0,1,2,0,1,2,0,1,2,0,1,2,0,1,2,0,1,2,0,1,2,0,1,2,0,1,2,0,1,2,0,1,2,0,1,2,0,1,2,0,1,2,0,1,2,0,1,2,0,1,2,0,1,2,0,1,2,0,1,2,0,1,2,0,1,2,0,1,2,0,1,2,0,1,2,0,1,2,0,1,2,0,1,2,0,1,2,0,1,2,0,1,2,0,1,2,0,1,2,0,1,2,0,1,2,0,1,2,0,1,2,0,1,2,0,1,2,0,1,2,0,1,2,0,1,2,0,1,2,0,1,2,0,1,2,0,1,2,0,1,2,0,1,2,0,1,2,0,1,2,0,1,2,0,1,2,0,1,2,0,1,2,0,1,2,0,1,2,0,1,2,0,1,2,0,1,2,0,1,2,0,1,2,0,1,2,0,1,2,0,1,2,0,1,2,0,1,2,0,1,2,0,1,2,0,1,2,0,1,2,0,1,2,0,1,2,0,1,2,0,1,2,0,1,2,0,1,2,0,1,2,0,1,2,0,1,2,0,1,2,0,1,2,0,1,2,0,1,2,0,1,2,0,1,2,0,1,2,0,1,2,0,1,2,0,1,2,0,1,2,0,1,2,0,1,2,0,1,2,0,1,2,0,1,2,0,1,2,0,1,2,0,1,2,0,1,2,0,1,2,0,1,2,0,1,2,0,1,2,0,1,2,0,1,2,0,1,2,0,1,2,0,1,2,0,1,2,0,1,2,0,1,2,0,1,2,0,1,2,0,1,2,0,1,2,0,1,2,0,1,2,0,1,2,0,1,2,0,1,2,0,1,2,0,1,2,0,1,2,0,1,2,0,1,2,0,1,2,0,1,2,0,1,2,0,1,2,0,1,2,0,1,2,0,1,2,0,1,2,0,1,2,0,1,2,0,1,2,0,1,2,0,1,2,0,1,2,0,1,2,0,1,2,0,1,2,0,1,2,0,1,2,0,1,2,0,1,2,0,1,2,0,1,2,0,1,2,0,1,2,0,1,2,0,1,2,0,1,2,0,1,2,0,1,2,0,1,2,0,1,2,0,1,2,0,1,2,0,1,2,0,1,2,0,1,2,0,1,2,0,1,2,0,1,2,0,1,2,0,1,2,0,1,2,0,1,2,0,1,2,0,1,2,0,1,2,0,1,2,0,1,2,0,1,2,0,1,2,0,1,2,0,1,2,0,1,2,0,1,2,0,1,2,0,1,2,0,1,2,0,1,2,0,1,2,0,1,2,0,1,2,0,1,2,0,1,2,0,1,2,0,1,2,0,1,2,0,1,2,0,1,2,0,1,2,0,1,2,0,1,2,0,1,2,0,1,2,0,1,2,0,1,2,0,1,2,0,1,2,0,1,2,0,1,2,0,1,2,0,1,2,0,1,2,0,1,2,0,1,2,0,1,2,0,1,2,0,1,2,0,1,2,0,1,2,0,1,2,0,1,2,0,1,2,0,1,2,0,1,2,0,1,2,0,1,2,0,1,2,0,1,2,0,1,2,0,1,2,0,1,2,0,1,2,0,1,2,0,1,2,0,1,2,0,1,2,0,1,2,0,1,2,0,1,2,0,1,2,0,1,2,0,1,2,0,1,2,0,1,2,0,1,2,0,1,2,0,1,2,0,1,2,0,1,2,0,1,2,0,1,2,0,1,2,0,1,2,0,1,2,0,1,2,0,1,2,0,1,2,0,1,2,0,1,2,0,1,2,0,1,2,0,1,2,0,1,2,0,1,2,0,1,2,0,1,2,0,1,2,0,1,2,0,1,2,0,1,2,0,1,2,0,1,2,0,1,2,0,1,2,0,1,2,0,1,2,0,1,2,0,1,2,0,1,2,0,1,2,0,1,2,0,1,2,0,1,2,0,1,2,0,1,2,0,1,2,0,1,2,0,1,2,0,1,2,0,1,2,0,1,2,0,1,2,0,1,2,0,1,2,0,1,2,0,1,2,0,1,2,0,1,2,0,1,2,0,1,2,0,1,2,0,1,2,0,1,2,0,1,2,0,1,2,0,1,2,0,1,2,0,1,2,0,1,2,0,1,2,0,1,2,0,1,2,0,1,2,0,1,2,0,1,2,0,1,2,0,1,2,0,1,2,0,1,2,0,1,2,0,1,2,0,1,2,0,1,2,0,1,2,0,1,2,0,1,2,0,1,2,0,1,2,0,1,2,0,1,2,0,1,2,0,1,2,0,1,2,0,1,2,0,1,2,0,1,2,0,1,2,0,1,2,0,1,2,0,1,2,0,1,2,0,1,2,0,1,2,0,1,2,0,1,2,0,1,2,0,1,2,0,1,2,0,1,2,0,1,2,0,1,2,0,1,2,0,1,2,0,1,2,0,1,2,0,1,2,0,1,2,0,1,2,0,1,2,0,1,2,0,1,2,0,1,2,0,1,2,0,1,2,0,1,2,0,1,2,0,1,2,0,1,2,0,1,2,0,1,2,0,1,2,0,1,2,0,1,2,0,1,2,0,1,2,0,1,2,0,1,2,0,1,2,0,1,2,0,1,2,0,1,2,0,1,2,0,1,2,0,1,2,0,1,2,0,1,2,0,1,2,0,1,2,0,1,2,0,1,2,0,1,2,0,1,2,0,1,2,0,1,2,0,1,2,0,1,2,0,1,2,0,1,2,0,1,2,0,1,2,0,1,2,0,1,2,0,1,2,0,1,2,0,1,2,0,1,2,0,1,2,0,1,2,0,1,2,0,1,2,0,1,2,0,1,2,0,1,2,0,1,2,0,1,2,0,1,2,0,1,2,0,1,2,0,1,2,0,1,2,0,1,2,0,1,2,0,1,2,0,1,2,0,1,2,0,1,2,0,1,2,0,1,2,0,1,2,0,1,2,0,1,2,0,1,2,0,1,2,0,1,2,0,1,2,0,1,2,0,1,2,0,1,2,0,1,2,0,1,2,0,1,2,0,1,2,0,1,2,0,1,2,0,1,2,0,1,2,0,1,2,0,1,2,0,1,2,0,1,2,0,1,2,0,1,2,0,1,2,0,1,2,0,1,2,0,1,2,0,1,2,0,1,2,0,1,2,0,1,2,0,1,2,0,1,2,0,1,2,0,1,2,0,1,2,0,1,2,0,1,2,0,1,2,0,1,2,0,1,2,0,1,2,0,1,2,0,1,2,0,1,2,0,1,2,0,1,2,0,1,2,0,1,2,0,1,2,0,1,2,0,1,2,0,1,2,0,1,2,0,1,2,0,1,2,0,1,2,0,1,2,0,1,2,0,1,2,0,1,2,0,1,2,0,1,2,0,1,2,0,1,2,0,1,2,0,1,2,0,1,2,0,1,2,0,1,2,0,1,2,0,1,2,0,1,2,0,1,2,0,1,2,0,1,2,0,1,2,0,1,2,0,1,2,0,1,2,0,1,2,0,1,2,0,1,2,0,1,2],"trees":[{"base_weights":[2.3766336E-4,-5.009377E-1,5.6797755E-1,-7.317219E-1,-2.3310769E-1,2.6043555E-1,7.867921E-1,-1.0021008E-1,-6.1019516E-1,-3.225504E-1,-5.2684747E-2,1.15577504E-1,4.0296313E-1,4.4526353E-1,8.78972E-1,-6.5567565E-1,-4.3813056E-1,-5.0021017E-1,-2.2859244E-1,1.7341692E-2,-3.5509294E-1,1.4093945E-2,1.7471926E-1,2.9735905E-1,5.928682E-1,4.7591528E-1,-7.281422E-2,7.548168E-2,9.578741E-2,-6.150679E-1,-8.978124E-2,-2.1964967E-1,-5.41994E-1,-2.8172982E-1,-5.460291E-1,-3.1358275E-1,-8.409834E-2,5.7118654E-2,-2.750875E-2,3.5286043E-3,-4.477153E-2,-3.8001843E-2,3.2248014E-1,4.1938353E-2,1.4391083E-1,2.5550744E-1,5.2281395E-2,7.245801E-2,4.653655E-1,3.8762414E-1,6.442709E-2,-2.4800409E-2,9.618816E-2,-5.713752E-1,-7.433312E-2,-2.1429746E-3,-3.7815884E-1,-1.577345E-2,-6.0606506E-2,7.432142E-3,-5.1917583E-2,-6.8491004E-2,-4.665E-2,-2.029206E-2,-4.356848E-2,2.3990375E-1,-1.6485134E-1,2.537711E-2,1.3424514E-2,-8.197689E-2,2.6562309E-2,-2.0549142E-1,5.108073E-2,1.7422618E-2,-2.3913057E-1,3.3853698E-1,1.171407E-1,5.747212E-1,1.6953485E-1,-7.349075E-2,4.0239984E-1,-6.9880344E-2,-5.3721394E-2,-4.6436563E-2,4.650073E-2,3.8548745E-2,-2.2895295E-2,1.6404502E-2,-2.7185304E-2,1.5203961E-2,-5.0908774E-3,-2.691165E-3,-2.9383607E-2,-8.305921E-2,4.0104497E-2,-3.9264104E-1,9.406212E-2,1.7264602E-1,4.9248572E-2,1.7606374E-2,-5.285205E-2,6.571443E-2,-1.02100745E-2,3.1709703E-4,8.11103E-2,-4.2050943E-2,4.343192E-2,1.9625474E-2,-2.5807718E-2,-5.836194E-3,4.5845814E-2,6.8684764E-2,-5.74562E-2,7.8776486E-2,1.0852651E-2],"categories":[],"categories_nodes":[],"categories_segments":[],"categories_sizes":[],"default_left":[0,0,0,0,0,0,0,0,0,0,0,0,0,0,0,0,0,0,0,0,0,0,0,0,0,0,0,0,0,0,0,0,0,0,0,0,0,0,0,0,0,0,0,0,0,0,0,0,0,0,0,0,0,0,0,0,0,0,0,0,0,0,0,0,0,0,0,0,0,0,0,0,0,0,0,0,0,0,0,0,0,0,0,0,0,0,0,0,0,0,0,0,0,0,0,0,0,0,0,0,0,0,0,0,0,0,0,0,0,0,0,0,0,0,0],"id":0,"left_children":[1,3,5,7,9,11,13,-1,15,17,19,21,23,25,27,29,31,33,35,37,39,41,43,45,47,49,51,-1,-1,53,-1,55,57,59,61,63,65,67,-1,-1,-1,69,71,-1,73,75,-1,-1,77,79,-1,-1,-1,81,-1,-1,83,-1,-1,-1,-1,-1,-1,-1,-1,85,87,-1,89,91,-1,93,-1,-1,95,97,99,101,103,-1,105,-1,-1,-1,-1,-1,-1,107,-1,-1,-1,109,-1,-1,-1,111,-1,113,-1,-1,-1,-1,-1,-1,-1,-1,-1,-1,-1,-1,-1,-1,-1,-1,-1],"loss_changes":[3.331149E3,3.8398572E2,3.690337E2,9.466992E1,4.6326767E1,4.695146E1,1.0047046E2,0E0,1.6831116E1,3.1848648E1,2.0348396E1,6.738641E0,2.273491E1,1.0977631E1,1.6470947E1,1.4299255E1,1.0216087E1,6.3533173E0,1.5329483E1,8.643766E0,5.5249195E0,6.8374825E0,4.8629704E0,6.1379013E0,5.1093445E0,7.919922E0,6.0413413E0,0E0,0E0,6.020996E0,0E0,4.597406E0,4.9149704E0,9.169804E0,5.625122E0,9.730545E0,1.2223497E1,5.4911013E0,0E0,0E0,0E0,4.574574E0,5.638162E0,0E0,5.8088303E0,6.930706E0,0E0,0E0,5.8072395E0,6.449974E0,0E0,0E0,0E0,5.1608887E0,0E0,0E0,4.7741327E0,0E0,0E0,0E0,0E0,0E0,0E0,0E0,0E0,5.6826344E0,6.7088985E0,0E0,4.6435933E0,4.894001E0,0E0,5.3115215E0,0E0,0E0,6.293673E0,8.465363E0,7.585757E0,5.595684E0,4.9950604E0,0E0,5.3162613E0,0E0,0E0,0E0,0E0,0E0,0E0,5.9492226E0,0E0,0E0,0E0,5.2490153E0,0E0,0E0,0E0,5.5462317E0,0E0,6.667283E0,0E0,0E0,0E0,0E0,0E0,0E0,0E0,0E0,0E0,0E0,0E0,0E0,0E0,0E0,0E0,0E0,0E0],"parents":[2147483647,0,0,1,1,2,2,3,3,4,4,5,5,6,6,8,8,9,9,10,10,11,11,12,12,13,13,14,14,15,15,16,16,17,17,18,18,19,19,20,20,21,21,22,22,23,23,24,24,25,25,26,26,29,29,31,31,32,32,33,33,34,34,35,35,36,36,37,37,41,41,42,42,44,44,45,45,48,48,49,49,53,53,56,56,65,65,66,66,68,68,69,69,71,71,74,74,75,75,76,76,77,77,78,78,80,80,87,87,91,91,95,95,97,97],"right_children":[2,4,6,8,10,12,14,-1,16,18,20,22,24,26,28,30,32,34,36,38,40,42,44,46,48,50,52,-1,-1,54,-1,56,58,60,62,64,66,68,-1,-1,-1,70,72,-1,74,76,-1,-1,78,80,-1,-1,-1,82,-1,-1,84,-1,-1,-1,-1,-1,-1,-1,-1,86,88,-1,90,92,-1,94,-1,-1,96,98,100,102,104,-1,106,-1,-1,-1,-1,-1,-1,108,-1,-1,-1,110,-1,-1,-1,112,-1,114,-1,-1,-1,-1,-1,-1,-1,-1,-1,-1,-1,-1,-1,-1,-1,-1,-1],"split_conditions":[6.496301E-2,-3.1800935E-1,5.282855E-1,-6.6146004E-1,-8.910625E-2,1E0,1E0,-1.0021008E-1,-2.902357E-1,-3.2569134E-1,1.0189477E0,9.832124E-2,2.892109E-1,5.745033E-1,8.9367E-1,4.934484E-1,-3.4525216E-1,-3.654003E-1,-1.8771054E-1,4.9893674E-1,-2.2003442E-1,1.0441836E0,-7.820816E-1,4.9124113E-1,3.0588797E-1,8.9367E-1,2.357681E0,7.548168E-2,9.578741E-2,2.674669E-1,-8.978124E-2,-3.21292E-1,-8.869263E-1,-4.835761E-1,-3.3788407E-1,-3.591949E-2,-1.9590995E-1,-5.4749954E-1,-2.750875E-2,3.5286043E-3,-4.477153E-2,9.3445545E-1,-3.9392972E-1,4.1938353E-2,7.5005895E-1,-7.6929713E-3,5.2281395E-2,7.245801E-2,4.494807E-1,-1.594809E-1,6.442709E-2,-2.4800409E-2,9.618816E-2,-5.357015E-1,-7.433312E-2,-2.1429746E-3,7.904385E-3,-1.577345E-2,-6.0606506E-2,7.432142E-3,-5.1917583E-2,-6.8491004E-2,-4.665E-2,-2.029206E-2,-4.356848E-2,1.753761E-1,-1.9643927E-1,2.537711E-2,-2.6721808E-1,2.8854585E-1,2.6562309E-2,-1.2371575E-1,5.108073E-2,1.7422618E-2,4.093782E-1,1.864662E-1,2.4309556E-1,1.3170834E0,1.0926856E0,-7.349075E-2,4.6529174E-1,-6.9880344E-2,-5.3721394E-2,-4.6436563E-2,4.650073E-2,3.8548745E-2,-2.2895295E-2,1.598721E-1,-2.7185304E-2,1.5203961E-2,-5.0908774E-3,2.952287E-1,-2.9383607E-2,-8.305921E-2,4.0104497E-2,2.1167226E-1,9.406212E-2,3.916462E-2,4.9248572E-2,1.7606374E-2,-5.285205E-2,6.571443E-2,-1.02100745E-2,3.1709703E-4,8.11103E-2,-4.2050943E-2,4.343192E-2,1.9625474E-2,-2.5807718E-2,-5.836194E-3,4.5845814E-2,6.8684764E-2,-5.74562E-2,7.8776486E-2,1.0852651E-2],"split_indices":[0,0,1,1,0,4,4,0,1,27,20,21,0,8,1,20,2,20,0,6,5,22,20,14,5,1,1,0,0,14,0,20,20,14,1,20,2,20,0,0,0,11,30,0,19,14,0,0,12,22,0,0,0,19,0,0,1,0,0,0,0,0,0,0,0,7,20,0,30,30,0,12,0,0,1,0,3,19,9,0,2,0,0,0,0,0,0,29,0,0,0,18,0,0,0,21,0,3,0,0,0,0,0,0,0,0,0,0,0,0,0,0,0,0,0],"split_type":[0,0,0,0,0,0,0,0,0,0,0,0,0,0,0,0,0,0,0,0,0,0,0,0,0,0,0,0,0,0,0,0,0,0,0,0,0,0,0,0,0,0,0,0,0,0,0,0,0,0,0,0,0,0,0,0,0,0,0,0,0,0,0,0,0,0,0,0,0,0,0,0,0,0,0,0,0,0,0,0,0,0,0,0,0,0,0,0,0,0,0,0,0,0,0,0,0,0,0,0,0,0,0,0,0,0,0,0,0,0,0,0,0,0,0],"sum_hessian":[1.1706998E4,6.217702E3,5.489296E3,3.3390715E3,2.8786306E3,2.2827073E3,3.2065886E3,1.137854E3,2.2012175E3,1.9232533E3,9.5537744E2,1.1333546E3,1.1493525E3,6.824125E2,2.5241763E3,1.7392769E3,4.6194073E2,6.6391486E2,1.2593385E3,7.749006E2,1.8047685E2,4.194462E2,7.139084E2,7.399051E2,4.0944748E2,6.4491724E2,3.749519E1,5.799256E2,1.9442506E3,1.4593127E3,2.7996408E2,1.4998076E2,3.1196E2,1.16485054E2,5.4742975E2,7.913985E2,4.6793997E2,6.804127E2,9.448788E1,2.899628E1,1.5148056E2,3.5795407E2,6.149211E1,8.298936E1,6.3091907E2,6.1692084E2,1.2298422E2,2.2197153E2,1.8747595E2,4.029483E2,2.4196896E2,3.249583E1,4.9993587E0,1.02386865E3,4.3544415E2,6.749134E1,8.248942E1,3.149596E1,2.8046402E2,4.3994354E1,7.24907E1,2.4796819E2,2.9946158E2,3.7745157E2,4.139469E2,9.248814E1,3.7545184E2,1.2698371E2,5.53429E2,3.1245993E2,4.5494164E1,1.449814E1,4.6993973E1,5.9442377E2,3.649532E1,3.8395074E2,2.3297011E2,1.3598256E2,5.1493393E1,4.9993587E0,3.9794894E2,3.474554E2,6.764132E2,7.649019E1,5.9992304E0,7.24907E1,1.9997435E1,1.2998332E2,2.454685E2,1.784771E2,3.749519E2,2.2547107E2,8.698884E1,7.4990377E0,6.999102E0,3.249583E1,3.999487E0,1.7447762E2,2.0947313E2,2.1547235E2,1.7497755E1,1.254839E2,1.0498653E1,4.099474E1,1.0498653E1,7.4990377E0,3.9044992E2,7.94898E1,5.0493523E1,2.0197409E2,2.3496986E1,3.999487E0,2.8496344E1,1.7497755E1,1.5697986E2],"tree_param":{"num_deleted":"0","num_feature":"31","num_nodes":"115","size_leaf_vector":"1"}},{"base_weights":[-1.0010925E-4,8.273409E-1,-2.108797E-2,2.5712192E-1,1.9574901E-1,-2.4440724E-2,4.331814E-2,1.3813682E-1,-4.3488782E-2,1.2621787E0,1.6447607E-2,-1.6992494E-2,3.2414123E-1,2.5223E-1,-7.267807E-3,3.9047095E-1,-3.2491077E-2,5.4501706E-1,-1.7068904E-2,4.7289815E-2,1.7256951E-1],"categories":[],"categories_nodes":[],"categories_segments":[],"categories_sizes":[],"default_left":[0,0,0,0,0,0,0,0,0,0,0,0,0,0,0,0,0,0,0,0,0],"id":1,"left_children":[1,3,5,7,-1,-1,9,-1,-1,11,13,-1,-1,15,-1,17,-1,19,-1,-1,-1],"loss_changes":[7.755132E0,5.905588E0,6.3038654E0,5.801886E0,0E0,0E0,1.0895586E1,0E0,0E0,2.0157337E1,6.9774346E0,0E0,0E0,7.2336764E0,0E0,6.52676E0,0E0,5.066019E0,0E0,0E0,0E0],"parents":[2147483647,0,0,1,1,2,2,3,3,6,6,9,9,10,10,13,13,15,15,17,17],"right_children":[2,4,6,8,-1,-1,10,-1,-1,12,14,-1,-1,16,-1,18,-1,20,-1,-1,-1],"split_conditions":[-4.7362906E-1,1.6233805E-1,-2.8490868E-1,-2.8212902E-1,1.9574901E-1,-2.4440724E-2,-2.7456903E-1,1.3813682E-1,-4.3488782E-2,-1.3844515E-1,-3.7736356E-1,-1.6992494E-2,3.2414123E-1,1.0342021E0,-7.267807E-3,6.320135E-1,-3.2491077E-2,-3.980831E-1,-1.7068904E-2,4.7289815E-2,1.7256951E-1],"split_indices":[13,2,29,15,0,0,29,0,0,0,19,0,0,27,0,15,0,19,0,0,0],"split_type":[0,0,0,0,0,0,0,0,0,0,0,0,0,0,0,0,0,0,0,0,0],"sum_hessian":[4.6211902E2,1.095022E1,4.511688E2,7.3987975E0,3.5514228E0,1.0529968E2,3.458691E2,3.0187094E0,4.380088E0,7.1028457E0,3.3876627E2,3.9657555E0,3.1370902E0,9.196212E1,2.4680415E2,7.4402306E1,1.7559813E1,5.8677395E1,1.5724911E1,5.4751102E1,3.9262953E0],"tree_param":{"num_deleted":"0","num_feature":"31","num_nodes":"21","size_leaf_vector":"1"}},{"base_weights":[-0E0,5.079288E-1,-5.6562304E-1,7.3706025E-1,2.3700303E-1,-2.6527646E-1,-7.839382E-1,1.0127166E-1,6.1291975E-1,3.268297E-1,4.6773955E-2,-1.1659111E-1,-4.1200495E-1,-4.4915098E-1,-8.743976E-1,6.580201E-1,4.431668E-1,5.0504035E-1,2.3267718E-1,-5.450704E-2,2.6649356E-1,-1.528758E-1,3.2536292E-3,-3.102575E-1,-5.9924203E-1,-2.4963959E-1,-5.140371E-1,-8.021044E-1,-1.0023268E-1,6.419664E-2,9.0138294E-2,4.71595E-3,4.996821E-1,5.595455E-1,3.1489378E-1,3.1322518E-1,9.566019E-2,-9.025647E-2,2.8925362E-1,1.6088417E-1,4.4328302E-2,-1.3125958E-1,-5.025107E-2,-3.3982405E-1,-4.5044646E-2,-7.442913E-2,-4.9424636E-1,-2.8980127E-1,8.029441E-2,-4.3933023E-2,-6.892825E-2,-7.537772E-2,-8.8513836E-2,1.4767592E-1,5.743301E-2,6.94854E-2,4.627967E-1,2.122778E-1,7.717109E-2,2.1532468E-2,4.2276796E-2,-2.3751055E-1,1.7833719E-1,-2.5271364E-2,-2.4397688E-3,-5.780144E-2,4.0032875E-2,3.1486746E-2,-1.04169035E-2,-1.5492389E-1,1.10648E-2,-3.0028754E-1,-5.6248482E-2,-6.540626E-2,1.6623486E-2,-6.0439013E-2,-2.4609476E-2,-1.061276E-2,-5.1799204E-2,3.830929E-2,-2.3175426E-2,1.8817286E-1,5.5161882E-2,-6.300599E-3,3.9524876E-2,-3.7461076E-2,1.97892E-2,9.345199E-2,3.848154E-1,-2.105252E-1,-4.682101E-2,-2.4323168E-1,-4.5604935E-1,4.8271257E-2,-1.6661609E-2,7.3227454E-3,9.788259E-2,-5.269413E-2,4.6705265E-2,-1.8596243E-2,-5.281009E-2,1.0181062E-2,-1.7652528E-2,-1.3725055E-2,-4.3491717E-2,-6.1512362E-2,-0E0],"categories":[],"categories_nodes":[],"categories_segments":[],"categories_sizes":[],"default_left":[0,0,0,0,0,0,0,0,0,0,0,0,0,0,0,0,0,0,0,0,0,0,0,0,0,0,0,0,0,0,0,0,0,0,0,0,0,0,0,0,0,0,0,0,0,0,0,0,0,0,0,0,0,0,0,0,0,0,0,0,0,0,0,0,0,0,0,0,0,0,0,0,0,0,0,0,0,0,0,0,0,0,0,0,0,0,0,0,0,0,0,0,0,0,0,0,0,0,0,0,0,0,0,0,0,0,0],"id":2,"left_children":[1,3,5,7,9,11,13,-1,15,17,19,21,23,25,27,29,31,33,35,37,39,41,-1,43,45,47,49,51,-1,-1,-1,-1,53,55,57,59,61,63,65,67,-1,69,-1,71,73,-1,75,77,-1,-1,-1,-1,-1,79,-1,-1,81,83,-1,-1,-1,85,87,-1,-1,-1,-1,-1,-1,89,-1,91,-1,-1,-1,-1,-1,-1,-1,-1,-1,93,-1,-1,-1,-1,-1,95,97,99,101,103,105,-1,-1,-1,-1,-1,-1,-1,-1,-1,-1,-1,-1,-1,-1],"loss_changes":[3.363023E3,3.825266E2,3.62766E2,9.879468E1,4.8176804E1,5.069069E1,9.662073E1,0E0,1.6459595E1,3.193785E1,2.02796E1,6.2669897E0,2.2013E1,8.572449E0,1.6167725E1,1.3730103E1,1.0243042E1,6.5499115E0,1.3731636E1,7.560815E0,4.6849155E0,6.476927E0,0E0,5.835861E0,4.682617E0,6.8086405E0,6.6061096E0,4.901428E0,0E0,0E0,0E0,0E0,7.4956284E0,5.0789185E0,6.2305813E0,7.6654816E0,1.2848814E1,5.674786E0,4.681805E0,6.6045694E0,0E0,4.9566574E0,0E0,5.1770782E0,9.500635E0,0E0,4.722E0,6.203824E0,0E0,0E0,0E0,0E0,0E0,4.591279E0,0E0,0E0,4.984379E0,5.694685E0,0E0,0E0,0E0,4.9458537E0,6.4085035E0,0E0,0E0,0E0,0E0,0E0,0E0,4.714653E0,0E0,4.850685E0,0E0,0E0,0E0,0E0,0E0,0E0,0E0,0E0,0E0,5.5848637E0,0E0,0E0,0E0,0E0,0E0,4.836284E0,6.3340263E0,4.654541E0,4.922138E0,8.043697E0,9.399546E0,0E0,0E0,0E0,0E0,0E0,0E0,0E0,0E0,0E0,0E0,0E0,0E0,0E0,0E0],"parents":[2147483647,0,0,1,1,2,2,3,3,4,4,5,5,6,6,8,8,9,9,10,10,11,11,12,12,13,13,14,14,15,15,16,16,17,17,18,18,19,19,20,20,21,21,23,23,24,24,25,25,26,26,27,27,32,32,33,33,34,34,35,35,36,36,37,37,38,38,39,39,41,41,43,43,44,44,46,46,47,47,53,53,56,56,57,57,61,61,62,62,69,69,71,71,81,81,87,87,88,88,89,89,90,90,91,91,92,92],"right_children":[2,4,6,8,10,12,14,-1,16,18,20,22,24,26,28,30,32,34,36,38,40,42,-1,44,46,48,50,52,-1,-1,-1,-1,54,56,58,60,62,64,66,68,-1,70,-1,72,74,-1,76,78,-1,-1,-1,-1,-1,80,-1,-1,82,84,-1,-1,-1,86,88,-1,-1,-1,-1,-1,-1,90,-1,92,-1,-1,-1,-1,-1,-1,-1,-1,-1,94,-1,-1,-1,-1,-1,96,98,100,102,104,106,-1,-1,-1,-1,-1,-1,-1,-1,-1,-1,-1,-1,-1,-1],"split_conditions":[5.725882E-2,-3.1800935E-1,5.282855E-1,-6.6146004E-1,-8.910625E-2,1E0,1E0,1.0127166E-1,-2.902357E-1,-3.2569134E-1,5.584028E-1,6.6904825E-1,2.892109E-1,3.1501317E-1,2.41042E0,5.326438E-1,-8.7311417E-1,2.268422E-2,-1.8771054E-1,5.585343E-1,-6.5851263E-3,6.179741E-1,3.2536292E-3,9.482053E-1,3.6167988E-1,1.6648289E0,7.373259E-1,8.9367E-1,-1.0023268E-1,6.419664E-2,9.0138294E-2,4.71595E-3,-4.1164678E-1,-3.3788407E-1,7.776594E-1,-3.591949E-2,-1.9590995E-1,-3.0401838E-1,-1.9501673E-1,-6.524287E-2,4.4328302E-2,6.9446856E-1,-5.025107E-2,4.9124113E-1,-7.142884E-2,-7.442913E-2,4.898549E-1,-9.024507E-2,8.029441E-2,-4.3933023E-2,-6.892825E-2,-7.537772E-2,-8.8513836E-2,-1.3288462E-1,5.743301E-2,6.94854E-2,-3.6509594E-1,-4.8966177E-2,7.717109E-2,2.1532468E-2,4.2276796E-2,1.753761E-1,5.326438E-1,-2.5271364E-2,-2.4397688E-3,-5.780144E-2,4.0032875E-2,3.1486746E-2,-1.04169035E-2,4.1744936E-1,1.10648E-2,2.2298561E-1,-5.6248482E-2,-6.540626E-2,1.6623486E-2,-6.0439013E-2,-2.4609476E-2,-1.061276E-2,-5.1799204E-2,3.830929E-2,-2.3175426E-2,-3.9068612E-1,5.5161882E-2,-6.300599E-3,3.9524876E-2,-3.7461076E-2,1.97892E-2,1.2001433E0,-4.4763944E-1,3.933338E0,-3.471814E-1,-3.5819232E-1,1.8263374E-2,4.8271257E-2,-1.6661609E-2,7.3227454E-3,9.788259E-2,-5.269413E-2,4.6705265E-2,-1.8596243E-2,-5.281009E-2,1.0181062E-2,-1.7652528E-2,-1.3725055E-2,-4.3491717E-2,-6.1512362E-2,-0E0],"split_indices":[0,0,1,1,0,4,4,0,1,27,20,6,0,10,1,20,20,7,0,6,2,0,0,30,2,19,6,1,0,0,0,0,5,1,17,20,2,19,5,9,0,19,0,14,5,0,12,12,0,0,0,0,0,10,0,0,5,20,0,0,0,7,20,0,0,0,0,0,0,20,0,0,0,0,0,0,0,0,0,0,0,6,0,0,0,0,0,19,10,29,14,27,14,0,0,0,0,0,0,0,0,0,0,0,0,0,0],"split_type":[0,0,0,0,0,0,0,0,0,0,0,0,0,0,0,0,0,0,0,0,0,0,0,0,0,0,0,0,0,0,0,0,0,0,0,0,0,0,0,0,0,0,0,0,0,0,0,0,0,0,0,0,0,0,0,0,0,0,0,0,0,0,0,0,0,0,0,0,0,0,0,0,0,0,0,0,0,0,0,0,0,0,0,0,0,0,0,0,0,0,0,0,0,0,0,0,0,0,0,0,0,0,0,0,0,0,0],"sum_hessian":[1.1705634E4,6.167544E3,5.5380903E3,3.340753E3,2.8267908E3,2.3318274E3,3.2062627E3,1.1389158E3,2.2018372E3,1.918858E3,9.0793286E2,1.1594142E3,1.1724133E3,6.8294946E2,2.5233132E3,1.7378715E3,4.6396567E2,6.6195105E2,1.256907E3,6.204541E2,2.8747873E2,9.3293097E2,2.2648325E2,7.609437E2,4.1146957E2,1.689875E2,5.13962E2,1.4173951E3,1.1059182E3,1.4693914E3,2.6848013E2,5.8495674E1,4.0547E2,5.1296204E2,1.4898898E2,7.899416E2,4.6696545E2,5.629584E2,5.7495747E1,1.7498706E2,1.1249168E2,8.769351E2,5.5995857E1,6.8344946E2,7.749427E1,1.9148584E2,2.1998373E2,1.6298795E2,5.999556E0,3.229761E2,1.9098587E2,5.799571E2,8.3743805E2,5.4995934E1,3.5047406E2,2.3748244E2,2.754796E2,1.2099105E2,2.7997929E1,3.7497226E2,4.149693E2,9.1993195E1,3.7497226E2,1.689875E2,3.9397086E2,5.4995933E0,5.1996155E1,1.1399157E2,6.0995487E1,7.989409E2,7.799423E1,5.734576E2,1.0999187E2,2.0498484E1,5.6995785E1,1.6248798E2,5.7495747E1,8.699357E1,7.599438E1,3.499741E1,1.999852E1,5.649582E1,2.189838E2,4.5496635E1,7.5494415E1,7.1994675E1,1.999852E1,2.6698026E2,1.0799201E2,5.254611E2,2.7347977E2,4.214688E2,1.5198875E2,3.1997633E1,2.4498188E1,2.6048074E2,6.4995193E0,6.999482E0,1.0099253E2,4.7696472E2,4.8496414E1,1.2449079E2,1.4898898E2,2.5998077E2,1.6148805E2,1.1649138E2,3.5497375E1],"tree_param":{"num_deleted":"0","num_feature":"31","num_nodes":"107","size_leaf_vector":"1"}},{"base_weights":[-4.14346E-4,-4.524237E-1,5.10504E-1,-6.622943E-1,-2.0988104E-1,3.183589E-1,7.993074E-1,-9.252936E-2,-5.57203E-1,-2.888249E-1,-5.0805736E-2,1.6095538E-1,4.6078503E-1,5.2780575E-1,8.658399E-2,-5.9832716E-1,-3.9520356E-1,-4.5074382E-1,-2.032512E-1,1.2323066E-2,-3.235724E-1,6.307831E-2,2.9180384E-1,2.6714388E-1,6.0548776E-1,5.8867943E-2,-3.1009546E-2,-5.6221116E-1,-7.9629034E-2,-2.087828E-2,-5.0514225E-2,-2.463751E-1,-4.9363992E-1,-2.7983427E-1,-7.2991E-2,5.246182E-3,-2.5114391E-2,6.828997E-2,-4.0168963E-2,-4.3729406E-2,1.1853181E-1,3.1074753E-1,-2.1989793E-2,2.979804E-1,-0E0,2.9507256E-1,6.478315E-2,-5.7821125E-2,7.536206E-2,-5.116118E-1,-6.904957E-2,7.802802E-3,-4.6690505E-2,-6.2044367E-2,-4.2114865E-2,-1.8048586E-2,-3.8942028E-2,9.075146E-2,-2.0130311E-1,-2.3806494E-2,7.470173E-2,-0E0,-4.8555315E-2,1.4800929E-1,-2.2737886E-1,4.347788E-2,2.1229504E-1,4.3468475E-2,2.3548506E-1,8.376228E-2,6.2836437E-3,-6.734115E-2,-4.8566736E-2,5.8751084E-2,3.8296657E-3,-2.9945067E-1,1.395559E-1,3.9584485E-1,-5.2650585E-3,1.5820491E-1,-9.066703E-2,-4.772108E-2,3.1003112E-2,-8.028414E-3,2.6827782E-1,2.8278646E-1,-8.44211E-3,-4.4872973E-2,-6.8530054E-3,8.565511E-2,-3.460772E-3,-3.2508653E-2,6.2022626E-2,8.113105E-3,2.8333511E-2,-3.6332887E-3,3.810319E-2,-8.160382E-3,3.3927407E-2],"categories":[],"categories_nodes":[],"categories_segments":[],"categories_sizes":[],"default_left":[0,0,0,0,0,0,0,0,0,0,0,0,0,0,0,0,0,0,0,0,0,0,0,0,0,0,0,0,0,0,0,0,0,0,0,0,0,0,0,0,0,0,0,0,0,0,0,0,0,0,0,0,0,0,0,0,0,0,0,0,0,0,0,0,0,0,0,0,0,0,0,0,0,0,0,0,0,0,0,0,0,0,0,0,0,0,0,0,0,0,0,0,0,0,0,0,0,0,0],"id":3,"left_children":[1,3,5,7,9,11,13,-1,15,17,19,21,23,25,-1,27,29,31,33,35,37,39,41,43,45,-1,47,49,-1,-1,-1,51,53,55,57,-1,-1,59,-1,61,63,65,-1,67,-1,69,-1,-1,-1,71,-1,-1,-1,-1,-1,-1,-1,73,75,-1,-1,77,-1,79,81,-1,83,-1,85,-1,-1,-1,-1,-1,-1,87,89,91,-1,93,-1,-1,-1,-1,95,97,-1,-1,-1,-1,-1,-1,-1,-1,-1,-1,-1,-1,-1],"loss_changes":[2.6919028E3,3.1452966E2,3.0321277E2,7.962561E1,3.5926247E1,7.3456116E1,2.0700806E1,0E0,1.4812073E1,2.6328629E1,1.6523651E1,1.9886986E1,4.799887E1,5.8850403E0,0E0,1.0626648E1,8.011139E0,5.5361023E0,1.2403412E1,7.4697294E0,4.6177597E0,5.328884E0,6.4063606E0,5.9921494E0,5.577881E0,0E0,6.5854955E0,7.4319153E0,0E0,0E0,0E0,7.755477E0,4.6326447E0,7.7973022E0,9.842488E0,0E0,0E0,4.9540944E0,0E0,5.574571E0,6.0070696E0,6.6572037E0,0E0,4.7784996E0,0E0,6.781689E0,0E0,0E0,0E0,5.6072693E0,0E0,0E0,0E0,0E0,0E0,0E0,0E0,5.0154924E0,8.849374E0,0E0,0E0,5.4983845E0,0E0,5.4608555E0,5.653071E0,0E0,5.5699778E0,0E0,6.639435E0,0E0,0E0,0E0,0E0,0E0,0E0,6.201296E0,7.161525E0,4.5701404E0,0E0,4.856002E0,0E0,0E0,0E0,0E0,8.7002945E0,6.224718E0,0E0,0E0,0E0,0E0,0E0,0E0,0E0,0E0,0E0,0E0,0E0,0E0,0E0],"parents":[2147483647,0,0,1,1,2,2,3,3,4,4,5,5,6,6,8,8,9,9,10,10,11,11,12,12,13,13,15,15,16,16,17,17,18,18,19,19,20,20,21,21,22,22,23,23,24,24,26,26,27,27,31,31,32,32,33,33,34,34,37,37,39,39,40,40,41,41,43,43,45,45,49,49,57,57,58,58,61,61,63,63,64,64,66,66,68,68,75,75,76,76,77,77,79,79,84,84,85,85],"right_children":[2,4,6,8,10,12,14,-1,16,18,20,22,24,26,-1,28,30,32,34,36,38,40,42,44,46,-1,48,50,-1,-1,-1,52,54,56,58,-1,-1,60,-1,62,64,66,-1,68,-1,70,-1,-1,-1,72,-1,-1,-1,-1,-1,-1,-1,74,76,-1,-1,78,-1,80,82,-1,84,-1,86,-1,-1,-1,-1,-1,-1,88,90,92,-1,94,-1,-1,-1,-1,96,98,-1,-1,-1,-1,-1,-1,-1,-1,-1,-1,-1,-1,-1],"split_conditions":[6.496301E-2,-3.1800935E-1,8.9367E-1,-7.447648E-1,-8.910625E-2,1E0,1E0,-9.252936E-2,-2.902357E-1,-3.2569134E-1,1.0189477E0,4.3367818E-1,2.892109E-1,5.427568E-1,8.658399E-2,4.1744936E-1,-3.4525216E-1,-3.654003E-1,-1.8771054E-1,4.6894634E-1,-1.4456868E-1,1.0717296E-2,6.791495E-1,9.033989E-1,2.4146898E-1,5.8867943E-2,2.357681E0,2.674669E-1,-7.9629034E-2,-2.087828E-2,-5.0514225E-2,-4.835761E-1,-3.3788407E-1,-3.591949E-2,-1.3952789E-1,5.246182E-3,-2.5114391E-2,4.470404E-3,-4.0168963E-2,1.2075099E0,5.1978457E-1,5.221096E-1,-2.1989793E-2,3.0090336E-2,-0E0,2.501271E-1,6.478315E-2,-5.7821125E-2,7.536206E-2,-4.0058857E-1,-6.904957E-2,7.802802E-3,-4.6690505E-2,-6.2044367E-2,-4.2114865E-2,-1.8048586E-2,-3.8942028E-2,-2.9399008E-1,1.0140305E0,-2.3806494E-2,7.470173E-2,-1.0370288E0,-4.8555315E-2,1.4516153E0,6.453815E-1,4.347788E-2,-5.546194E-1,4.3468475E-2,1.3003557E0,8.376228E-2,6.2836437E-3,-6.734115E-2,-4.8566736E-2,5.8751084E-2,3.8296657E-3,2.268422E-2,-7.925086E-1,-4.2788047E-1,-5.2650585E-3,2.1713223E-1,-9.066703E-2,-4.772108E-2,3.1003112E-2,-8.028414E-3,3.4563676E-1,-6.1744537E-2,-8.44211E-3,-4.4872973E-2,-6.8530054E-3,8.565511E-2,-3.460772E-3,-3.2508653E-2,6.2022626E-2,8.113105E-3,2.8333511E-2,-3.6332887E-3,3.810319E-2,-8.160382E-3,3.3927407E-2],"split_indices":[0,0,1,1,0,4,4,0,1,27,20,0,0,8,0,20,2,20,0,6,2,21,8,30,1,0,1,14,0,0,0,14,1,20,2,0,0,11,0,18,2,27,0,19,0,2,0,0,0,9,0,0,0,0,0,0,0,2,27,0,0,17,0,19,12,0,17,0,20,0,0,0,0,0,0,7,30,18,0,0,0,0,0,0,1,1,0,0,0,0,0,0,0,0,0,0,0,0,0],"split_type":[0,0,0,0,0,0,0,0,0,0,0,0,0,0,0,0,0,0,0,0,0,0,0,0,0,0,0,0,0,0,0,0,0,0,0,0,0,0,0,0,0,0,0,0,0,0,0,0,0,0,0,0,0,0,0,0,0,0,0,0,0,0,0,0,0,0,0,0,0,0,0,0,0,0,0,0,0,0,0,0,0,0,0,0,0,0,0,0,0,0,0,0,0,0,0,0,0,0,0],"sum_hessian":[1.1656204E4,6.185005E3,5.471199E3,3.3150054E3,2.8699993E3,3.2861982E3,2.185001E3,1.038165E3,2.2768403E3,1.9166359E3,9.5336346E2,1.5622386E3,1.7239596E3,2.5540616E2,1.929595E3,1.814021E3,4.628194E2,6.612048E2,1.2554312E3,7.73245E2,1.8011845E2,8.9527405E2,6.669646E2,7.3840857E2,9.85551E2,2.3893567E2,1.6470491E1,1.4975634E3,3.1645764E2,1.5020145E2,3.1261795E2,1.1617852E2,5.4502625E2,7.8891144E2,4.6651974E2,6.733913E2,9.985366E1,2.4485321E1,1.5563313E2,3.0388235E2,5.9139166E2,6.434781E2,2.348654E1,6.609558E2,7.745277E1,5.8803303E1,9.2674774E2,9.994707E0,6.475785E0,1.00908624E3,4.884771E2,4.445585E1,7.172267E1,2.4604286E2,2.9898337E2,3.7661218E2,4.1229926E2,2.038133E2,2.6270645E2,1.6489754E1,7.995567E0,2.7589688E2,2.7985476E1,5.4590045E2,4.5491253E1,3.0424948E2,3.3922858E2,2.2280058E2,4.3815518E2,1.793212E1,4.087118E1,2.3869948E2,7.703868E2,1.998483E1,1.8382848E2,2.0475366E2,5.795278E1,3.0972107E1,2.4492477E2,5.409108E2,4.9895973E0,3.1992859E1,1.3498394E1,5.3948486E1,2.852801E2,3.8218768E2,5.5967518E1,1.2933723E2,7.541643E1,1.198924E1,4.5963543E1,6.491172E0,2.4480934E1,3.2094727E2,2.1996355E2,6.947969E1,2.1580042E2,4.0982487E1,3.412052E2],"tree_param":{"num_deleted":"0","num_feature":"31","num_nodes":"99","size_leaf_vector":"1"}},{"base_weights":[-1.5258265E-3,-2.882735E-2,5.260148E-2,7.658782E-1,2.1759382E-2,1.8573123E-1,1.714894E-1,3.4728095E-1,-3.802247E-3,1.3712925E-1,-3.0893505E-2,2.529221E-1,1.7410319E-1,7.0359695E-1,7.667477E-5,2.8506845E-1,1.475535E-1,1.5093198E-1,-2.3104994E-2],"categories":[],"categories_nodes":[],"categories_segments":[],"categories_sizes":[],"default_left":[0,0,0,0,0,0,0,0,0,0,0,0,0,0,0,0,0,0,0],"id":4,"left_children":[1,-1,3,5,7,9,-1,11,-1,-1,-1,13,-1,15,-1,17,-1,-1,-1],"loss_changes":[6.984731E0,0E0,8.201622E0,7.3356714E0,7.136126E0,5.716373E0,0E0,6.489069E0,0E0,0E0,0E0,5.8639116E0,0E0,5.0422535E0,0E0,7.747074E0,0E0,0E0,0E0],"parents":[2147483647,0,0,2,2,3,3,4,4,5,5,7,7,11,11,13,13,15,15],"right_children":[2,-1,4,6,8,10,-1,12,-1,-1,-1,14,-1,16,-1,18,-1,-1,-1],"split_conditions":[-4.9505636E-1,-2.882735E-2,-4.544619E-1,1.314352E-1,-4.5584765E-1,-3.520431E-1,1.714894E-1,1.3980936E0,-3.802247E-3,1.3712925E-1,-3.0893505E-2,3.2799406E-5,1.7410319E-1,1.7589916E-1,7.667477E-5,-6.5542793E-1,1.475535E-1,1.5093198E-1,-2.3104994E-2],"split_indices":[3,0,13,11,19,19,0,6,0,0,0,6,0,18,0,11,0,0,0],"split_type":[0,0,0,0,0,0,0,0,0,0,0,0,0,0,0,0,0,0,0],"sum_hessian":[4.614367E2,7.650971E1,3.8492697E2,1.5413812E1,3.6951318E2,9.61694E0,5.7968726E0,5.7049664E1,3.124635E2,3.034826E0,6.5821133E0,5.3608658E1,3.4410083E0,1.8697126E1,3.491153E1,1.2194612E1,6.5025153E0,3.8431299E0,8.351482E0],"tree_param":{"num_deleted":"0","num_feature":"31","num_nodes":"19","size_leaf_vector":"1"}},{"base_weights":[2.5825173E-4,4.5285034E-1,-5.145857E-1,6.648966E-1,2.0739989E-1,-3.2706589E-1,-7.9713345E-1,9.320319E-2,5.580275E-1,2.9139084E-1,3.8296808E-2,-1.7230849E-1,-4.667532E-1,-5.2241427E-1,-8.3317244E-1,5.986514E-1,3.9788255E-1,4.5445052E-1,2.0515807E-1,-4.4677768E-2,1.606494E-1,-7.955985E-2,-2.9617012E-1,-2.7960715E-1,-6.066577E-1,-3.2467477E-2,-6.602451E-2,-8.049174E-2,-9.170693E-2,5.248896E-1,6.509149E-1,2.1146264E-2,4.9011487E-1,5.2411076E-2,2.7656764E-1,2.628371E-1,5.2389678E-2,7.020757E-2,-2.0940006E-2,3.4618665E-2,5.4277913E-3,3.1399325E-2,-1.3722238E-1,-9.545696E-2,-3.574416E-2,-3.106742E-1,-2.93778E-4,-3.20237E-1,-6.477838E-2,6.8414554E-2,4.8854925E-2,7.042612E-2,4.7949146E-2,3.0748246E-2,6.050466E-2,1.8028986E-1,7.064505E-2,3.0200905E-1,8.591762E-3,1.5633461E-1,-1.0418347E-1,5.1165655E-2,1.9805172E-2,-1.4728159E-1,1.454017E-2,-1.7518558E-2,2.3849285E-1,2.1889014E-2,-2.3028407E-2,-1.6796367E-3,-3.3673143E-1,-5.5576928E-2,1.690311E-2,-8.195577E-2,-1.1365083E-2,-4.799227E-2,3.7197374E-2,2.7765152E-1,7.325239E-2,-5.508057E-2,2.9475108E-2,-4.0469863E-2,1.2999872E-3,1.4685817E-2,-1.429458E-2,2.8115261E-2,-5.0838728E-2,4.8861146E-2,-2.895078E-2,-7.121225E-2,-3.2393757E-2,4.9958184E-2,-2.400634E-2,3.69807E-2,1.815948E-2,-2.0400196E-2,5.5944618E-2,-2.5108842E-2,3.148288E-2],"categories":[],"categories_nodes":[],"categories_segments":[],"categories_sizes":[],"default_left":[0,0,0,0,0,0,0,0,0,0,0,0,0,0,0,0,0,0,0,0,0,0,0,0,0,0,0,0,0,0,0,0,0,0,0,0,0,0,0,0,0,0,0,0,0,0,0,0,0,0,0,0,0,0,0,0,0,0,0,0,0,0,0,0,0,0,0,0,0,0,0,0,0,0,0,0,0,0,0,0,0,0,0,0,0,0,0,0,0,0,0,0,0,0,0,0,0,0,0],"id":5,"left_children":[1,3,5,7,9,11,13,-1,15,17,19,21,23,25,27,29,31,33,35,37,39,41,43,45,47,-1,-1,-1,-1,49,51,-1,53,-1,55,57,59,61,-1,-1,-1,63,65,67,-1,69,71,73,-1,-1,-1,-1,-1,-1,-1,75,-1,77,-1,79,81,-1,83,85,-1,-1,87,-1,-1,-1,89,-1,-1,-1,-1,91,-1,93,-1,95,-1,-1,-1,-1,-1,97,-1,-1,-1,-1,-1,-1,-1,-1,-1,-1,-1,-1,-1],"loss_changes":[2.715398E3,3.224873E2,2.88432E2,8.264807E1,4.07277E1,7.063083E1,2.1026245E1,0E0,1.4506409E1,2.6763824E1,9.742065E0,1.7748505E1,4.4757904E1,5.7260056E0,4.9802246E0,6.5909424E0,8.060852E0,5.736908E0,1.0970566E1,1.0306879E1,7.144206E0,5.7405567E0,6.3268127E0,6.2951736E0,4.759613E0,0E0,0E0,0E0,0E0,5.085037E0,5.253235E0,0E0,5.35347E0,0E0,5.518255E0,6.290371E0,5.655261E0,6.800942E0,0E0,0E0,0E0,5.8903713E0,6.998555E0,5.092313E0,0E0,4.964878E0,6.696134E0,5.6027794E0,0E0,0E0,0E0,0E0,0E0,0E0,0E0,5.054762E0,0E0,7.0051804E0,0E0,5.744494E0,4.701241E0,0E0,5.6310635E0,6.988613E0,0E0,0E0,5.504796E0,0E0,0E0,0E0,4.8161697E0,0E0,0E0,0E0,0E0,5.032991E0,0E0,5.525425E0,0E0,6.467251E0,0E0,0E0,0E0,0E0,0E0,5.5785613E0,0E0,0E0,0E0,0E0,0E0,0E0,0E0,0E0,0E0,0E0,0E0,0E0,0E0],"parents":[2147483647,0,0,1,1,2,2,3,3,4,4,5,5,6,6,8,8,9,9,10,10,11,11,12,12,13,13,14,14,15,15,16,16,17,17,18,18,19,19,20,20,21,21,22,22,23,23,24,24,29,29,30,30,32,32,34,34,35,35,36,36,37,37,41,41,42,42,43,43,45,45,46,46,47,47,55,55,57,57,59,59,60,60,62,62,63,63,66,66,70,70,75,75,77,77,79,79,85,85],"right_children":[2,4,6,8,10,12,14,-1,16,18,20,22,24,26,28,30,32,34,36,38,40,42,44,46,48,-1,-1,-1,-1,50,52,-1,54,-1,56,58,60,62,-1,-1,-1,64,66,68,-1,70,72,74,-1,-1,-1,-1,-1,-1,-1,76,-1,78,-1,80,82,-1,84,86,-1,-1,88,-1,-1,-1,90,-1,-1,-1,-1,92,-1,94,-1,96,-1,-1,-1,-1,-1,98,-1,-1,-1,-1,-1,-1,-1,-1,-1,-1,-1,-1,-1],"split_conditions":[6.496301E-2,-3.1800935E-1,8.9367E-1,-7.447648E-1,-8.910625E-2,1E0,1E0,9.320319E-2,-2.902357E-1,-3.2569134E-1,-6.5851263E-3,4.3367818E-1,2.892109E-1,6.1215484E-1,2.4806197E0,-3.6393836E-1,-3.4525216E-1,2.268422E-2,1E0,-3.513471E-1,1.24260314E-1,1.0717296E-2,3.6843702E-1,9.482053E-1,2.4146898E-1,-3.2467477E-2,-6.602451E-2,-8.049174E-2,-9.170693E-2,-4.0058857E-1,4.6761435E-1,2.1146264E-2,-3.7589347E-1,5.2411076E-2,7.776594E-1,1.0140305E0,-1.8771054E-1,-9.0051866E-1,-2.0940006E-2,3.4618665E-2,5.4277913E-3,2.1475486E-1,5.1978457E-1,2.5325572E-1,-3.574416E-2,-7.952708E-2,-7.142884E-2,2.501271E-1,-6.477838E-2,6.8414554E-2,4.8854925E-2,7.042612E-2,4.7949146E-2,3.0748246E-2,6.050466E-2,2.758403E-1,7.064505E-2,1.2051655E-1,8.591762E-3,-5.275827E-1,-2.500133E-1,5.1165655E-2,-2.226568E-2,1.417802E-1,1.454017E-2,-1.7518558E-2,6.453815E-1,2.1889014E-2,-2.3028407E-2,-1.6796367E-3,-6.421286E-1,-5.5576928E-2,1.690311E-2,-8.195577E-2,-1.1365083E-2,-1.0476903E0,3.7197374E-2,-2.0777833E-1,7.325239E-2,-2.8972396E-1,2.9475108E-2,-4.0469863E-2,1.2999872E-3,1.4685817E-2,-1.429458E-2,1.7478403E-2,-5.0838728E-2,4.8861146E-2,-2.895078E-2,-7.121225E-2,-3.2393757E-2,4.9958184E-2,-2.400634E-2,3.69807E-2,1.815948E-2,-2.0400196E-2,5.5944618E-2,-2.5108842E-2,3.148288E-2],"split_indices":[0,0,1,1,0,4,4,0,1,27,2,0,0,6,1,14,2,7,4,27,27,21,1,30,1,0,0,0,0,9,13,0,7,0,17,27,0,14,0,0,0,2,2,6,0,1,5,2,0,0,0,0,0,0,0,7,0,5,0,14,2,0,0,0,0,0,12,0,0,0,7,0,0,0,0,14,0,0,0,2,0,0,0,0,0,6,0,0,0,0,0,0,0,0,0,0,0,0,0],"split_type":[0,0,0,0,0,0,0,0,0,0,0,0,0,0,0,0,0,0,0,0,0,0,0,0,0,0,0,0,0,0,0,0,0,0,0,0,0,0,0,0,0,0,0,0,0,0,0,0,0,0,0,0,0,0,0,0,0,0,0,0,0,0,0,0,0,0,0,0,0,0,0,0,0,0,0,0,0,0,0,0,0,0,0,0,0,0,0,0,0,0,0,0,0,0,0,0,0,0,0],"sum_hessian":[1.16532705E4,6.201919E3,5.451352E3,3.3265571E3,2.8753618E3,3.2775261E3,2.1738257E3,1.0417935E3,2.2847637E3,1.9197734E3,9.555883E2,1.5561311E3,1.721395E3,2.533466E2,1.9204791E3,1.820585E3,4.6417865E2,6.6258246E2,1.2571909E3,5.678092E2,3.8777914E2,8.9146857E2,6.6466254E2,7.3751855E2,9.838765E2,9.067356E1,1.6267303E2,9.142592E2,1.0062199E3,7.580921E2,1.0624929E3,1.5087561E2,3.1330304E2,5.132999E2,1.4928253E2,9.1096747E2,3.4622348E2,3.2690567E2,2.4090352E2,1.4790475E2,2.3987439E2,3.0285446E2,5.8861414E2,1.308849E2,5.3377765E2,6.6259753E2,7.492099E1,5.9643833E1,9.2423267E2,2.1380228E2,5.442898E2,9.220416E2,1.4045131E2,1.03276985E2,2.1002606E2,1.2137363E2,2.7908909E1,7.4654083E2,1.6442668E2,2.0938313E2,1.3684035E2,3.3990734E1,2.9291495E2,1.1344853E2,1.8940593E2,5.4364795E2,4.4966194E1,3.7462593E1,9.342231E1,5.4933235E1,6.076643E2,1.7942442E1,5.6978546E1,1.7881718E1,4.176211E1,5.2446934E1,6.89267E1,7.050635E2,4.147732E1,7.795676E1,1.3142636E2,4.0430973E1,9.640937E1,1.6645334E2,1.2646159E2,7.446452E1,3.8984E1,3.1477324E1,1.348887E1,3.841005E1,5.692543E2,1.2982899E1,3.9464035E1,3.962113E2,3.088522E2,6.3464386E1,1.4492375E1,3.6974487E1,3.749004E1],"tree_param":{"num_deleted":"0","num_feature":"31","num_nodes":"99","size_leaf_vector":"1"}},{"base_weights":[8.804316E-5,-4.1032434E-1,4.6345937E-1,-6.055226E-1,-1.878546E-1,2.876537E-1,7.3256105E-1,-8.5534655E-2,-5.069403E-1,-2.5957465E-1,-4.4162642E-2,1.4507051E-1,4.1685528E-1,4.7743422E-1,7.948005E-2,-5.444362E-1,-3.596274E-1,-4.0749344E-1,-1.8178816E-1,1.3780632E-2,-3.16663E-2,5.6471854E-2,2.633212E-1,2.3954196E-1,5.711285E-2,5.344723E-2,-5.018927E-2,-5.119143E-1,-7.489562E-2,-0E0,-4.1129592E-1,-2.553821E-1,-4.7757644E-2,-2.5211284E-1,-6.2367465E-2,5.178853E-3,-1.945209E-2,7.953144E-3,-2.376519E-2,2.813764E-1,-2.2363696E-2,2.0052122E-1,4.4773124E-2,-5.6925893E-2,6.979839E-2,-4.6683744E-1,-6.269174E-2,-6.983975E-2,-3.452876E-2,-9.960779E-3,-4.8260164E-1,-1.6040713E-2,-3.5302203E-2,2.1460518E-2,-1.2953131E-1,3.973476E-2,1.8932098E-1,2.756209E-1,7.6127306E-2,-5.8503423E-2,-4.309766E-2,-7.354093E-2,-1.8069426E-2,3.9665192E-2,-2.2811338E-2,-3.1782163E-3,2.5080413E-1,1.2506221E-1,4.1475203E-2,1.314491E-2,-5.3068627E-2,2.1129392E-2,-2.2102581E-2,-5.006919E-3,3.6047183E-2,3.8684484E-2,-1.7243292E-3],"categories":[],"categories_nodes":[],"categories_segments":[],"categories_sizes":[],"default_left":[0,0,0,0,0,0,0,0,0,0,0,0,0,0,0,0,0,0,0,0,0,0,0,0,0,0,0,0,0,0,0,0,0,0,0,0,0,0,0,0,0,0,0,0,0,0,0,0,0,0,0,0,0,0,0,0,0,0,0,0,0,0,0,0,0,0,0,0,0,0,0,0,0,0,0,0,0],"id":6,"left_children":[1,3,5,7,9,11,13,-1,15,17,19,21,23,25,-1,27,29,31,33,35,-1,37,39,41,-1,-1,43,45,-1,-1,47,49,-1,51,53,-1,-1,-1,-1,55,-1,57,-1,-1,-1,59,-1,-1,-1,-1,61,-1,-1,-1,63,-1,65,67,69,-1,-1,-1,-1,71,-1,-1,73,75,-1,-1,-1,-1,-1,-1,-1,-1,-1],"loss_changes":[2.1935012E3,2.6532202E2,2.5595569E2,6.995703E1,2.936354E1,6.0190277E1,1.8094116E1,0E0,1.2096619E1,2.1721893E1,1.4535E1,1.6230549E1,4.0536713E1,5.233452E0,0E0,9.90686E0,8.391354E0,5.039276E0,1.039513E1,5.6319623E0,0E0,5.1128817E0,5.7906227E0,5.335682E0,0E0,0E0,5.936042E0,5.945587E0,0E0,0E0,7.852127E0,6.0039606E0,0E0,6.5863876E0,8.395379E0,0E0,0E0,0E0,0E0,5.826679E0,0E0,5.6468143E0,0E0,0E0,0E0,4.7453003E0,0E0,0E0,0E0,0E0,4.5637054E0,0E0,0E0,0E0,5.78023E0,0E0,4.667925E0,6.9947166E0,6.850154E0,0E0,0E0,0E0,0E0,5.350053E0,0E0,0E0,7.825556E0,6.2620716E0,0E0,0E0,0E0,0E0,0E0,0E0,0E0,0E0,0E0],"parents":[2147483647,0,0,1,1,2,2,3,3,4,4,5,5,6,6,8,8,9,9,10,10,11,11,12,12,13,13,15,15,16,16,17,17,18,18,19,19,21,21,22,22,23,23,26,26,27,27,30,30,31,31,33,33,34,34,39,39,41,41,45,45,50,50,54,54,56,56,57,57,58,58,63,63,66,66,67,67],"right_children":[2,4,6,8,10,12,14,-1,16,18,20,22,24,26,-1,28,30,32,34,36,-1,38,40,42,-1,-1,44,46,-1,-1,48,50,-1,52,54,-1,-1,-1,-1,56,-1,58,-1,-1,-1,60,-1,-1,-1,-1,62,-1,-1,-1,64,-1,66,68,70,-1,-1,-1,-1,72,-1,-1,74,76,-1,-1,-1,-1,-1,-1,-1,-1,-1],"split_conditions":[6.496301E-2,-3.1800935E-1,8.9367E-1,-7.447648E-1,-8.910625E-2,1E0,1E0,-8.5534655E-2,-2.902357E-1,-3.2569134E-1,1.0434372E0,4.3367818E-1,2.892109E-1,5.427568E-1,7.948005E-2,4.934484E-1,-8.7311417E-1,-1.9643927E-1,-1.8771054E-1,4.0525094E-1,-3.16663E-2,7.5005895E-1,6.791495E-1,4.9124113E-1,5.711285E-2,5.344723E-2,2.357681E0,2.674669E-1,-7.489562E-2,-0E0,-8.3432645E-1,7.8519374E-2,-4.7757644E-2,-3.591949E-2,-1.9590995E-1,5.178853E-3,-1.945209E-2,7.953144E-3,-2.376519E-2,5.221096E-1,-2.2363696E-2,-7.6929713E-3,4.4773124E-2,-5.6925893E-2,6.979839E-2,-5.357015E-1,-6.269174E-2,-6.983975E-2,-3.452876E-2,-9.960779E-3,-2.9754975E-1,-1.6040713E-2,-3.5302203E-2,2.1460518E-2,-1.9643927E-1,3.973476E-2,3.4563676E-1,1.864662E-1,2.4309556E-1,-5.8503423E-2,-4.309766E-2,-7.354093E-2,-1.8069426E-2,1.598721E-1,-2.2811338E-2,-3.1782163E-3,-4.3010488E-1,7.053472E-3,4.1475203E-2,1.314491E-2,-5.3068627E-2,2.1129392E-2,-2.2102581E-2,-5.006919E-3,3.6047183E-2,3.8684484E-2,-1.7243292E-3],"split_indices":[0,0,1,1,0,4,4,0,1,27,20,0,0,8,0,20,20,20,0,6,0,19,8,14,0,0,1,14,0,0,8,14,0,20,2,0,0,0,0,27,0,14,0,0,0,19,0,0,0,0,1,0,0,0,20,0,1,0,3,0,0,0,0,29,0,0,17,2,0,0,0,0,0,0,0,0,0],"split_type":[0,0,0,0,0,0,0,0,0,0,0,0,0,0,0,0,0,0,0,0,0,0,0,0,0,0,0,0,0,0,0,0,0,0,0,0,0,0,0,0,0,0,0,0,0,0,0,0,0,0,0,0,0,0,0,0,0,0,0,0,0,0,0,0,0,0,0,0,0,0,0,0,0,0,0,0,0],"sum_hessian":[1.1533953E4,6.1161235E3,5.41783E3,3.2568464E3,2.859277E3,3.2778376E3,2.1399922E3,1.00843726E3,2.2484092E3,1.90568E3,9.5359705E2,1.5595583E3,1.7182792E3,2.5278014E2,1.887212E3,1.7902107E3,4.5819855E2,6.551414E2,1.2505386E3,7.7948883E2,1.7410822E2,8.93272E2,6.6628644E2,7.406701E2,9.7760913E2,2.3638692E2,1.6393211E1,1.5153916E3,2.7481912E2,5.8305862E1,3.9989267E2,1.7129497E2,4.838465E2,7.8520996E2,4.653286E2,6.622958E2,1.17193016E2,8.3536194E2,5.7910015E1,6.428001E2,2.3486347E1,6.173209E2,1.233492E2,9.991912E0,6.401299E0,1.02242255E3,4.9296902E2,9.0786224E1,3.0910645E2,1.016417E2,6.965326E1,3.753971E2,4.0981287E2,9.183391E1,3.734947E2,3.033072E2,3.3949292E2,3.8316577E2,2.3415512E2,3.4967957E2,6.72743E2,3.944618E1,3.0207083E1,1.2883951E2,2.4465518E2,7.2966995E1,2.665259E2,1.7465082E2,2.0851495E2,2.1617705E2,1.7978064E1,7.894951E1,4.989E1,6.434701E1,2.021789E2,6.431731E1,1.1033352E2],"tree_param":{"num_deleted":"0","num_feature":"31","num_nodes":"77","size_leaf_vector":"1"}},{"base_weights":[3.9891074E-3,-2.7877726E-2,5.701439E-2,3.253386E-1,-6.1761413E-4,-1.660656E-2,4.917689E-1,-3.085643E-2,7.8565335E-1,5.9659314E-1,-4.9071122E-2,-0E0,9.661239E-1,-4.2539325E-2,1.7561382E-1,1.1379098E0,-0E0,7.329813E-1,2.616729E-1,1.3107684E-1,-0E0],"categories":[],"categories_nodes":[],"categories_segments":[],"categories_sizes":[],"default_left":[0,0,0,0,0,0,0,0,0,0,0,0,0,0,0,0,0,0,0,0,0],"id":7,"left_children":[1,-1,3,5,-1,-1,7,9,11,13,-1,-1,15,-1,-1,17,-1,19,-1,-1,-1],"loss_changes":[6.5722475E0,0E0,6.6225677E0,6.123037E0,0E0,0E0,8.839879E0,5.4730883E0,5.3932743E0,9.221947E0,0E0,0E0,5.1395435E0,0E0,0E0,1.2980049E1,0E0,7.9812574E0,0E0,0E0,0E0],"parents":[2147483647,0,0,2,2,3,3,6,6,7,7,8,8,9,9,12,12,15,15,17,17],"right_children":[2,-1,4,6,-1,-1,8,10,12,14,-1,-1,16,-1,-1,18,-1,20,-1,-1,-1],"split_conditions":[-4.9505636E-1,-2.7877726E-2,-4.0835986E-1,-5.781865E-1,-6.1761413E-4,-1.660656E-2,-3.117498E-1,-1.3213736E-1,-7.0061815E-1,-3.369389E-1,-4.9071122E-2,-0E0,8.7780094E-1,-4.2539325E-2,1.7561382E-1,2.3357607E-1,-0E0,-1.5899034E-1,2.616729E-1,1.3107684E-1,-0E0],"split_indices":[3,0,7,10,0,0,17,20,8,14,0,0,18,0,0,16,0,16,0,0,0],"split_type":[0,0,0,0,0,0,0,0,0,0,0,0,0,0,0,0,0,0,0,0,0],"sum_hessian":[4.5904395E2,7.359709E1,3.8544684E2,7.421792E1,3.1122894E2,1.842824E1,5.5789677E1,1.9693169E1,3.6096508E1,7.814354E0,1.1878815E1,6.477138E0,2.9619371E1,3.9419093E0,3.8724446E0,2.5296522E1,4.32285E0,1.9867544E1,5.4289775E0,1.161636E1,8.2511835E0],"tree_param":{"num_deleted":"0","num_feature":"31","num_nodes":"21","size_leaf_vector":"1"}},{"base_weights":[2.954748E-4,4.1419253E-1,-4.6376047E-1,6.660737E-1,2.4355945E-1,-2.133346E-1,-6.4976907E-1,8.590173E-2,5.516777E-1,3.7153703E-1,1.095763E-1,-9.319226E-2,-3.329045E-1,-3.6569098E-1,-7.281781E-1,3.694435E-1,6.1992276E-2,3.368911E-1,5.477684E-2,3.5527702E-2,2.7054346E-1,2.862799E-2,-1.3113004E-1,-2.5019386E-1,-4.8693013E-1,-3.9465547E-1,1.19594894E-1,-6.862931E-2,-8.436826E-2,-1.9730445E-2,4.0264755E-1,2.6433754E-1,4.3167764E-1,1.445044E-1,-4.401396E-2,-1.180735E-1,3.130085E-2,-6.623663E-2,2.9603735E-2,-1.4315247E-2,8.481578E-2,-2.240751E-2,-4.6003316E-2,-6.282185E-2,-3.9617512E-2,-2.2256648E-2,-4.6905126E-2,2.7864775E-2,-8.185751E-2,2.8380486E-1,5.7150837E-2,3.6528204E-2,1.6649798E-1,1.1789737E-1,4.8207365E-2,3.0745447E-1,3.787534E-2,-1.3751888E-1,5.03377E-3,4.2426743E-2,-4.1868303E-2,-2.7011597E-4,-5.4366697E-2,3.8236924E-2,-1.0899099E-2,1.5974117E-2,2.6469313E-2,6.791406E-2,-2.4853246E-3,-2.7790857E-2,3.751353E-2,-4.0330794E-2,8.312038E-3,-1.9200772E-2,1.566571E-1,-2.8550904E-2,1.4420069E-2,3.301816E-2,-4.7759656E-2],"categories":[],"categories_nodes":[],"categories_segments":[],"categories_sizes":[],"default_left":[0,0,0,0,0,0,0,0,0,0,0,0,0,0,0,0,0,0,0,0,0,0,0,0,0,0,0,0,0,0,0,0,0,0,0,0,0,0,0,0,0,0,0,0,0,0,0,0,0,0,0,0,0,0,0,0,0,0,0,0,0,0,0,0,0,0,0,0,0,0,0,0,0,0,0,0,0,0,0],"id":8,"left_children":[1,3,5,7,9,11,13,-1,15,17,19,21,23,25,27,29,-1,31,-1,33,35,37,39,41,43,45,47,-1,-1,-1,49,51,53,55,57,59,-1,61,-1,-1,-1,-1,-1,-1,-1,-1,-1,-1,-1,63,-1,-1,65,67,-1,69,71,73,-1,-1,-1,-1,-1,-1,-1,75,-1,-1,-1,-1,-1,-1,-1,-1,77,-1,-1,-1,-1],"loss_changes":[2.2136294E3,2.6151477E2,2.5276978E2,4.518213E1,6.212413E1,3.3129456E1,6.902661E1,0E0,1.1813202E1,9.774689E0,2.1066257E1,5.3821487E0,1.4511719E1,9.588707E0,1.3291626E1,5.5393257E0,0E0,1.022551E1,0E0,1.0593061E1,6.861763E0,6.721271E0,5.596874E0,4.7544937E0,4.678459E0,6.3925095E0,4.918019E0,0E0,0E0,0E0,4.610321E0,7.26009E0,6.6627045E0,8.843424E0,6.1099305E0,6.1738577E0,0E0,5.6004844E0,0E0,0E0,0E0,0E0,0E0,0E0,0E0,0E0,0E0,0E0,0E0,5.2429934E0,0E0,0E0,5.4045696E0,5.1019163E0,0E0,6.3796844E0,5.549857E0,4.9369435E0,0E0,0E0,0E0,0E0,0E0,0E0,0E0,5.4837265E0,0E0,0E0,0E0,0E0,0E0,0E0,0E0,0E0,4.760795E0,0E0,0E0,0E0,0E0],"parents":[2147483647,0,0,1,1,2,2,3,3,4,4,5,5,6,6,8,8,9,9,10,10,11,11,12,12,13,13,14,14,15,15,17,17,19,19,20,20,21,21,22,22,23,23,24,24,25,25,26,26,30,30,31,31,32,32,33,33,34,34,35,35,37,37,49,49,52,52,53,53,55,55,56,56,57,57,65,65,74,74],"right_children":[2,4,6,8,10,12,14,-1,16,18,20,22,24,26,28,30,-1,32,-1,34,36,38,40,42,44,46,48,-1,-1,-1,50,52,54,56,58,60,-1,62,-1,-1,-1,-1,-1,-1,-1,-1,-1,-1,-1,64,-1,-1,66,68,-1,70,72,74,-1,-1,-1,-1,-1,-1,-1,76,-1,-1,-1,-1,-1,-1,-1,-1,78,-1,-1,-1,-1],"split_conditions":[5.725882E-2,-4.503367E-1,5.282855E-1,-7.447648E-1,-1.9682689E-1,1E0,1E0,8.590173E-2,-9.302802E-1,7.584938E-1,5.326438E-1,-6.4331606E-2,2.892109E-1,5.745033E-1,2.41042E0,-3.7908462E-1,6.1992276E-2,4.6220332E-2,5.477684E-2,-1.05571374E-1,-3.381535E-1,5.416224E-1,1.178773E0,5.3448355E-1,3.6167988E-1,3.7598655E-1,2.357681E0,-6.862931E-2,-8.436826E-2,-1.9730445E-2,-3.1140903E-1,-3.1800935E-1,-9.9618345E-1,-2.7386072E-1,7.5709425E-2,-1.3650174E-1,3.130085E-2,1.0121325E0,2.9603735E-2,-1.4315247E-2,8.481578E-2,-2.240751E-2,-4.6003316E-2,-6.282185E-2,-3.9617512E-2,-2.2256648E-2,-4.6905126E-2,2.7864775E-2,-8.185751E-2,-9.6964735E-1,5.7150837E-2,3.6528204E-2,-3.135219E-1,-3.4860188E-1,4.8207365E-2,-4.5270362E-1,-1.9585349E-1,4.2151117E-1,5.03377E-3,4.2426743E-2,-4.1868303E-2,-2.7011597E-4,-5.4366697E-2,3.8236924E-2,-1.0899099E-2,-2.9807195E-1,2.6469313E-2,6.791406E-2,-2.4853246E-3,-2.7790857E-2,3.751353E-2,-4.0330794E-2,8.312038E-3,-1.9200772E-2,-4.003813E-3,-2.8550904E-2,1.4420069E-2,3.301816E-2,-4.7759656E-2],"split_indices":[0,1,1,1,0,4,4,0,14,20,20,21,0,8,1,21,0,14,0,0,5,6,5,14,2,29,1,0,0,0,6,0,20,27,17,1,0,11,0,0,0,0,0,0,0,0,0,0,0,14,0,0,11,1,0,5,27,6,0,0,0,0,0,0,0,2,0,0,0,0,0,0,0,0,21,0,0,0,0],"split_type":[0,0,0,0,0,0,0,0,0,0,0,0,0,0,0,0,0,0,0,0,0,0,0,0,0,0,0,0,0,0,0,0,0,0,0,0,0,0,0,0,0,0,0,0,0,0,0,0,0,0,0,0,0,0,0,0,0,0,0,0,0,0,0,0,0,0,0,0,0,0,0,0,0,0,0,0,0,0,0],"sum_hessian":[1.1524948E4,6.092085E3,5.432864E3,2.4593953E3,3.6326895E3,2.3163447E3,3.116519E3,1.0150251E3,1.4443702E3,1.8566135E3,1.7760758E3,1.1568962E3,1.1594484E3,6.751698E2,2.4413494E3,2.9373557E2,1.1506346E3,1.5225243E3,3.3408923E2,1.2179847E3,5.5809106E2,2.7261298E2,8.8428326E2,7.5594025E2,4.0350818E2,6.3781573E2,3.7354088E1,1.3777397E3,1.0636095E3,1.5854834E1,2.7788074E2,8.646138E2,6.579105E2,5.156723E2,7.023125E2,4.0813923E1,5.172771E2,1.981736E2,7.443937E1,8.783004E2,5.9828463E0,6.4434625E2,1.11593956E2,1.8733775E2,2.1617044E2,1.5637105E2,4.8144467E2,3.246181E1,4.892274E0,1.5577551E2,1.22105225E2,4.5337198E2,4.112418E2,6.404917E1,5.938614E2,2.0264749E2,3.130248E2,3.5117508E2,3.5113742E2,1.3914232E1,2.689969E1,1.7472917E2,2.3444435E1,1.2856456E2,2.7210955E1,1.5402167E2,2.5722015E2,1.381669E1,5.0232483E1,1.6916386E1,1.8573111E2,2.7431099E1,2.8559372E2,3.0323206E2,4.7943016E1,4.4900158E1,1.09121506E2,3.8454926E1,9.4880905E0],"tree_param":{"num_deleted":"0","num_feature":"31","num_nodes":"79","size_leaf_vector":"1"}},{"base_weights":[-2.1127771E-4,-3.7497658E-1,4.2298114E-1,-5.581889E-1,-1.7045651E-1,2.585736E-1,6.800593E-1,-8.010171E-2,-4.642247E-1,-2.3542196E-1,-4.032935E-2,1.2786897E-1,3.7831607E-1,4.53794E-2,7.39247E-2,-5.0075734E-1,-3.2236153E-1,-3.8598754E-2,-1.641403E-1,3.594267E-2,-2.158873E-2,4.98191E-3,2.3519176E-1,2.1426111E-1,5.221546E-2,-4.6686372E-1,-6.8737246E-2,-1.5183188E-2,-4.2205755E-2,-7.7207506E-2,-2.4359673E-1,8.594131E-3,-1.3979098E-2,2.5168878E-1,-2.0574145E-2,2.623863E-2,4.657218E-2,-4.208121E-1,-5.834771E-2,-3.0051341E-2,-3.5065205E-3,-2.9725868E-1,-6.4570596E-3,3.638225E-2,1.6179761E-1,4.025336E-2,-6.146677E-3,-4.0817972E-2,-6.7317344E-2,-4.0033612E-2,-1.8710732E-1,1.1411976E-2,4.566425E-2,1.3596767E-2,-3.4175176E-2],"categories":[],"categories_nodes":[],"categories_segments":[],"categories_sizes":[],"default_left":[0,0,0,0,0,0,0,0,0,0,0,0,0,0,0,0,0,0,0,0,0,0,0,0,0,0,0,0,0,0,0,0,0,0,0,0,0,0,0,0,0,0,0,0,0,0,0,0,0,0,0,0,0,0,0],"id":9,"left_children":[1,3,5,7,9,11,13,-1,15,17,19,21,23,-1,-1,25,27,-1,29,31,-1,-1,33,35,-1,37,-1,-1,-1,39,41,-1,-1,43,-1,-1,45,47,-1,-1,-1,49,-1,-1,51,-1,-1,-1,-1,-1,53,-1,-1,-1,-1],"loss_changes":[1.8002366E3,2.253327E2,2.2497034E2,6.348877E1,2.3963242E1,5.072563E1,1.615625E1,0E0,1.115271E1,1.8310188E1,1.2216558E1,1.32367325E1,3.459973E1,0E0,0E0,9.231934E0,6.577137E0,0E0,8.51453E0,5.206098E0,0E0,0E0,4.7581177E0,4.6826134E0,0E0,6.060211E0,0E0,0E0,0E0,5.4102488E0,6.2040825E0,0E0,0E0,5.51519E0,0E0,0E0,5.174442E0,5.7280426E0,0E0,0E0,0E0,4.695614E0,0E0,0E0,4.665985E0,0E0,0E0,0E0,0E0,0E0,1.0284577E1,0E0,0E0,0E0,0E0],"parents":[2147483647,0,0,1,1,2,2,3,3,4,4,5,5,6,6,8,8,9,9,10,10,11,11,12,12,15,15,16,16,18,18,19,19,22,22,23,23,25,25,29,29,30,30,33,33,36,36,37,37,41,41,44,44,50,50],"right_children":[2,4,6,8,10,12,14,-1,16,18,20,22,24,-1,-1,26,28,-1,30,32,-1,-1,34,36,-1,38,-1,-1,-1,40,42,-1,-1,44,-1,-1,46,48,-1,-1,-1,50,-1,-1,52,-1,-1,-1,-1,-1,54,-1,-1,-1,-1],"split_conditions":[6.496301E-2,-3.1800935E-1,8.9367E-1,-7.447648E-1,-8.910625E-2,1E0,1E0,-8.010171E-2,-2.902357E-1,-3.2569134E-1,5.584028E-1,4.3367818E-1,2.892109E-1,4.53794E-2,7.39247E-2,4.1744936E-1,-3.4525216E-1,-3.8598754E-2,-3.591949E-2,6.50752E-1,-2.158873E-2,4.98191E-3,6.791495E-1,6.2483674E-1,5.221546E-2,2.674669E-1,-6.8737246E-2,-1.5183188E-2,-4.2205755E-2,-5.805489E-1,9.726612E-2,8.594131E-3,-1.3979098E-2,5.221096E-1,-2.0574145E-2,2.623863E-2,2.8711282E-2,3.0455622E-1,-5.834771E-2,-3.0051341E-2,-3.5065205E-3,-2.0777833E-1,-6.4570596E-3,3.638225E-2,2.2878768E0,4.025336E-2,-6.146677E-3,-4.0817972E-2,-6.7317344E-2,-4.0033612E-2,-1.7106698E-1,1.1411976E-2,4.566425E-2,1.3596767E-2,-3.4175176E-2],"split_indices":[0,0,1,1,0,4,4,0,1,27,20,0,0,0,0,20,2,0,20,15,0,0,8,30,0,14,0,0,0,19,7,0,0,27,0,0,2,22,0,0,0,0,0,0,16,0,0,0,0,0,3,0,0,0,0],"split_type":[0,0,0,0,0,0,0,0,0,0,0,0,0,0,0,0,0,0,0,0,0,0,0,0,0,0,0,0,0,0,0,0,0,0,0,0,0,0,0,0,0,0,0,0,0,0,0,0,0,0,0,0,0,0,0],"sum_hessian":[1.1350882E4,6.0203066E3,5.330575E3,3.1746228E3,2.8456838E3,3.2522046E3,2.0783706E3,9.6627356E2,2.208349E3,1.8962938E3,9.493899E2,1.5563654E3,1.6958394E3,2.4970975E2,1.8286609E3,1.7540414E3,4.5430777E2,6.477385E2,1.2485553E3,6.514628E2,2.979271E2,8.9441864E2,6.619467E2,7.355133E2,9.6032605E2,1.4528187E3,3.012227E2,1.4899948E2,3.053083E2,5.9834436E2,6.5021094E2,5.1258344E2,1.3887938E2,6.384733E2,2.3473413E1,5.95653E2,1.398603E2,9.8406744E2,4.6875125E2,1.000045E2,4.9833987E2,5.002422E2,1.4996877E2,3.0162103E2,3.3685226E2,3.3785664E1,1.0607464E2,8.8105945E2,1.03008026E2,2.750887E2,2.2515347E2,2.852225E2,5.1629765E1,6.8899864E1,1.5625362E2],"tree_param":{"num_deleted":"0","num_feature":"31","num_nodes":"55","size_leaf_vector":"1"}},{"base_weights":[2.6442737E-3,6.831676E-2,-1.5256351E-2,-2.3306742E-2,4.2984087E-2,1.0531963E0,1.7621862E-2,3.0652842E-1,-4.3923883E-3,2.5718573E-1,-4.8862365E-3,3.9572302E-2,-3.2738235E-2],"categories":[],"categories_nodes":[],"categories_segments":[],"categories_sizes":[],"default_left":[0,0,0,0,0,0,0,0,0,0,0,0,0],"id":10,"left_children":[1,-1,3,-1,5,7,9,-1,-1,11,-1,-1,-1],"loss_changes":[5.580377E0,0E0,5.4789286E0,0E0,8.504181E0,1.798732E1,5.3160954E0,0E0,0E0,5.2422647E0,0E0,0E0,0E0],"parents":[2147483647,0,0,2,2,4,4,5,5,6,6,9,9],"right_children":[2,-1,4,-1,6,8,10,-1,-1,12,-1,-1,-1],"split_conditions":[-4.7362906E-1,6.831676E-2,-2.8490868E-1,-2.3306742E-2,-5.013921E-1,-4.6369278E-1,-4.5584765E-1,3.0652842E-1,-4.3923883E-3,1.0342021E0,-4.8862365E-3,3.9572302E-2,-3.2738235E-2],"split_indices":[13,0,29,0,22,27,19,0,0,27,0,0,0],"split_type":[0,0,0,0,0,0,0,0,0,0,0,0,0],"sum_hessian":[4.563326E2,1.2537817E1,4.437948E2,9.774061E1,3.460542E2,8.062355E0,3.3799182E2,3.0050015E0,5.0573535E0,7.2971146E1,2.650207E2,6.0457485E1,1.2513665E1],"tree_param":{"num_deleted":"0","num_feature":"31","num_nodes":"13","size_leaf_vector":"1"}},{"base_weights":[6.8599096E-5,3.710787E-1,-4.3174005E-1,6.157546E-1,2.1241231E-1,-2.7085426E-1,-6.8107265E-1,8.0221444E-2,5.0624526E-1,3.3708555E-1,8.949746E-2,-1.4256136E-1,-3.876935E-1,-4.3305928E-1,-7.146217E-1,-2.439708E-3,5.1661444E-1,3.04786E-1,5.0242282E-2,1.9267224E-2,2.2204685E-1,-6.969962E-3,-2.4978869E-2,-2.3126964E-1,-5.23637E-2,-2.4127072E-2,-5.631434E-2,-6.81548E-2,-7.9492986E-2,5.0163426E-2,6.933246E-2,3.6167574E-1,2.289551E-1,1.1637346E-1,-4.5604736E-2,-1.3597599E-1,2.4927643E-1,-2.8222162E-2,-5.6425277E-3,2.78646E-1,4.545917E-2,1.8671414E-1,4.7338355E-2,-3.4191616E-2,1.4958543E-1,2.0223591E-2,-7.364946E-2,2.9001443E-2,-5.148972E-2,3.5194255E-2,1.5748529E-2,4.749864E-3,3.693877E-2,2.9697377E-2,6.843717E-2,3.0421043E-2,6.277676E-3,-1.18753955E-1,1.4270036E-1,1.88215E-2,-1.1244489E-2,-9.0203814E-2,-1.0853267E-2,6.2259515E-3,6.9609575E-2],"categories":[],"categories_nodes":[],"categories_segments":[],"categories_sizes":[],"default_left":[0,0,0,0,0,0,0,0,0,0,0,0,0,0,0,0,0,0,0,0,0,0,0,0,0,0,0,0,0,0,0,0,0,0,0,0,0,0,0,0,0,0,0,0,0,0,0,0,0,0,0,0,0,0,0,0,0,0,0,0,0,0,0,0,0],"id":11,"left_children":[1,3,5,7,9,11,13,-1,15,17,19,21,23,25,27,-1,29,31,-1,33,35,-1,-1,37,-1,-1,-1,-1,-1,-1,-1,39,41,43,45,47,49,-1,-1,51,-1,53,-1,-1,55,-1,57,-1,-1,-1,-1,-1,-1,-1,59,-1,-1,61,63,-1,-1,-1,-1,-1,-1],"loss_changes":[1.817647E3,2.3663666E2,2.0997522E2,4.1037415E1,5.6600845E1,4.7596878E1,1.668634E1,0E0,7.961487E0,8.469833E0,1.7290445E1,1.1162605E1,3.0329544E1,5.1581E0,4.869507E0,0E0,6.5291443E0,6.3029175E0,0E0,7.7201233E0,6.3259983E0,0E0,0E0,5.0670967E0,0E0,0E0,0E0,0E0,0E0,0E0,0E0,5.2236404E0,6.0201797E0,7.223909E0,4.889145E0,6.791962E0,5.0970306E0,0E0,0E0,7.3649216E0,0E0,6.3559E0,0E0,0E0,5.7443542E0,0E0,6.389365E0,0E0,0E0,0E0,0E0,0E0,0E0,0E0,5.085635E0,0E0,0E0,5.413394E0,4.634506E0,0E0,0E0,0E0,0E0,0E0,0E0],"parents":[2147483647,0,0,1,1,2,2,3,3,4,4,5,5,6,6,8,8,9,9,10,10,11,11,12,12,13,13,14,14,16,16,17,17,19,19,20,20,23,23,31,31,32,32,33,33,34,34,35,35,36,36,39,39,41,41,44,44,46,46,54,54,57,57,58,58],"right_children":[2,4,6,8,10,12,14,-1,16,18,20,22,24,26,28,-1,30,32,-1,34,36,-1,-1,38,-1,-1,-1,-1,-1,-1,-1,40,42,44,46,48,50,-1,-1,52,-1,54,-1,-1,56,-1,58,-1,-1,-1,-1,-1,-1,-1,60,-1,-1,62,64,-1,-1,-1,-1,-1,-1],"split_conditions":[7.3295854E-2,-4.503367E-1,8.9367E-1,-7.447648E-1,-1.9682689E-1,1E0,1E0,8.0221444E-2,-3.5570857E-1,7.584938E-1,4.4996664E-1,4.3367818E-1,2.892109E-1,6.1215484E-1,2.4806197E0,-2.439708E-3,4.1744936E-1,-2.5874534E-1,5.0242282E-2,-1.05571374E-1,-3.381535E-1,-6.969962E-3,-2.4978869E-2,6.2483674E-1,-5.23637E-2,-2.4127072E-2,-5.631434E-2,-6.81548E-2,-7.9492986E-2,5.0163426E-2,6.933246E-2,-2.3261406E-1,2.7754405E-1,-4.5270362E-1,-7.184657E-1,-6.998896E-1,-7.064061E-2,-2.8222162E-2,-5.6425277E-3,-5.334001E-1,4.545917E-2,-4.767332E-2,4.7338355E-2,-3.4191616E-2,-2.7386072E-1,2.0223591E-2,3.7991816E-1,2.9001443E-2,-5.148972E-2,3.5194255E-2,1.5748529E-2,4.749864E-3,3.693877E-2,2.9697377E-2,-2.6688388E-1,3.0421043E-2,6.277676E-3,-9.1334605E-1,9.3775177E-1,1.88215E-2,-1.1244489E-2,-9.0203814E-2,-1.0853267E-2,6.2259515E-3,6.9609575E-2],"split_indices":[0,1,1,1,0,4,4,0,21,20,20,0,0,6,1,0,20,1,0,0,5,0,0,30,0,0,0,0,0,0,0,6,6,5,6,10,0,0,0,11,0,21,0,0,27,0,6,0,0,0,0,0,0,0,0,0,0,7,15,0,0,0,0,0,0],"split_type":[0,0,0,0,0,0,0,0,0,0,0,0,0,0,0,0,0,0,0,0,0,0,0,0,0,0,0,0,0,0,0,0,0,0,0,0,0,0,0,0,0,0,0,0,0,0,0,0,0,0,0,0,0,0,0,0,0,0,0,0,0,0,0,0,0],"sum_hessian":[1.1345687E4,6.102884E3,5.2428027E3,2.3998086E3,3.7030752E3,3.1875344E3,2.055268E3,9.811903E2,1.4186183E3,1.8369448E3,1.8661304E3,1.5207726E3,1.6667618E3,2.4623814E2,1.8090299E3,2.6604008E1,1.3920143E3,1.5089934E3,3.2795145E2,1.2215543E3,6.4457605E2,8.6312146E2,6.576511E2,7.156765E2,9.510853E2,8.848496E1,1.5775319E2,8.6448553E2,9.4454443E2,1.1470033E3,2.4501102E2,8.594357E2,6.495577E2,4.9129416E2,7.3026013E2,4.4654793E1,5.9992126E2,5.7962146E2,1.3605508E2,4.1513242E2,4.4430328E2,5.492605E2,1.0029723E2,3.3280052E1,4.580141E2,7.490636E1,6.5535376E2,2.0316135E1,2.4338657E1,3.0963004E2,2.9029123E2,1.04899605E2,3.1023282E2,2.964191E2,2.5284138E2,1.736161E2,2.84398E2,5.436241E2,1.11729675E2,1.554031E2,9.743827E1,9.463735E0,5.3416034E2,9.725959E1,1.4470085E1],"tree_param":{"num_deleted":"0","num_feature":"31","num_nodes":"65","size_leaf_vector":"1"}},{"base_weights":[-5.834148E-4,-3.4344417E-1,3.874426E-1,-5.724821E-1,-1.9774474E-1,2.338279E-1,6.34475E-1,-7.578901E-2,-4.6624357E-1,-3.0754718E-1,-8.794236E-2,1.1541013E-1,3.4369764E-1,4.1415077E-2,6.9175735E-2,-3.0228034E-2,-5.297162E-2,-2.7595428E-1,-4.811986E-2,-2.2996873E-2,-2.1107757E-1,4.55133E-2,2.186797E-1,2.0118741E-2,4.5968193E-1,-2.0623995E-1,-3.685048E-1,-1.392549E-1,4.051738E-2,1.615751E-1,-2.4027923E-1,6.905018E-3,-2.3579415E-2,2.3774867E-1,-2.1535365E-2,1.7496195E-1,4.955111E-2,-4.6314295E-2,-1.8010724E-1,-8.32007E-3,-4.1375376E-2,-1.5840109E-1,6.752172E-2,2.4915766E-2,-1.4081628E-4,-2.4146961E-2,5.1999144E-2,-2.934923E-2,6.287062E-4,3.453746E-2,1.5333703E-1,6.83117E-2,-1.867492E-3,-8.338182E-2,-2.5476214E-1,4.8857488E-2,-1.8631557E-2,-1.4008137E-2,2.1865452E-2,1.1361051E-2,-1.879978E-2,-3.3103246E-2,-4.105352E-3],"categories":[],"categories_nodes":[],"categories_segments":[],"categories_sizes":[],"default_left":[0,0,0,0,0,0,0,0,0,0,0,0,0,0,0,0,0,0,0,0,0,0,0,0,0,0,0,0,0,0,0,0,0,0,0,0,0,0,0,0,0,0,0,0,0,0,0,0,0,0,0,0,0,0,0,0,0,0,0,0,0,0,0],"id":12,"left_children":[1,3,5,7,9,11,13,-1,15,17,19,21,23,-1,-1,-1,-1,25,-1,27,29,31,33,-1,35,37,39,41,43,45,47,-1,-1,49,-1,51,-1,-1,53,-1,-1,55,-1,-1,-1,-1,-1,-1,-1,-1,57,-1,-1,59,61,-1,-1,-1,-1,-1,-1,-1,-1],"loss_changes":[1.48299E3,1.9723242E2,1.9811053E2,3.8285156E1,4.3488876E1,4.1798813E1,1.5007446E1,0E0,1.0464325E1,8.677628E0,1.4401798E1,1.1124519E1,2.8782867E1,0E0,0E0,0E0,0E0,9.516022E0,0E0,8.802122E0,6.8148518E0,5.2895894E0,5.0972557E0,0E0,4.645218E0,5.1923103E0,5.510521E0,6.220047E0,6.4900312E0,6.0699263E0,6.195549E0,0E0,0E0,4.6530495E0,0E0,5.611328E0,0E0,0E0,5.50354E0,0E0,0E0,5.429845E0,0E0,0E0,0E0,0E0,0E0,0E0,0E0,0E0,5.3367004E0,0E0,0E0,6.471832E0,5.9450264E0,0E0,0E0,0E0,0E0,0E0,0E0,0E0,0E0],"parents":[2147483647,0,0,1,1,2,2,3,3,4,4,5,5,6,6,8,8,9,9,10,10,11,11,12,12,17,17,19,19,20,20,21,21,22,22,24,24,25,25,26,26,27,27,28,28,29,29,30,30,33,33,35,35,38,38,41,41,50,50,53,53,54,54],"right_children":[2,4,6,8,10,12,14,-1,16,18,20,22,24,-1,-1,-1,-1,26,-1,28,30,32,34,-1,36,38,40,42,44,46,48,-1,-1,50,-1,52,-1,-1,54,-1,-1,56,-1,-1,-1,-1,-1,-1,-1,-1,58,-1,-1,60,62,-1,-1,-1,-1,-1,-1,-1,-1],"split_conditions":[6.496301E-2,-4.503367E-1,8.9367E-1,-7.447648E-1,-1.9682689E-1,1E0,1E0,-7.578901E-2,-9.302802E-1,8.2017875E-1,4.4996664E-1,4.625947E-1,2.892109E-1,4.1415077E-2,6.9175735E-2,-3.0228034E-2,-5.297162E-2,4.6220332E-2,-4.811986E-2,-2.5089252E-1,-3.381535E-1,7.5005895E-1,6.334061E-1,2.0118741E-2,2.4146898E-1,-5.6455714E-1,-9.9618345E-1,1.4340718E0,-7.037928E-1,-6.998896E-1,4.111056E-1,6.905018E-3,-2.3579415E-2,5.340958E-1,-2.1535365E-2,2.501271E-1,4.955111E-2,-4.6314295E-2,-2.4137875E-1,-8.32007E-3,-4.1375376E-2,-3.190147E-1,6.752172E-2,2.4915766E-2,-1.4081628E-4,-2.4146961E-2,5.1999144E-2,-2.934923E-2,6.287062E-4,3.453746E-2,-5.546194E-1,6.83117E-2,-1.867492E-3,-3.2270905E-1,2.5108597E-1,4.8857488E-2,-1.8631557E-2,-1.4008137E-2,2.1865452E-2,1.1361051E-2,-1.879978E-2,-3.3103246E-2,-4.105352E-3],"split_indices":[0,1,1,1,0,4,4,0,14,20,20,0,0,0,0,0,0,14,0,13,5,19,8,0,1,0,20,7,20,10,27,0,0,27,0,2,0,0,11,0,0,2,0,0,0,0,0,0,0,0,17,0,0,5,13,0,0,0,0,0,0,0,0],"split_type":[0,0,0,0,0,0,0,0,0,0,0,0,0,0,0,0,0,0,0,0,0,0,0,0,0,0,0,0,0,0,0,0,0,0,0,0,0,0,0,0,0,0,0,0,0,0,0,0,0,0,0,0,0,0,0,0,0,0,0,0,0,0,0],"sum_hessian":[1.1146981E4,5.918374E3,5.2286074E3,2.3000857E3,3.6182883E3,3.2248225E3,2.0037848E3,9.217022E2,1.3783835E3,1.8075233E3,1.810765E3,1.553605E3,1.6712177E3,2.459735E2,1.7578113E3,2.8214334E2,1.0962402E3,1.5059812E3,3.0154214E2,1.1873644E3,6.2340063E2,9.2853894E2,6.2506604E2,7.310379E2,9.401797E2,8.6120874E2,6.4477246E2,4.2134854E2,7.660158E2,4.4429356E1,5.7897125E2,8.631725E2,6.536643E1,5.991047E2,2.5961391E1,5.7674618E1,8.825051E2,8.302235E1,7.781864E2,6.284522E1,5.819272E2,4.1186996E2,9.478561E0,1.3407164E2,6.319442E2,2.0116299E1,2.4313055E1,4.9447485E2,8.4496414E1,2.7933395E2,3.1977072E2,1.6884827E1,4.078979E1,3.4104178E2,4.3714462E2,1.2890248E1,3.9897974E2,5.2183445E1,2.6758725E2,1.13648605E2,2.2739317E2,3.3508728E2,1.0205735E2],"tree_param":{"num_deleted":"0","num_feature":"31","num_nodes":"63","size_leaf_vector":"1"}},{"base_weights":[8.773145E-3,-5.975053E-4,7.175952E-1,1.71367E-1,-2.1836847E-2],"categories":[],"categories_nodes":[],"categories_segments":[],"categories_sizes":[],"default_left":[0,0,0,0,0],"id":13,"left_children":[1,-1,3,-1,-1],"loss_changes":[4.908125E0,0E0,8.825583E0,0E0,0E0],"parents":[2147483647,0,0,2,2],"right_children":[2,-1,4,-1,-1],"split_conditions":[1.8660865E0,-5.975053E-4,8.266758E-1,1.71367E-1,-2.1836847E-2],"split_indices":[6,0,5,0,0],"split_type":[0,0,0,0,0],"sum_hessian":[4.528426E2,4.4335846E2,9.4841385E0,4.872673E0,4.6114655E0],"tree_param":{"num_deleted":"0","num_feature":"31","num_nodes":"5","size_leaf_vector":"1"}},{"base_weights":[-7.1759796E-4,3.388883E-1,-3.9740005E-1,5.153292E-1,1.483462E-1,-2.4523441E-1,-6.1549854E-1,4.2259628E-1,6.999873E-1,2.1441789E-1,2.302557E-2,-1.250175E-1,-3.5334897E-1,-3.5378337E-1,-6.881101E-2,5.023106E-1,3.6123413E-1,7.438086E-2,3.4400493E-2,3.4475285E-1,1.4659518E-1,-2.7691478E-2,2.3205873E-2,-6.7311935E-3,-2.2497027E-1,-2.102854E-1,-4.6837002E-1,-4.09792E-1,-1.1281923E-3,4.774845E-2,7.2142735E-2,1.9242379E-1,3.9811197E-1,4.0759694E-2,1.7605563E-1,1.947256E-1,1.9326825E-3,-5.7662748E-2,2.1920647E-2,-2.4537417E-1,4.3191947E-2,-2.504955E-2,-0E0,-5.6426104E-2,-3.9730716E-2,-4.4454834E-1,5.405035E-3,2.7340751E-2,-2.2349752E-1,3.1008732E-1,4.9368743E-2,8.11973E-3,6.222211E-2,1.5989521E-1,4.2105194E-2,-6.912498E-3,9.635271E-2,-3.621308E-2,-1.23633996E-1,1.5211621E-2,-4.032518E-2,-5.4980125E-2,-2.2627527E-2,-9.0061694E-2,2.9542285E-3,5.2023083E-2,2.2702052E-1,9.090563E-2,2.7914634E-1,1.6997214E-1,-2.1372264E-2,2.047251E-2,8.498627E-2,-3.1978227E-2,1.2131979E-2,5.999187E-3,3.958641E-2,6.780332E-2,-6.9683214E-4],"categories":[],"categories_nodes":[],"categories_segments":[],"categories_sizes":[],"default_left":[0,0,0,0,0,0,0,0,0,0,0,0,0,0,0,0,0,0,0,0,0,0,0,0,0,0,0,0,0,0,0,0,0,0,0,0,0,0,0,0,0,0,0,0,0,0,0,0,0,0,0,0,0,0,0,0,0,0,0,0,0,0,0,0,0,0,0,0,0,0,0,0,0,0,0,0,0,0,0],"id":14,"left_children":[1,3,5,7,9,11,13,15,17,19,21,23,25,27,-1,29,31,-1,-1,33,35,37,-1,-1,39,41,43,45,-1,-1,-1,47,49,-1,51,53,-1,55,-1,57,-1,-1,59,-1,-1,61,-1,-1,63,65,-1,-1,-1,67,-1,-1,-1,-1,69,-1,-1,-1,-1,-1,-1,-1,71,73,75,77,-1,-1,-1,-1,-1,-1,-1,-1,-1],"loss_changes":[1.5014369E3,2.0162152E2,1.7031079E2,5.2959473E1,2.3829903E1,3.9206512E1,2.6239746E1,9.846527E0,6.277008E0,1.6527786E1,1.023722E1,8.526695E0,2.5981522E1,6.1825333E0,0E0,6.863022E0,7.1128387E0,0E0,0E0,5.0600433E0,7.5908413E0,5.6537676E0,0E0,0E0,6.980776E0,4.6102962E0,5.364395E0,4.666523E0,0E0,0E0,0E0,6.320232E0,6.3356934E0,0E0,5.790287E0,6.444832E0,0E0,6.0107417E0,0E0,6.4255085E0,0E0,0E0,5.4156566E0,0E0,0E0,4.8412514E0,0E0,0E0,5.2365656E0,6.984314E0,0E0,0E0,0E0,6.2579403E0,0E0,0E0,0E0,0E0,5.865107E0,0E0,0E0,0E0,0E0,0E0,0E0,0E0,5.2278614E0,5.0826807E0,6.2680836E0,4.676644E0,0E0,0E0,0E0,0E0,0E0,0E0,0E0,0E0,0E0],"parents":[2147483647,0,0,1,1,2,2,3,3,4,4,5,5,6,6,7,7,8,8,9,9,10,10,11,11,12,12,13,13,15,15,16,16,19,19,20,20,21,21,24,24,25,25,26,26,27,27,31,31,32,32,34,34,35,35,37,37,39,39,42,42,45,45,48,48,49,49,53,53,58,58,66,66,67,67,68,68,69,69],"right_children":[2,4,6,8,10,12,14,16,18,20,22,24,26,28,-1,30,32,-1,-1,34,36,38,-1,-1,40,42,44,46,-1,-1,-1,48,50,-1,52,54,-1,56,-1,58,-1,-1,60,-1,-1,62,-1,-1,64,66,-1,-1,-1,68,-1,-1,-1,-1,70,-1,-1,-1,-1,-1,-1,-1,72,74,76,78,-1,-1,-1,-1,-1,-1,-1,-1,-1],"split_conditions":[7.3295854E-2,-3.1800935E-1,9.693767E-1,2.1160614E0,-8.910625E-2,1E0,1E0,-4.875393E-1,1.3701543E-1,-3.2569134E-1,9.4668096E-1,4.625947E-1,2.892109E-1,1.4922186E0,-6.881101E-2,5.0586337E-1,-6.2188053E-1,7.438086E-2,3.4400493E-2,2.268422E-2,1E0,9.3775177E-1,2.3205873E-2,-6.7311935E-3,6.9259095E-1,1.3003557E0,-2.924411E-1,5.427568E-1,-1.1281923E-3,4.774845E-2,7.2142735E-2,1.6915239E0,-3.6393836E-1,4.0759694E-2,7.776594E-1,1.0434372E0,1.9326825E-3,5.7064337E-1,2.1920647E-2,5.340958E-1,4.3191947E-2,-2.504955E-2,-3.5819232E-1,-5.6426104E-2,-3.9730716E-2,-2.2431659E-2,5.405035E-3,2.7340751E-2,-6.099895E-1,-3.698827E-1,4.9368743E-2,8.11973E-3,6.222211E-2,-2.3309463E-1,4.2105194E-2,-6.912498E-3,9.635271E-2,-3.621308E-2,-4.3010488E-1,1.5211621E-2,-4.032518E-2,-5.4980125E-2,-2.2627527E-2,-9.0061694E-2,2.9542285E-3,5.2023083E-2,1.0964423E0,-8.869263E-1,-3.1001592E-1,3.0504292E-1,-2.1372264E-2,2.047251E-2,8.498627E-2,-3.1978227E-2,1.2131979E-2,5.999187E-3,3.958641E-2,6.780332E-2,-6.9683214E-4],"split_indices":[0,0,0,21,0,4,4,3,9,27,20,0,0,27,0,20,20,0,0,7,4,15,0,0,8,20,27,8,0,0,0,27,14,0,17,20,0,5,0,27,0,0,27,0,0,21,0,0,7,9,0,0,0,8,0,0,0,0,17,0,0,0,0,0,0,0,18,20,15,10,0,0,0,0,0,0,0,0,0],"split_type":[0,0,0,0,0,0,0,0,0,0,0,0,0,0,0,0,0,0,0,0,0,0,0,0,0,0,0,0,0,0,0,0,0,0,0,0,0,0,0,0,0,0,0,0,0,0,0,0,0,0,0,0,0,0,0,0,0,0,0,0,0,0,0,0,0,0,0,0,0,0,0,0,0,0,0,0,0,0,0],"sum_hessian":[1.1144906E4,6.0039727E3,5.140934E3,3.116337E3,2.8876357E3,3.0292126E3,2.1117212E3,2.0759434E3,1.0403934E3,1.8889675E3,9.986683E2,1.4358989E3,1.5933138E3,3.2926834E2,1.7824529E3,9.0027435E2,1.1756691E3,9.925813E2,4.7812103E1,6.446998E2,1.2442677E3,7.95988E2,2.0268027E2,8.9892426E2,5.369746E2,7.1151654E2,8.8179724E2,2.821741E2,4.7094227E1,7.4196564E2,1.5830873E2,2.1252902E2,9.631401E2,4.9944272E2,1.4525713E2,9.022099E2,3.420578E2,7.086423E2,8.734575E1,5.2098596E2,1.5988672E1,6.180607E2,9.345582E1,4.6421466E2,4.1758258E2,2.6311328E2,1.9060837E1,1.8216512E2,3.0363907E1,4.5478333E2,5.0835672E2,1.1877816E2,2.6478962E1,7.760688E2,1.2614112E2,7.0265576E2,5.986472E0,2.795298E2,2.4145618E2,6.73293E1,2.6126518E1,1.8967812E2,7.343516E1,8.847524E0,2.1516384E1,1.361543E2,3.1862903E2,4.935383E2,2.8253046E2,5.203671E1,1.8941946E2,3.0413644E2,1.4492564E1,2.942486E1,4.6411346E2,9.0609795E1,1.9192067E2,1.4368034E1,3.7668674E1],"tree_param":{"num_deleted":"0","num_feature":"31","num_nodes":"79","size_leaf_vector":"1"}},{"base_weights":[-8.479648E-4,-3.1211233E-1,3.5835034E-1,-5.352834E-1,-1.7601958E-1,2.1329238E-1,5.9611994E-1,-7.22954E-2,-4.30093E-1,-2.7993512E-1,-7.569263E-2,1.0543215E-1,3.1369224E-1,3.801452E-2,6.522367E-2,-2.6870934E-2,-4.921753E-2,-2.4941018E-1,-4.368357E-2,-1.5656102E-2,-1.903036E-1,5.0950013E-2,2.1405862E-1,1.7397377E-1,4.373852E-2,-1.9145621E-2,-3.358649E-1,-1.22395694E-1,4.2166706E-2,2.6918462E-1,-2.1823341E-2,8.033948E-2,-1.3574697E-2,-6.044202E-2,2.3426266E-2,1.3626654E-1,3.656897E-2,-6.373474E-3,-3.7885055E-2,4.9399696E-2,-1.4254686E-1,-1.6159302E-2,9.052174E-2,-3.5702817E-2,7.1114086E-2,6.638819E-2,5.3400867E-2,2.0804164E-1,1.5338679E-2,-1.5850042E-1,6.0113102E-2,4.303194E-2,5.1688943E-2,3.1200854E-2,4.0803766E-3,5.643411E-2,3.4027826E-2,6.53624E-3,-5.3928193E-2,-8.113635E-3,-3.163766E-2,7.15332E-3,-5.0562758E-2,7.253479E-2,-2.473379E-4],"categories":[],"categories_nodes":[],"categories_segments":[],"categories_sizes":[],"default_left":[0,0,0,0,0,0,0,0,0,0,0,0,0,0,0,0,0,0,0,0,0,0,0,0,0,0,0,0,0,0,0,0,0,0,0,0,0,0,0,0,0,0,0,0,0,0,0,0,0,0,0,0,0,0,0,0,0,0,0,0,0,0,0,0,0],"id":15,"left_children":[1,3,5,7,9,11,13,-1,15,17,19,21,23,-1,-1,-1,-1,25,-1,27,29,31,33,35,-1,-1,37,39,41,43,-1,45,-1,-1,-1,47,-1,-1,-1,-1,49,-1,51,-1,-1,53,-1,55,57,59,-1,-1,61,-1,-1,63,-1,-1,-1,-1,-1,-1,-1,-1,-1],"loss_changes":[1.2211853E3,1.7749426E2,1.7459186E2,3.7342773E1,3.7789223E1,3.39684E1,1.4149414E1,0E0,9.988586E0,7.4642944E0,1.2672807E1,8.907314E0,2.4416046E1,0E0,0E0,0E0,0E0,8.048126E0,0E0,7.541069E0,5.866333E0,5.4075847E0,4.6755486E0,4.632038E0,0E0,0E0,4.9319077E0,5.0794225E0,7.520357E0,6.786737E0,0E0,5.1077285E0,0E0,0E0,0E0,5.046173E0,0E0,0E0,0E0,0E0,4.6640005E0,0E0,7.834742E0,0E0,0E0,5.2659473E0,0E0,6.5808144E0,5.5090303E0,4.6684628E0,0E0,0E0,5.157702E0,0E0,0E0,6.450984E0,0E0,0E0,0E0,0E0,0E0,0E0,0E0,0E0,0E0],"parents":[2147483647,0,0,1,1,2,2,3,3,4,4,5,5,6,6,8,8,9,9,10,10,11,11,12,12,17,17,19,19,20,20,21,21,22,22,23,23,26,26,27,27,28,28,29,29,31,31,35,35,40,40,42,42,45,45,47,47,48,48,49,49,52,52,55,55],"right_children":[2,4,6,8,10,12,14,-1,16,18,20,22,24,-1,-1,-1,-1,26,-1,28,30,32,34,36,-1,-1,38,40,42,44,-1,46,-1,-1,-1,48,-1,-1,-1,-1,50,-1,52,-1,-1,54,-1,56,58,60,-1,-1,62,-1,-1,64,-1,-1,-1,-1,-1,-1,-1,-1,-1],"split_conditions":[7.3295854E-2,-4.503367E-1,8.9367E-1,-7.447648E-1,-1.9682689E-1,1E0,1E0,-7.22954E-2,-9.302802E-1,7.584938E-1,4.4996664E-1,4.5407942E-1,2.892109E-1,3.801452E-2,6.522367E-2,-2.6870934E-2,-4.921753E-2,4.6220332E-2,-4.368357E-2,-2.5089252E-1,-2.6063952E-1,6.9020975E-1,-2.4039543E-1,4.6916634E-1,4.373852E-2,-1.9145621E-2,-9.9618345E-1,-3.190147E-1,-3.9349157E-1,-1.3650174E-1,-2.1823341E-2,1.643781E0,-1.3574697E-2,-6.044202E-2,2.3426266E-2,-7.6929713E-3,3.656897E-2,-6.373474E-3,-3.7885055E-2,4.9399696E-2,1.4340718E0,-1.6159302E-2,-8.5825944E-1,-3.5702817E-2,7.1114086E-2,1.5596041E-1,5.3400867E-2,1.864662E-1,2.4309556E-1,4.0644267E-1,6.0113102E-2,4.303194E-2,2.501271E-1,3.1200854E-2,4.0803766E-3,3.916462E-2,3.4027826E-2,6.53624E-3,-5.3928193E-2,-8.113635E-3,-3.163766E-2,7.15332E-3,-5.0562758E-2,7.253479E-2,-2.473379E-4],"split_indices":[0,1,1,1,0,4,4,0,14,20,20,1,0,0,0,0,0,14,0,13,2,7,10,14,0,0,20,2,16,1,0,12,0,0,0,14,0,0,0,0,7,0,20,0,0,2,0,0,3,15,0,0,2,0,0,3,0,0,0,0,0,0,0,0,0],"split_type":[0,0,0,0,0,0,0,0,0,0,0,0,0,0,0,0,0,0,0,0,0,0,0,0,0,0,0,0,0,0,0,0,0,0,0,0,0,0,0,0,0,0,0,0,0,0,0,0,0,0,0,0,0,0,0,0,0,0,0,0,0,0,0,0,0],"sum_hessian":[1.0922361E4,5.852133E3,5.0702285E3,2.2158079E3,3.6363252E3,3.150045E3,1.9201838E3,8.710265E2,1.3447814E3,1.7844822E3,1.8518429E3,1.5203135E3,1.6297313E3,2.4229431E2,1.6778895E3,2.7984024E2,1.0649412E3,1.4697498E3,3.1473242E2,1.2172606E3,6.345823E2,1.01465424E3,5.0565924E2,7.124973E2,9.172341E2,8.426812E2,6.270686E2,4.297374E2,7.875232E2,2.5930532E1,6.0865173E2,8.7514435E2,1.395099E2,6.9418635E0,4.9871738E2,5.900465E2,1.2245077E2,6.203122E1,5.6503735E2,1.3379473E1,4.1635794E2,1.531562E2,6.34367E2,1.0165009E1,1.5765524E1,8.487809E2,2.6363447E1,3.6847784E2,2.215687E2,4.0788528E2,8.472642E0,6.678045E1,5.6758655E2,8.634784E1,7.6243304E2,1.6420244E2,2.042754E2,2.0409596E2,1.7472729E1,2.6518622E2,1.4269907E2,5.506277E2,1.6958824E1,1.4163362E1,1.5003908E2],"tree_param":{"num_deleted":"0","num_feature":"31","num_nodes":"65","size_leaf_vector":"1"}},{"base_weights":[1.34411575E-2,6.519807E-2,-2.2485796E-2,1.3418615E-1,-1.549309E-2,-3.2056973E-3,3.294061E-1,1.1644655E0,2.2797513E-1,2.1415627E0,2.6834747E-1,1.1931144E0,1.690459E-1,9.880566E-2,3.3030623E-1,-4.2870462E-2,1.2641002E-1,1.7389255E-3,2.3663256E-1,1.0546131E-1,1.12948745E-1,-1.511944E-2,2.90309E-1,-2.1356773E-2,4.7417477E-2],"categories":[],"categories_nodes":[],"categories_segments":[],"categories_sizes":[],"default_left":[0,0,0,0,0,0,0,0,0,0,0,0,0,0,0,0,0,0,0,0,0,0,0,0,0],"id":16,"left_children":[1,3,-1,5,-1,-1,7,9,11,13,15,17,19,-1,-1,-1,-1,-1,-1,21,-1,-1,23,-1,-1],"loss_changes":[5.300338E0,5.4419355E0,0E0,9.11245E0,0E0,0E0,1.0435336E1,1.103657E1,6.0921493E0,6.16613E0,5.094276E0,7.2929764E0,5.9820375E0,0E0,0E0,0E0,0E0,0E0,0E0,4.8224926E0,0E0,0E0,5.0637794E0,0E0,0E0],"parents":[2147483647,0,0,1,1,3,3,6,6,7,7,8,8,9,9,10,10,11,11,12,12,19,19,22,22],"right_children":[2,4,-1,6,-1,-1,8,10,12,14,16,18,20,-1,-1,-1,-1,-1,-1,22,-1,-1,24,-1,-1],"split_conditions":[7.8735495E-1,6.961076E-1,-2.2485796E-2,-7.7125885E-2,-1.549309E-2,-3.2056973E-3,-3.9661112E-1,1.0926281E-1,-4.3749332E-2,1.9119202E-1,2.903964E-1,-1.24136016E-1,1.8605473E0,9.880566E-2,3.3030623E-1,-4.2870462E-2,1.2641002E-1,1.7389255E-3,2.3663256E-1,-3.645692E-1,1.12948745E-1,-1.511944E-2,-4.1651368E-1,-2.1356773E-2,4.7417477E-2],"split_indices":[27,9,0,0,0,0,13,8,0,5,20,16,20,0,0,0,0,0,0,27,0,0,12,0,0],"split_type":[0,0,0,0,0,0,0,0,0,0,0,0,0,0,0,0,0,0,0,0,0,0,0,0,0],"sum_hessian":[4.4879257E2,3.67692E2,8.110061E1,2.7946884E2,8.822313E1,1.5051312E2,1.2895573E2,1.3507378E1,1.1544835E2,6.223459E0,7.283919E0,6.2169304E0,1.0923142E2,3.1391242E0,3.0843346E0,4.0629306E0,3.2209888E0,3.180375E0,3.0365553E0,1.0260635E2,6.6250634E0,4.2719685E1,5.9886673E1,1.4562383E1,4.5324287E1],"tree_param":{"num_deleted":"0","num_feature":"31","num_nodes":"25","size_leaf_vector":"1"}},{"base_weights":[-4.2691972E-4,3.158745E-1,-3.5991102E-1,5.55061E-1,1.9125076E-1,-2.187201E-1,-6.002415E-1,7.201324E-2,4.428099E-1,3.2119745E-1,1.0476129E-1,-1.1018577E-1,-3.214143E-1,-3.7396356E-2,-6.347157E-1,4.087216E-1,6.258555E-2,2.4395108E-1,3.870432E-1,9.410492E-4,1.7097022E-1,-5.6705665E-2,-2.2184335E-1,-1.9331461E-1,-4.4266764E-2,-5.931577E-2,-7.176045E-2,6.623849E-2,3.8234812E-1,1.4682744E-1,3.198779E-1,3.4647327E-2,5.2677598E-2,2.2371264E-1,3.4219664E-2,-8.3739564E-2,1.2355876E-2,-1.2800114E-2,-2.8811365E-2,-5.223315E-2,-1.712521E-1,3.350746E-2,5.1909607E-2,3.920645E-2,6.979354E-2,-2.0154159E-1,3.553756E-2,3.2380864E-2,1.6036734E-1,-5.7335566E-3,2.3917717E-1,-1.247375E-2,6.931179E-3,1.3821945E-1,-4.333596E-2,1.3656539E-2,-2.0461177E-2,-1.06247656E-1,9.6186735E-3,-6.668456E-2,4.5076005E-2,6.139543E-2,2.8658079E-2,-1.4902443E-1,4.063978E-2,-2.1416686E-2,3.3829562E-2,2.7537253E-2,-6.186314E-3,2.1160321E-2,-6.920098E-2],"categories":[],"categories_nodes":[],"categories_segments":[],"categories_sizes":[],"default_left":[0,0,0,0,0,0,0,0,0,0,0,0,0,0,0,0,0,0,0,0,0,0,0,0,0,0,0,0,0,0,0,0,0,0,0,0,0,0,0,0,0,0,0,0,0,0,0,0,0,0,0,0,0,0,0,0,0,0,0,0,0,0,0,0,0,0,0,0,0,0,0],"id":17,"left_children":[1,3,5,7,9,11,13,-1,15,17,19,21,23,-1,25,27,-1,29,31,-1,33,35,37,39,-1,-1,-1,-1,41,43,45,-1,-1,47,49,51,-1,53,-1,-1,55,-1,-1,-1,57,59,-1,-1,61,-1,63,-1,-1,65,-1,-1,-1,-1,-1,-1,-1,67,-1,69,-1,-1,-1,-1,-1,-1,-1],"loss_changes":[1.2410753E3,1.7279248E2,1.7307678E2,3.070459E1,4.276259E1,3.5733658E1,1.5251526E1,0E0,5.680481E0,7.530014E0,1.4471592E1,9.261404E0,2.2118042E1,0E0,5.470764E0,5.1673126E0,0E0,5.0287514E0,4.9494324E0,0E0,9.675678E0,5.0363874E0,5.819704E0,4.886835E0,0E0,0E0,0E0,0E0,5.4461746E0,5.3865666E0,4.738209E0,0E0,0E0,5.3070107E0,7.0109563E0,5.0945153E0,0E0,6.718773E0,0E0,0E0,5.551777E0,0E0,0E0,0E0,5.5878177E0,4.5728507E0,0E0,0E0,6.4401674E0,0E0,6.9831038E0,0E0,0E0,5.1201773E0,0E0,0E0,0E0,0E0,0E0,0E0,0E0,7.7287235E0,0E0,6.0758314E0,0E0,0E0,0E0,0E0,0E0,0E0,0E0],"parents":[2147483647,0,0,1,1,2,2,3,3,4,4,5,5,6,6,8,8,9,9,10,10,11,11,12,12,14,14,15,15,17,17,18,18,20,20,21,21,22,22,23,23,28,28,29,29,30,30,33,33,34,34,35,35,37,37,40,40,44,44,45,45,48,48,50,50,53,53,61,61,63,63],"right_children":[2,4,6,8,10,12,14,-1,16,18,20,22,24,-1,26,28,-1,30,32,-1,34,36,38,40,-1,-1,-1,-1,42,44,46,-1,-1,48,50,52,-1,54,-1,-1,56,-1,-1,-1,58,60,-1,-1,62,-1,64,-1,-1,66,-1,-1,-1,-1,-1,-1,-1,68,-1,70,-1,-1,-1,-1,-1,-1,-1],"split_conditions":[5.725882E-2,-4.7272164E-1,8.9367E-1,-7.447648E-1,-2.6688388E-1,1E0,1E0,7.201324E-2,4.1744936E-1,-2.1642461E-1,-5.4451253E-2,4.5407942E-1,2.892109E-1,-3.7396356E-2,2.4806197E0,-6.789393E-1,6.258555E-2,-3.2611045E-1,3.5862616E-1,9.410492E-4,-4.9933787E-2,6.9020975E-1,2.0152943E-1,-6.288408E-2,-4.4266764E-2,-5.931577E-2,-7.176045E-2,6.623849E-2,5.331894E-2,-5.7504606E-1,-1.5955994E0,3.4647327E-2,5.2677598E-2,-3.2569134E-1,1.0701909E0,6.6904825E-1,1.2355876E-2,1.351785E-1,-2.8811365E-2,-5.223315E-2,-8.481639E-2,3.350746E-2,5.1909607E-2,3.920645E-2,-1.3481672E0,1.1135898E0,3.553756E-2,3.2380864E-2,-1.341042E-1,-5.7335566E-3,-4.653913E-2,-1.247375E-2,6.931179E-3,1.5085316E-1,-4.333596E-2,1.3656539E-2,-2.0461177E-2,-1.06247656E-1,9.6186735E-3,-6.668456E-2,4.5076005E-2,-2.1989307E-1,2.8658079E-2,-1.12945214E-1,4.063978E-2,-2.1416686E-2,3.3829562E-2,2.7537253E-2,-6.186314E-3,2.1160321E-2,-6.920098E-2],"split_indices":[0,1,1,1,0,4,4,0,20,20,20,1,0,0,1,17,0,7,30,0,0,7,29,2,0,0,0,0,14,0,14,0,0,27,20,6,0,12,0,0,1,0,0,0,20,27,0,0,2,0,2,0,0,20,0,0,0,0,0,0,0,0,0,9,0,0,0,0,0,0,0],"split_type":[0,0,0,0,0,0,0,0,0,0,0,0,0,0,0,0,0,0,0,0,0,0,0,0,0,0,0,0,0,0,0,0,0,0,0,0,0,0,0,0,0,0,0,0,0,0,0,0,0,0,0,0,0,0,0,0,0,0,0,0,0,0,0,0,0,0,0,0,0,0,0],"sum_hessian":[1.0914534E4,5.8054907E3,5.1090435E3,1.9876462E3,3.8178447E3,3.219314E3,1.8897295E3,8.848582E2,1.1027881E3,1.5239797E3,2.293865E3,1.5668433E3,1.6524706E3,2.3907646E2,1.650653E3,9.118729E2,1.9091515E2,7.038342E2,8.201455E2,9.402398E2,1.3536251E3,1.0615581E3,5.0528522E2,7.4789404E2,9.045766E2,7.9221985E2,8.584331E2,9.224067E1,8.196322E2,3.1087985E2,3.9295435E2,5.728494E2,2.4729611E2,9.750372E2,3.7858798E2,9.2183E2,1.3972809E2,1.0809425E2,3.9719095E2,4.8481228E1,6.994128E2,5.483933E2,2.712389E2,7.648895E1,2.343909E2,1.5851829E1,3.7710254E2,4.0417426E2,5.708629E2,2.6239587E2,1.1619211E2,7.4356476E2,1.7826521E2,7.8174965E1,2.9919287E1,5.4382626E1,6.4503015E2,4.437907E0,2.2995299E2,9.671254E0,6.180575E0,3.097124E2,2.611505E2,3.218628E1,8.400583E1,2.6951199E1,5.122377E1,1.162816E2,1.9343082E2,1.8787537E1,1.3398743E1],"tree_param":{"num_deleted":"0","num_feature":"31","num_nodes":"71","size_leaf_vector":"1"}},{"base_weights":[-3.9372954E-4,-3.216988E-1,2.8384107E-1,-6.252681E-1,-2.4028529E-1,9.2317946E-2,4.848913E-1,-6.936522E-2,-4.932673E-2,-3.431546E-1,-1.4341037E-1,8.926351E-3,1.879039E-1,2.4753565E-1,5.5803084E-1,-2.5021473E-1,-4.3671574E-2,-2.0061986E-1,-4.0392134E-2,-2.510258E-3,1.3359334E-1,1.2851012E-1,2.9399661E-2,2.8128697E-2,-1.4398427E-2,5.1318597E-2,6.670966E-2,-3.983846E-1,-1.7518874E-1,-2.5595218E-1,-1.1139896E-1,-1.2039256E-2,8.969749E-2,1.6131299E-2,-6.7477114E-2,2.4427848E-1,6.631772E-2,-2.869493E-1,-5.9185103E-2,8.068402E-2,-2.1056649E-1,-1.7692845E-1,-3.4844795E-1,-6.7180604E-2,-9.099808E-2,-3.0432849E-3,2.594039E-2,2.9544663E-2,-1.56107E-2,-1.4200322E-2,1.1192552E-2,-6.1224077E-2,-1.8599184E-1,3.3010922E-2,-2.1985104E-2,1.5465736E-1,-2.5567386E-2,-7.00339E-2,-1.5808858E-2,-4.026352E-2,3.1969144E-3,-1.815323E-2,2.5694778E-3,-6.435395E-2,-9.104047E-3,7.586643E-2,-5.0493954E-3],"categories":[],"categories_nodes":[],"categories_segments":[],"categories_sizes":[],"default_left":[0,0,0,0,0,0,0,0,0,0,0,0,0,0,0,0,0,0,0,0,0,0,0,0,0,0,0,0,0,0,0,0,0,0,0,0,0,0,0,0,0,0,0,0,0,0,0,0,0,0,0,0,0,0,0,0,0,0,0,0,0,0,0,0,0,0,0],"id":18,"left_children":[1,3,5,7,9,11,13,-1,-1,15,17,19,21,23,25,27,-1,29,31,-1,33,35,-1,-1,-1,-1,-1,37,39,41,43,-1,45,-1,-1,47,49,51,-1,53,55,57,59,-1,61,-1,-1,-1,-1,-1,-1,-1,63,-1,-1,65,-1,-1,-1,-1,-1,-1,-1,-1,-1,-1,-1],"loss_changes":[9.7588654E2,1.2366931E2,2.1810202E2,6.5130615E0,3.925917E1,2.3084497E1,4.7715515E1,0E0,0E0,1.3666199E1,1.1937447E1,6.453308E0,7.533272E0,6.035717E0,1.0962036E1,9.550545E0,0E0,6.336014E0,7.204535E0,0E0,5.501391E0,5.912404E0,0E0,0E0,0E0,0E0,0E0,5.3297653E0,5.3316936E0,5.705181E0,5.256733E0,0E0,5.178852E0,0E0,0E0,4.708317E0,4.610183E0,5.2277126E0,0E0,4.9004183E0,6.79801E0,5.0347824E0,5.703129E0,0E0,4.780924E0,0E0,0E0,0E0,0E0,0E0,0E0,0E0,5.5450788E0,0E0,0E0,5.557427E0,0E0,0E0,0E0,0E0,0E0,0E0,0E0,0E0,0E0,0E0,0E0],"parents":[2147483647,0,0,1,1,2,2,3,3,4,4,5,5,6,6,9,9,10,10,11,11,12,12,13,13,14,14,15,15,17,17,18,18,20,20,21,21,27,27,28,28,29,29,30,30,32,32,35,35,36,36,37,37,39,39,40,40,41,41,42,42,44,44,52,52,55,55],"right_children":[2,4,6,8,10,12,14,-1,-1,16,18,20,22,24,26,28,-1,30,32,-1,34,36,-1,-1,-1,-1,-1,38,40,42,44,-1,46,-1,-1,48,50,52,-1,54,56,58,60,-1,62,-1,-1,-1,-1,-1,-1,-1,64,-1,-1,66,-1,-1,-1,-1,-1,-1,-1,-1,-1,-1,-1],"split_conditions":[-5.1298544E-2,-6.045639E-1,5.282855E-1,-7.447648E-1,-3.0758712E-1,1E0,1E0,-6.936522E-2,-4.932673E-2,-3.911169E-1,1E0,1E0,2.1401927E-1,5.745033E-1,2.41042E0,-4.8092973E-1,-4.3671574E-2,-1.53939575E-2,-1.1385834E-1,-2.510258E-3,1.178773E0,3.0090336E-2,2.9399661E-2,2.8128697E-2,-1.4398427E-2,5.1318597E-2,6.670966E-2,-1.378034E-1,-1.5102792E0,-3.4531066E-1,-5.626968E-1,-1.2039256E-2,-2.109403E-1,1.6131299E-2,-6.7477114E-2,9.6999127E-1,-2.4218996E-1,-3.2527047E-1,-5.9185103E-2,-2.8148988E-1,-3.8816106E-1,-1.1669408E0,1.7553115E0,-6.7180604E-2,-1.769071E-1,-3.0432849E-3,2.594039E-2,2.9544663E-2,-1.56107E-2,-1.4200322E-2,1.1192552E-2,-6.1224077E-2,-5.9210473E-1,3.3010922E-2,-2.1985104E-2,-2.8148988E-1,-2.5567386E-2,-7.00339E-2,-1.5808858E-2,-4.026352E-2,3.1969144E-3,-1.815323E-2,2.5694778E-3,-6.435395E-2,-9.104047E-3,7.586643E-2,-5.0493954E-3],"split_indices":[3,1,1,1,1,4,4,0,0,14,4,24,3,8,1,3,0,7,27,0,5,19,0,0,0,0,0,29,14,7,27,0,3,0,0,30,21,29,0,5,21,14,27,0,3,0,0,0,0,0,0,0,19,0,0,5,0,0,0,0,0,0,0,0,0,0,0],"split_type":[0,0,0,0,0,0,0,0,0,0,0,0,0,0,0,0,0,0,0,0,0,0,0,0,0,0,0,0,0,0,0,0,0,0,0,0,0,0,0,0,0,0,0,0,0,0,0,0,0,0,0,0,0,0,0,0,0,0,0,0,0,0,0,0,0,0,0],"sum_hessian":[1.0685424E4,5.0161934E3,5.669231E3,1.0597881E3,3.956405E3,2.9043345E3,2.7648965E3,8.180943E2,2.4169377E2,1.9170334E3,2.0393716E3,1.5530515E3,1.351283E3,6.5247314E2,2.1124233E3,8.7706085E2,1.0399727E3,1.3090447E3,7.303269E2,1.2248442E3,3.282073E2,8.3589935E2,5.153836E2,6.155468E2,3.6926365E1,1.2170825E3,8.953409E2,2.9317596E2,5.838849E2,8.055232E2,5.0352145E2,4.632861E2,2.670408E2,3.1974744E2,8.45987E0,2.9013184E2,5.457675E2,1.7941289E2,1.1376307E2,6.9747025E1,5.141379E2,4.3650726E2,3.6901593E2,1.7739424E1,4.8578204E2,1.5213956E2,1.1490126E2,2.638435E2,2.6288345E1,9.135087E1,4.5441663E2,4.3839886E1,1.35573E2,3.9126343E1,3.062068E1,4.5277103E1,4.6886078E2,1.9663342E1,4.1684393E2,3.347242E2,3.4291748E1,2.8308823E2,2.026938E2,2.4262024E1,1.11310974E2,1.217421E1,3.3102894E1],"tree_param":{"num_deleted":"0","num_feature":"31","num_nodes":"67","size_leaf_vector":"1"}},{"base_weights":[1.5809663E-2,-2.46952E-2,6.040062E-2,5.2157253E-1,2.6917974E-2,1.7663105E-1,1.5614837E-2,2.6989672E-1,-3.3403547E-3,-9.3582267E-4,5.530396E-1,7.400128E-1,-2.9403882E-2,4.617832E-1,2.0846735E-1,-0E0,1.061869E0,1.7864795E-1,-1.3638561E-2],"categories":[],"categories_nodes":[],"categories_segments":[],"categories_sizes":[],"default_left":[0,0,0,0,0,0,0,0,0,0,0,0,0,0,0,0,0,0,0],"id":19,"left_children":[1,-1,3,5,7,-1,-1,9,-1,-1,11,13,-1,15,-1,-1,17,-1,-1],"loss_changes":[4.9798193E0,0E0,5.675668E0,1.031589E1,5.17842E0,0E0,0E0,5.757786E0,0E0,0E0,5.745082E0,9.500032E0,0E0,6.790234E0,0E0,0E0,8.96607E0,0E0,0E0],"parents":[2147483647,0,0,2,2,3,3,4,4,7,7,10,10,11,11,13,13,16,16],"right_children":[2,-1,4,6,8,-1,-1,10,-1,-1,12,14,-1,16,-1,-1,18,-1,-1],"split_conditions":[-4.9505636E-1,-2.46952E-2,-4.3610752E-1,-5.238238E-1,-4.0835986E-1,1.7663105E-1,1.5614837E-2,-1.2640813E-1,-3.3403547E-3,-9.3582267E-4,4.6621677E-1,1.7435165E-1,-2.9403882E-2,3.7250552E-2,2.0846735E-1,-0E0,-5.5892175E-1,1.7864795E-1,-1.3638561E-2],"split_indices":[3,0,13,15,7,0,0,14,0,0,8,8,0,18,0,0,7,0,0],"split_type":[0,0,0,0,0,0,0,0,0,0,0,0,0,0,0,0,0,0,0],"sum_hessian":[4.4483594E2,6.524514E1,3.795908E2,2.4924026E1,3.5466678E2,5.6619678E0,1.9262058E1,7.0481186E1,2.8418558E2,3.4944626E1,3.553656E1,2.9384436E1,6.1521244E0,2.4420893E1,4.9635434E0,1.3850448E1,1.0570445E1,6.9603896E0,3.6100557E0],"tree_param":{"num_deleted":"0","num_feature":"31","num_nodes":"19","size_leaf_vector":"1"}},{"base_weights":[-4.1647532E-4,2.843181E-1,-3.3766454E-1,5.216908E-1,1.6745871E-1,-2.0340481E-1,-5.6822586E-1,6.891663E-2,4.106557E-1,2.938179E-1,8.7461956E-2,-1.05899535E-1,-2.9609033E-1,-3.2897696E-1,-6.037523E-1,3.766465E-1,5.9317112E-2,2.1854319E-1,3.584674E-1,3.1774996E-3,1.4638816E-1,-5.754532E-2,-2.0276292E-1,-1.7795676E-2,-3.947583E-1,-1.3359645E-1,-4.3849978E-1,-5.5776834E-2,-6.889874E-2,6.274886E-2,3.6331337E-2,1.2569529E-1,3.0233545E-2,7.932199E-3,3.988152E-2,-2.5640564E-2,1.8002605E-2,2.043221E-1,1.5151008E-2,-8.836061E-3,1.1741461E-2,-0E0,-2.6505519E-2,-5.040798E-2,-3.4564927E-2,-3.0353224E-2,2.0553178E-1,-5.0780077E-2,1.701486E-2,3.7028775E-2,4.8005033E-2,3.219467E-3,-3.3445157E-2,4.026567E-2,1.7389014E-1,-6.453196E-3,1.8889463E-1,1.3924032E-1,-3.815228E-2,-2.000228E-2,7.8032695E-2,-1.0092907E-1,7.2441217E-3,7.962938E-3,-1.4172987E-2,1.5692322E-2,2.3488447E-1,-1.805235E-1,3.3832833E-2,-2.2371883E-2,3.332774E-2,2.1301128E-2,-9.932662E-3,2.7167613E-2,-7.213259E-3,1.9745765E-2,-7.115313E-2],"categories":[],"categories_nodes":[],"categories_segments":[],"categories_sizes":[],"default_left":[0,0,0,0,0,0,0,0,0,0,0,0,0,0,0,0,0,0,0,0,0,0,0,0,0,0,0,0,0,0,0,0,0,0,0,0,0,0,0,0,0,0,0,0,0,0,0,0,0,0,0,0,0,0,0,0,0,0,0,0,0,0,0,0,0,0,0,0,0,0,0,0,0,0,0,0,0],"id":20,"left_children":[1,3,5,7,9,11,13,-1,15,17,19,21,23,25,27,29,-1,31,33,35,37,39,41,-1,43,45,47,-1,-1,-1,-1,49,-1,-1,-1,51,-1,53,55,-1,-1,57,-1,-1,-1,-1,59,-1,-1,-1,61,63,-1,-1,65,-1,67,69,-1,-1,-1,-1,-1,-1,-1,71,73,75,-1,-1,-1,-1,-1,-1,-1,-1,-1],"loss_changes":[1.025996E3,1.6044318E2,1.5115137E2,2.9930847E1,3.9117035E1,2.780935E1,1.4959717E1,0E0,5.570114E0,7.11467E0,1.1766392E1,6.9785786E0,1.9250015E1,4.8095074E0,5.8187866E0,5.0053253E0,0E0,4.5843697E0,5.7892838E0,4.8713827E0,1.0554125E1,4.7598243E0,5.3345547E0,0E0,4.6566467E0,4.6386867E0,4.7126274E0,0E0,0E0,0E0,0E0,5.42083E0,0E0,0E0,0E0,7.2882056E0,0E0,5.224537E0,5.8256574E0,0E0,0E0,5.3511305E0,0E0,0E0,0E0,0E0,6.0036283E0,0E0,0E0,0E0,4.8953238E0,7.8321013E0,0E0,0E0,7.946684E0,0E0,6.8499694E0,4.908107E0,0E0,0E0,0E0,0E0,0E0,0E0,0E0,4.973283E0,5.0158577E0,6.873049E0,0E0,0E0,0E0,0E0,0E0,0E0,0E0,0E0,0E0],"parents":[2147483647,0,0,1,1,2,2,3,3,4,4,5,5,6,6,8,8,9,9,10,10,11,11,12,12,13,13,14,14,15,15,17,17,18,18,19,19,20,20,21,21,22,22,24,24,25,25,26,26,31,31,35,35,37,37,38,38,41,41,46,46,50,50,51,51,54,54,56,56,57,57,65,65,66,66,67,67],"right_children":[2,4,6,8,10,12,14,-1,16,18,20,22,24,26,28,30,-1,32,34,36,38,40,42,-1,44,46,48,-1,-1,-1,-1,50,-1,-1,-1,52,-1,54,56,-1,-1,58,-1,-1,-1,-1,60,-1,-1,-1,62,64,-1,-1,66,-1,68,70,-1,-1,-1,-1,-1,-1,-1,72,74,76,-1,-1,-1,-1,-1,-1,-1,-1,-1],"split_conditions":[7.3295854E-2,-4.7272164E-1,8.9367E-1,-7.447648E-1,-2.6688388E-1,1E0,1E0,6.891663E-2,4.1744936E-1,-2.1642461E-1,-5.4451253E-2,4.5407942E-1,2.892109E-1,6.1215484E-1,2.4806197E0,-6.789393E-1,5.9317112E-2,-3.2611045E-1,-3.2063106E-1,4.858117E-2,-4.9933787E-2,6.9020975E-1,1.8490033E-1,-1.7795676E-2,1.83699E-1,2.2745505E-1,1.5392858E0,-5.5776834E-2,-6.889874E-2,6.274886E-2,3.6331337E-2,-5.7504606E-1,3.0233545E-2,7.932199E-3,3.988152E-2,1.0140305E0,1.8002605E-2,-7.707769E-1,1.0434372E0,-8.836061E-3,1.1741461E-2,1.351785E-1,-2.6505519E-2,-5.040798E-2,-3.4564927E-2,-3.0353224E-2,5.1042277E-1,-5.0780077E-2,1.701486E-2,3.7028775E-2,-1.3481672E0,-8.910625E-2,-3.3445157E-2,4.026567E-2,-2.0651764E-1,-6.453196E-3,-4.653913E-2,1.5085316E-1,-3.815228E-2,-2.000228E-2,7.8032695E-2,-1.0092907E-1,7.2441217E-3,7.962938E-3,-1.4172987E-2,-2.5874534E-1,4.4214824E-1,-1.12945214E-1,3.3832833E-2,-2.2371883E-2,3.332774E-2,2.1301128E-2,-9.932662E-3,2.7167613E-2,-7.213259E-3,1.9745765E-2,-7.115313E-2],"split_indices":[0,1,1,1,0,4,4,0,20,20,20,1,0,6,1,17,0,7,21,2,0,7,22,0,9,8,27,0,0,0,0,0,0,0,0,27,0,10,20,0,0,12,0,0,0,0,27,0,0,0,20,0,0,0,2,0,2,20,0,0,0,0,0,0,0,1,9,9,0,0,0,0,0,0,0,0,0],"split_type":[0,0,0,0,0,0,0,0,0,0,0,0,0,0,0,0,0,0,0,0,0,0,0,0,0,0,0,0,0,0,0,0,0,0,0,0,0,0,0,0,0,0,0,0,0,0,0,0,0,0,0,0,0,0,0,0,0,0,0,0,0,0,0,0,0,0,0,0,0,0,0,0,0,0,0,0,0],"sum_hessian":[1.0684184E4,5.7925835E3,4.8916006E3,1.909889E3,3.8826943E3,3.0924478E3,1.7991527E3,8.333846E2,1.0765044E3,1.5034493E3,2.3792449E3,1.5089115E3,1.5835363E3,2.3396495E2,1.5651877E3,8.9113635E2,1.8536807E2,6.97238E2,8.0621136E2,9.813796E2,1.3978654E3,1.00890234E3,5.000091E2,7.018581E2,8.816782E2,8.522134E1,1.4874362E2,7.541777E2,8.110101E2,9.0307846E1,8.008285E2,3.0913452E2,3.8810342E2,6.958186E1,7.366295E2,8.378122E2,1.4356738E2,9.679428E2,4.299226E2,8.699667E2,1.3893568E2,1.03818954E2,3.9619016E2,3.5185898E2,5.298193E2,5.8690796E1,2.6530539E1,1.3762003E2,1.1123596E1,7.652186E1,2.3261266E2,7.626294E2,7.5182816E1,1.3563739E2,8.323054E2,2.9612866E2,1.3379396E2,7.515604E1,2.8662914E1,1.50242E1,1.1506338E1,4.4704885E0,2.2814217E2,5.0140253E2,2.6122684E2,2.3318034E2,5.9912506E2,3.5596176E1,9.8197784E1,2.4852676E1,5.0303364E1,8.7398796E1,1.4578154E2,5.511397E2,4.798533E1,2.0178268E1,1.5417907E1],"tree_param":{"num_deleted":"0","num_feature":"31","num_nodes":"77","size_leaf_vector":"1"}},{"base_weights":[-1.9355271E-4,-2.6488385E-1,3.021622E-1,-4.9395126E-1,-1.5558626E-1,1.7336856E-1,5.3308374E-1,-6.690452E-2,-3.8195804E-1,-2.6929882E-1,-8.34188E-2,1.0824911E-1,2.954611E-1,3.23537E-2,5.8795594E-2,-3.6137216E-2,-5.636433E-2,-6.1600334E-3,-2.9240698E-1,5.3527E-4,-1.4603497E-1,4.1264966E-3,1.7885633E-1,1.8064829E-2,4.1230652E-2,-2.156569E-2,-3.5914853E-1,-1.929349E-1,-3.3725563E-2,1.2719473E-2,2.675367E-1,-5.3971708E-2,-3.2431625E-2,-2.1170363E-1,8.786408E-3,5.0137425E-3,-2.3294885E-2,3.9392795E-2,1.4930116E-1,-1.5121686E-1,-3.312552E-2,-2.9545024E-2,2.371549E-2,-3.0883465E-2,-8.940363E-3],"categories":[],"categories_nodes":[],"categories_segments":[],"categories_sizes":[],"default_left":[0,0,0,0,0,0,0,0,0,0,0,0,0,0,0,0,0,0,0,0,0,0,0,0,0,0,0,0,0,0,0,0,0,0,0,0,0,0,0,0,0,0,0,0,0],"id":21,"left_children":[1,3,5,7,9,11,13,-1,15,17,19,21,23,-1,-1,-1,-1,-1,25,-1,27,-1,29,-1,-1,-1,31,33,35,-1,37,-1,-1,39,-1,-1,-1,-1,41,43,-1,-1,-1,-1,-1],"loss_changes":[8.3616833E2,1.3927011E2,1.4478659E2,3.0108765E1,3.0841927E1,2.4758469E1,1.2786652E1,0E0,5.2762756E0,6.9752655E0,1.2861292E1,9.805569E0,1.3271492E1,0E0,0E0,0E0,0E0,0E0,7.2188263E0,0E0,7.063423E0,0E0,4.866581E0,0E0,0E0,0E0,5.1871643E0,5.01733E0,6.354402E0,0E0,4.95689E0,0E0,0E0,5.6700897E0,0E0,0E0,0E0,0E0,6.544516E0,5.351201E0,0E0,0E0,0E0,0E0,0E0],"parents":[2147483647,0,0,1,1,2,2,3,3,4,4,5,5,6,6,8,8,9,9,10,10,11,11,12,12,18,18,20,20,22,22,26,26,27,27,28,28,30,30,33,33,38,38,39,39],"right_children":[2,4,6,8,10,12,14,-1,16,18,20,22,24,-1,-1,-1,-1,-1,26,-1,28,-1,30,-1,-1,-1,32,34,36,-1,38,-1,-1,40,-1,-1,-1,-1,42,44,-1,-1,-1,-1,-1],"split_conditions":[6.496301E-2,-4.7272164E-1,8.9367E-1,-7.447648E-1,-2.6688388E-1,4.5407942E-1,1E0,-6.690452E-2,4.1744936E-1,-3.2063106E-1,-5.4451253E-2,1E0,1E0,3.23537E-2,5.8795594E-2,-3.6137216E-2,-5.636433E-2,-6.1600334E-3,-2.4118981E-1,5.3527E-4,-4.9933787E-2,4.1264966E-3,2.5143772E-1,1.8064829E-2,4.1230652E-2,-2.156569E-2,-5.043263E-1,4.1594198E-1,1.0434372E0,1.2719473E-2,2.2641996E-1,-5.3971708E-2,-3.2431625E-2,-1.341042E-1,8.786408E-3,5.0137425E-3,-2.3294885E-2,3.9392795E-2,2.4146898E-1,-2.7711958E-1,-3.312552E-2,-2.9545024E-2,2.371549E-2,-3.0883465E-2,-8.940363E-3],"split_indices":[0,1,1,1,0,1,4,0,20,21,20,4,4,0,0,0,0,0,20,0,0,0,0,0,0,0,0,9,20,0,5,0,0,2,0,0,0,0,1,1,0,0,0,0,0],"split_type":[0,0,0,0,0,0,0,0,0,0,0,0,0,0,0,0,0,0,0,0,0,0,0,0,0,0,0,0,0,0,0,0,0,0,0,0,0,0,0,0,0,0,0,0,0],"sum_hessian":[1.0448089E4,5.5716494E3,4.8764395E3,1.798637E3,3.7730125E3,3.1315015E3,1.7449381E3,7.6360693E2,1.03503E3,1.4629489E3,2.3100637E3,2.0441619E3,1.0873395E3,2.3381474E2,1.5111233E3,8.595716E2,1.7545847E2,1.4657632E2,1.3163726E3,9.544718E2,1.3555919E3,1.0404274E3,1.0037345E3,4.989173E2,5.884222E2,5.836066E2,7.3276587E2,9.540897E2,4.015021E2,6.169047E2,3.868298E2,1.6172644E2,5.710394E2,8.948452E2,5.9244514E1,2.7959915E2,1.21902954E2,1.9675902E2,1.9007079E2,5.753017E2,3.1954355E2,2.8693274E1,1.6137752E2,1.7498686E2,4.0031482E2],"tree_param":{"num_deleted":"0","num_feature":"31","num_nodes":"45","size_leaf_vector":"1"}},{"base_weights":[2.2403922E-2,7.224732E-2,-2.127772E-2,7.689287E-2,4.8847016E-2,1.0966735E-1,-1.8136658E-2,-1.5768366E-2,2.1825406E-1,2.89751E-1,-1.5099715E-2,1.1691663E0,2.4878766E-1,2.7635443E-1,-1.3673784E-2,2.1830996E-2,1.2830532E-1],"categories":[],"categories_nodes":[],"categories_segments":[],"categories_sizes":[],"default_left":[0,0,0,0,0,0,0,0,0,0,0,0,0,0,0,0,0],"id":22,"left_children":[1,3,-1,-1,5,7,-1,-1,9,11,-1,13,15,-1,-1,-1,-1],"loss_changes":[4.962285E0,5.4188647E0,0E0,0E0,4.7643433E0,7.917614E0,0E0,0E0,5.183261E0,5.46132E0,0E0,1.4475892E1,5.488615E0,0E0,0E0,0E0,0E0],"parents":[2147483647,0,0,1,1,4,4,5,5,8,8,9,9,11,11,12,12],"right_children":[2,4,-1,-1,6,8,-1,-1,10,12,-1,14,16,-1,-1,-1,-1],"split_conditions":[7.8735495E-1,-4.7362906E-1,-2.127772E-2,7.689287E-2,8.0673075E-1,-2.8490868E-1,-1.8136658E-2,-1.5768366E-2,7.722408E-1,-2.7456903E-1,-1.5099715E-2,-4.945937E-1,1.7867931E0,2.7635443E-1,-1.3673784E-2,2.1830996E-2,1.2830532E-1],"split_indices":[27,13,0,0,9,29,0,0,15,29,0,27,6,0,0,0,0],"split_type":[0,0,0,0,0,0,0,0,0,0,0,0,0,0,0,0,0],"sum_hessian":[4.411694E2,3.6318527E2,7.798412E1,1.1689731E1,3.5149554E2,2.7759985E2,7.3895676E1,8.0472E1,1.9712787E2,1.6554868E2,3.1579191E1,6.894142E0,1.5865453E2,3.2857015E0,3.6084409E0,1.531767E2,5.4778333E0],"tree_param":{"num_deleted":"0","num_feature":"31","num_nodes":"17","size_leaf_vector":"1"}},{"base_weights":[-4.9872976E-4,2.612594E-1,-3.1195465E-1,4.919045E-1,1.5155178E-1,-1.8405525E-1,-5.4083997E-1,6.628452E-2,3.8194683E-1,2.4048504E-1,5.6131754E-2,-9.511689E-2,-2.699515E-1,-4.480709E-1,-6.548137E-2,3.4742713E-1,5.688838E-2,5.7754796E-3,2.6260102E-1,2.0841574E-2,2.1771E-2,-4.248514E-3,-1.729952E-2,-1.6061151E-2,-3.6338443E-1,-2.5150093E-1,-5.2417926E-2,5.9507936E-2,3.2171112E-1,1.8289622E-2,3.2284662E-1,1.005073E-1,-2.3798265E-2,-4.7218297E-2,-3.1307206E-2,-3.3978857E-2,1.1325769E-2,2.6525486E-1,4.531918E-2,4.5679457E-2,2.7937474E-2,1.151089E-1,-5.7310678E-2,-2.0948139E-1,6.7636343E-3,2.2847893E-2,4.8767682E-2,7.442684E-2,3.7559636E-2,2.7014753E-2,-2.9981794E-2,-1.6072113E-3,2.6992377E-2,1.673296E-2,-4.7703288E-3],"categories":[],"categories_nodes":[],"categories_segments":[],"categories_sizes":[],"default_left":[0,0,0,0,0,0,0,0,0,0,0,0,0,0,0,0,0,0,0,0,0,0,0,0,0,0,0,0,0,0,0,0,0,0,0,0,0,0,0,0,0,0,0,0,0,0,0,0,0,0,0,0,0,0,0],"id":23,"left_children":[1,3,5,7,9,11,13,-1,15,17,19,21,23,25,-1,27,-1,-1,29,31,-1,-1,-1,-1,33,35,-1,-1,37,-1,39,41,43,-1,-1,-1,-1,45,-1,-1,-1,47,-1,49,51,-1,-1,53,-1,-1,-1,-1,-1,-1,-1],"loss_changes":[8.516756E2,1.4338547E2,1.3941235E2,2.9259674E1,3.254574E1,2.3264313E1,1.398938E1,0E0,5.7142487E0,8.021042E0,1.0007505E1,5.778632E0,1.6541061E1,9.300842E0,0E0,4.751549E0,0E0,0E0,9.045471E0,5.4071045E0,0E0,0E0,0E0,0E0,4.5750427E0,5.3856E0,0E0,0E0,4.854286E0,0E0,6.3025436E0,5.066147E0,5.556676E0,0E0,0E0,0E0,0E0,4.620823E0,0E0,0E0,0E0,5.2259293E0,0E0,5.1930943E0,4.7626467E0,0E0,0E0,4.8614426E0,0E0,0E0,0E0,0E0,0E0,0E0,0E0],"parents":[2147483647,0,0,1,1,2,2,3,3,4,4,5,5,6,6,8,8,9,9,10,10,11,11,12,12,13,13,15,15,18,18,19,19,24,24,25,25,28,28,30,30,31,31,32,32,37,37,41,41,43,43,44,44,47,47],"right_children":[2,4,6,8,10,12,14,-1,16,18,20,22,24,26,-1,28,-1,-1,30,32,-1,-1,-1,-1,34,36,-1,-1,38,-1,40,42,44,-1,-1,-1,-1,46,-1,-1,-1,48,-1,50,52,-1,-1,54,-1,-1,-1,-1,-1,-1,-1],"split_conditions":[7.3295854E-2,-4.7272164E-1,8.9367E-1,-7.447648E-1,-1.9682689E-1,1E0,2.41042E0,6.628452E-2,4.1744936E-1,-3.2063106E-1,9.742163E-1,4.3367818E-1,2.892109E-1,1E0,-6.548137E-2,-6.789393E-1,5.688838E-2,5.7754796E-3,-2.5483847E-1,-2.5089252E-1,2.1771E-2,-4.248514E-3,-1.729952E-2,-1.6061151E-2,1.83699E-1,2.4112346E0,-5.2417926E-2,5.9507936E-2,5.331894E-2,1.8289622E-2,-4.0633202E-1,1.4340718E0,-7.037928E-1,-4.7218297E-2,-3.1307206E-2,-3.3978857E-2,1.1325769E-2,5.6162838E-2,4.531918E-2,4.5679457E-2,2.7937474E-2,3.358525E-1,-5.7310678E-2,-4.0735045E-1,1.0182676E0,2.2847893E-2,4.8767682E-2,-7.064061E-2,3.7559636E-2,2.7014753E-2,-2.9981794E-2,-1.6072113E-3,2.6992377E-2,1.673296E-2,-4.7703288E-3],"split_indices":[0,1,1,1,0,4,1,0,20,21,20,0,0,4,0,17,0,0,20,13,0,0,0,0,9,2,0,0,14,0,0,7,20,0,0,0,0,6,0,0,0,7,0,16,19,0,0,0,0,0,0,0,0,0,0],"split_type":[0,0,0,0,0,0,0,0,0,0,0,0,0,0,0,0,0,0,0,0,0,0,0,0,0,0,0,0,0,0,0,0,0,0,0,0,0,0,0,0,0,0,0,0,0,0,0,0,0,0,0,0,0,0,0],"sum_hessian":[1.0446276E4,5.675402E3,4.7708745E3,1.8282891E3,3.8471128E3,3.0616716E3,1.7092029E3,7.7976184E2,1.0485272E3,1.9893342E3,1.8577786E3,1.5062264E3,1.5554452E3,8.469839E2,8.62219E2,8.705566E2,1.7797063E2,2.1431342E2,1.7750208E3,1.5129932E3,3.4478543E2,8.6108295E2,6.4514343E2,6.988012E2,8.566439E2,1.9303189E2,6.53952E2,8.723606E1,7.833205E2,7.3262036E2,1.0424005E3,5.460232E2,9.6697E2,3.4060342E2,5.1604047E2,1.6014857E2,3.28833E1,5.280981E2,2.5522244E2,3.2319205E2,7.1920844E2,5.346617E2,1.1361513E1,1.3815697E2,8.2881305E2,4.3474033E2,9.335776E1,4.6036063E2,7.4301056E1,1.9379778E1,1.1877719E2,7.607587E2,6.805431E1,2.6895947E2,1.9140115E2],"tree_param":{"num_deleted":"0","num_feature":"31","num_nodes":"55","size_leaf_vector":"1"}},{"base_weights":[-7.3910534E-4,-2.177405E-1,3.1376228E-1,-4.4719028E-1,-1.0847126E-1,1.9435683E-1,5.163878E-1,-6.481131E-2,-3.4461403E-1,-2.1113913E-1,-3.413322E-2,1.0303564E-1,2.7921608E-1,4.2880672E-1,6.1316583E-2,-1.8249676E-2,-4.0452775E-2,-1.8408571E-1,-3.624668E-2,2.3743354E-2,-1.4751485E-1,3.32631E-2,7.918825E-2,1.97155E-2,3.930382E-2,5.161971E-2,2.409601E-2,-1.2824174E-2,-2.7589386E-2,-4.0033236E-2,9.6198365E-2,1.8628652E-1,-1.6779919E-1,1.0682855E-1,-1.4343092E-2,6.095087E-2,-5.4928012E-2,1.24883436E-1,-1.8904943E-2,-2.8442029E-2,4.35329E-2,-4.445726E-2,-1.4805543E-2,-4.311782E-3,1.4392E-2,-1.7228354E-2,1.4199071E-3,8.935232E-2,3.514225E-2,1.3044056E-2,-1.4957264E-2],"categories":[],"categories_nodes":[],"categories_segments":[],"categories_sizes":[],"default_left":[0,0,0,0,0,0,0,0,0,0,0,0,0,0,0,0,0,0,0,0,0,0,0,0,0,0,0,0,0,0,0,0,0,0,0,0,0,0,0,0,0,0,0,0,0,0,0,0,0,0,0],"id":24,"left_children":[1,3,5,7,9,11,13,-1,15,17,19,21,23,25,-1,-1,-1,27,-1,29,31,-1,33,-1,-1,-1,-1,-1,-1,35,37,39,41,43,-1,-1,45,47,-1,-1,-1,-1,-1,-1,-1,-1,-1,49,-1,-1,-1],"loss_changes":[6.96846E2,1.5131027E2,1.00601715E2,3.5200897E1,3.1166042E1,2.020221E1,9.773254E0,0E0,9.298264E0,6.2465363E0,1.5639984E1,6.4363394E0,1.1879181E1,9.433212E0,0E0,0E0,0E0,6.9928474E0,0E0,7.2822886E0,5.448883E0,0E0,6.859511E0,0E0,0E0,0E0,0E0,0E0,0E0,7.617133E0,5.8813076E0,4.92329E0,4.76223E0,4.850231E0,0E0,0E0,6.2709494E0,4.951769E0,0E0,0E0,0E0,0E0,0E0,0E0,0E0,0E0,0E0,4.904382E0,0E0,0E0,0E0],"parents":[2147483647,0,0,1,1,2,2,3,3,4,4,5,5,6,6,8,8,9,9,10,10,11,11,12,12,13,13,17,17,19,19,20,20,22,22,29,29,30,30,31,31,32,32,33,33,36,36,37,37,47,47],"right_children":[2,4,6,8,10,12,14,-1,16,18,20,22,24,26,-1,-1,-1,28,-1,30,32,-1,34,-1,-1,-1,-1,-1,-1,36,38,40,42,44,-1,-1,46,48,-1,-1,-1,-1,-1,-1,-1,-1,-1,50,-1,-1,-1],"split_conditions":[1.5429008E-1,-4.503367E-1,1.0430659E0,-7.447648E-1,-1.9682689E-1,1E0,2.41042E0,-6.481131E-2,-9.302802E-1,8.2017875E-1,4.4996664E-1,-7.820816E-1,4.5407942E-1,2.0505307E0,6.1316583E-2,-1.8249676E-2,-4.0452775E-2,4.6220332E-2,-3.624668E-2,-7.5317934E-2,-3.381535E-1,3.32631E-2,5.337023E-1,1.97155E-2,3.930382E-2,5.161971E-2,2.409601E-2,-1.2824174E-2,-2.7589386E-2,-9.822378E-1,3.743503E-1,-1.3650174E-1,-7.344999E-1,-6.414189E-1,-1.4343092E-2,6.095087E-2,-2.4269351E-1,6.0837775E-1,-1.8904943E-2,-2.8442029E-2,4.35329E-2,-4.445726E-2,-1.4805543E-2,-4.311782E-3,1.4392E-2,-1.7228354E-2,1.4199071E-3,6.758552E-1,3.514225E-2,1.3044056E-2,-1.4957264E-2],"split_indices":[0,1,1,1,0,4,1,0,14,20,20,20,1,5,0,0,0,14,0,1,5,0,19,0,0,0,0,0,0,15,5,1,7,14,0,0,13,14,0,0,0,0,0,0,0,0,0,17,0,0,0],"split_type":[0,0,0,0,0,0,0,0,0,0,0,0,0,0,0,0,0,0,0,0,0,0,0,0,0,0,0,0,0,0,0,0,0,0,0,0,0,0,0,0,0,0,0,0,0,0,0,0,0,0,0],"sum_hessian":[1.0210913E4,6.0426655E3,4.168248E3,1.9482506E3,4.094415E3,2.623867E3,1.544381E3,7.112237E2,1.237027E3,1.7175709E3,2.376844E3,1.2658295E3,1.3580375E3,7.1462744E2,8.2975354E2,2.6466614E2,9.7236084E2,1.4390049E3,2.7856604E2,1.5716587E3,8.051854E2,1.2343085E2,1.1423986E3,7.1965076E2,6.383868E2,5.2741296E2,1.872145E2,8.31092E2,6.079129E2,8.3342316E2,7.382355E2,4.512904E1,7.600564E2,1.0150198E3,1.27378784E2,1.8709082E1,8.147141E2,6.7044995E2,6.778552E1,1.4691347E1,3.0437695E1,6.5164986E1,6.948914E2,1.7802498E2,8.369948E2,3.126927E2,5.020214E2,5.7646106E2,9.3988884E1,4.99946E2,7.651506E1],"tree_param":{"num_deleted":"0","num_feature":"31","num_nodes":"51","size_leaf_vector":"1"}},{"base_weights":[2.9100629E-2,7.989871E-3,-2.0294946E-2],"categories":[],"categories_nodes":[],"categories_segments":[],"categories_sizes":[],"default_left":[0,0,0],"id":25,"left_children":[1,-1,-1],"loss_changes":[4.679009E0,0E0,0E0],"parents":[2147483647,0,0],"right_children":[2,-1,-1],"split_conditions":[7.8735495E-1,7.989871E-3,-2.0294946E-2],"split_indices":[27,0,0],"split_type":[0,0,0],"sum_hessian":[4.3748364E2,3.6186246E2,7.562117E1],"tree_param":{"num_deleted":"0","num_feature":"31","num_nodes":"3","size_leaf_vector":"1"}},{"base_weights":[-6.44372E-4,2.3995152E-1,-2.888339E-1,4.8391813E-1,1.447397E-1,-1.6890864E-1,-5.132374E-1,6.414968E-2,3.9223243E-2,2.237071E-1,5.5355255E-2,-8.74582E-2,-2.4854024E-1,-4.164805E-1,-6.3220106E-2,3.949005E-1,1.8727608E-1,2.335966E-2,2.0493291E-2,-2.9575478E-2,-6.711466E-2,-1.4561158E-2,-3.3831552E-1,-2.2183424E-1,-4.9294688E-2,2.0944875E-1,5.2391768E-2,1.1107685E-2,2.4597193E-1,2.177195E-1,1.2262102E-3,-9.055955E-3,1.897585E-2,