{"learner":{"attributes":{"scikit_learn":"{\"_estimator_type\": \"classifier\"}"},"feature_names":[],"feature_types":[],"gradient_booster":{"model":{"cats":{"enc":[],"feature_segments":[],"sorted_idx":[]},"gbtree_model_param":{"num_parallel_tree":"1","num_trees":"2034"},"iteration_indptr":[0,3,6,9,12,15,18,21,24,27,30,33,36,39,42,45,48,51,54,57,60,63,66,69,72,75,78,81,84,87,90,93,96,99,102,105,108,111,114,117,120,123,126,129,132,135,138,141,144,147,150,153,156,159,162,165,168,171,174,177,180,183,186,189,192,195,198,201,204,207,210,213,216,219,222,225,228,231,234,237,240,243,246,249,252,255,258,261,264,267,270,273,276,279,282,285,288,291,294,297,300,303,306,309,312,315,318,321,324,327,330,333,336,339,342,345,348,351,354,357,360,363,366,369,372,375,378,381,384,387,390,393,396,399,402,405,408,411,414,417,420,423,426,429,432,435,438,441,444,447,450,453,456,459,462,465,468,471,474,477,480,483,486,489,492,495,498,501,504,507,510,513,516,519,522,525,528,531,534,537,540,543,546,549,552,555,558,561,564,567,570,573,576,579,582,585,588,591,594,597,600,603,606,609,612,615,618,621,624,627,630,633,636,639,642,645,648,651,654,657,660,663,666,669,672,675,678,681,684,687,690,693,696,699,702,705,708,711,714,717,720,723,726,729,732,735,738,741,744,747,750,753,756,759,762,765,768,771,774,777,780,783,786,789,792,795,798,801,804,807,810,813,816,819,822,825,828,831,834,837,840,843,846,849,852,855,858,861,864,867,870,873,876,879,882,885,888,891,894,897,900,903,906,909,912,915,918,921,924,927,930,933,936,939,942,945,948,951,954,957,960,963,966,969,972,975,978,981,984,987,990,993,996,999,1002,1005,1008,1011,1014,1017,1020,1023,1026,1029,1032,1035,1038,1041,1044,1047,1050,1053,1056,1059,1062,1065,1068,1071,1074,1077,1080,1083,1086,1089,1092,1095,1098,1101,1104,1107,1110,1113,1116,1119,1122,1125,1128,1131,1134,1137,1140,1143,1146,1149,1152,1155,1158,1161,1164,1167,1170,1173,1176,1179,1182,1185,1188,1191,1194,1197,1200,1203,1206,1209,1212,1215,1218,1221,1224,1227,1230,1233,1236,1239,1242,1245,1248,1251,1254,1257,1260,1263,1266,1269,1272,1275,1278,1281,1284,1287,1290,1293,1296,1299,1302,1305,1308,1311,1314,1317,1320,1323,1326,1329,1332,1335,1338,1341,1344,1347,1350,1353,1356,1359,1362,1365,1368,1371,1374,1377,1380,1383,1386,1389,1392,1395,1398,1401,1404,1407,1410,1413,1416,1419,1422,1425,1428,1431,1434,1437,1440,1443,1446,1449,1452,1455,1458,1461,1464,1467,1470,1473,1476,1479,1482,1485,1488,1491,1494,1497,1500,1503,1506,1509,1512,1515,1518,1521,1524,1527,1530,1533,1536,1539,1542,1545,1548,1551,1554,1557,1560,1563,1566,1569,1572,1575,1578,1581,1584,1587,1590,1593,1596,1599,1602,1605,1608,1611,1614,1617,1620,1623,1626,1629,1632,1635,1638,1641,1644,1647,1650,1653,1656,1659,1662,1665,1668,1671,1674,1677,1680,1683,1686,1689,1692,1695,1698,1701,1704,1707,1710,1713,1716,1719,1722,1725,1728,1731,1734,1737,1740,1743,1746,1749,1752,1755,1758,1761,1764,1767,1770,1773,1776,1779,1782,1785,1788,1791,1794,1797,1800,1803,1806,1809,1812,1815,1818,1821,1824,1827,1830,1833,1836,1839,1842,1845,1848,1851,1854,1857,1860,1863,1866,1869,1872,1875,1878,1881,1884,1887,1890,1893,1896,1899,1902,1905,1908,1911,1914,1917,1920,1923,1926,1929,1932,1935,1938,1941,1944,1947,1950,1953,1956,1959,1962,1965,1968,1971,1974,1977,1980,1983,1986,1989,1992,1995,1998,2001,2004,2007,2010,2013,2016,2019,2022,2025,2028,2031,2034],"tree_info":[0,1,2,0,1,2,0,1,2,0,1,2,0,1,2,0,1,2,0,1,2,0,1,2,0,1,2,0,1,2,0,1,2,0,1,2,0,1,2,0,1,2,0,1,2,0,1,2,0,1,2,0,1,2,0,1,2,0,1,2,0,1,2,0,1,2,0,1,2,0,1,2,0,1,2,0,1,2,0,1,2,0,1,2,0,1,2,0,1,2,0,1,2,0,1,2,0,1,2,0,1,2,0,1,2,0,1,2,0,1,2,0,1,2,0,1,2,0,1,2,0,1,2,0,1,2,0,1,2,0,1,2,0,1,2,0,1,2,0,1,2,0,1,2,0,1,2,0,1,2,0,1,2,0,1,2,0,1,2,0,1,2,0,1,2,0,1,2,0,1,2,0,1,2,0,1,2,0,1,2,0,1,2,0,1,2,0,1,2,0,1,2,0,1,2,0,1,2,0,1,2,0,1,2,0,1,2,0,1,2,0,1,2,0,1,2,0,1,2,0,1,2,0,1,2,0,1,2,0,1,2,0,1,2,0,1,2,0,1,2,0,1,2,0,1,2,0,1,2,0,1,2,0,1,2,0,1,2,0,1,2,0,1,2,0,1,2,0,1,2,0,1,2,0,1,2,0,1,2,0,1,2,0,1,2,0,1,2,0,1,2,0,1,2,0,1,2,0,1,2,0,1,2,0,1,2,0,1,2,0,1,2,0,1,2,0,1,2,0,1,2,0,1,2,0,1,2,0,1,2,0,1,2,0,1,2,0,1,2,0,1,2,0,1,2,0,1,2,0,1,2,0,1,2,0,1,2,0,1,2,0,1,2,0,1,2,0,1,2,0,1,2,0,1,2,0,1,2,0,1,2,0,1,2,0,1,2,0,1,2,0,1,2,0,1,2,0,1,2,0,1,2,0,1,2,0,1,2,0,1,2,0,1,2,0,1,2,0,1,2,0,1,2,0,1,2,0,1,2,0,1,2,0,1,2,0,1,2,0,1,2,0,1,2,0,1,2,0,1,2,0,1,2,0,1,2,0,1,2,0,1,2,0,1,2,0,1,2,0,1,2,0,1,2,0,1,2,0,1,2,0,1,2,0,1,2,0,1,2,0,1,2,0,1,2,0,1,2,0,1,2,0,1,2,0,1,2,0,1,2,0,1,2,0,1,2,0,1,2,0,1,2,0,1,2,0,1,2,0,1,2,0,1,2,0,1,2,0,1,2,0,1,2,0,1,2,0,1,2,0,1,2,0,1,2,0,1,2,0,1,2,0,1,2,0,1,2,0,1,2,0,1,2,0,1,2,0,1,2,0,1,2,0,1,2,0,1,2,0,1,2,0,1,2,0,1,2,0,1,2,0,1,2,0,1,2,0,1,2,0,1,2,0,1,2,0,1,2,0,1,2,0,1,2,0,1,2,0,1,2,0,1,2,0,1,2,0,1,2,0,1,2,0,1,2,0,1,2,0,1,2,0,1,2,0,1,2,0,1,2,0,1,2,0,1,2,0,1,2,0,1,2,0,1,2,0,1,2,0,1,2,0,1,2,0,1,2,0,1,2,0,1,2,0,1,2,0,1,2,0,1,2,0,1,2,0,1,2,0,1,2,0,1,2,0,1,2,0,1,2,0,1,2,0,1,2,0,1,2,0,1,2,0,1,2,0,1,2,0,1,2,0,1,2,0,1,2,0,1,2,0,1,2,0,1,2,0,1,2,0,1,2,0,1,2,0,1,2,0,1,2,0,1,2,0,1,2,0,1,2,0,1,2,0,1,2,0,1,2,0,1,2,0,1,2,0,1,2,0,1,2,0,1,2,0,1,2,0,1,2,0,1,2,0,1,2,0,1,2,0,1,2,0,1,2,0,1,2,0,1,2,0,1,2,0,1,2,0,1,2,0,1,2,0,1,2,0,1,2,0,1,2,0,1,2,0,1,2,0,1,2,0,1,2,0,1,2,0,1,2,0,1,2,0,1,2,0,1,2,0,1,2,0,1,2,0,1,2,0,1,2,0,1,2,0,1,2,0,1,2,0,1,2,0,1,2,0,1,2,0,1,2,0,1,2,0,1,2,0,1,2,0,1,2,0,1,2,0,1,2,0,1,2,0,1,2,0,1,2,0,1,2,0,1,2,0,1,2,0,1,2,0,1,2,0,1,2,0,1,2,0,1,2,0,1,2,0,1,2,0,1,2,0,1,2,0,1,2,0,1,2,0,1,2,0,1,2,0,1,2,0,1,2,0,1,2,0,1,2,0,1,2,0,1,2,0,1,2,0,1,2,0,1,2,0,1,2,0,1,2,0,1,2,0,1,2,0,1,2,0,1,2,0,1,2,0,1,2,0,1,2,0,1,2,0,1,2,0,1,2,0,1,2,0,1,2,0,1,2,0,1,2,0,1,2,0,1,2,0,1,2,0,1,2,0,1,2,0,1,2,0,1,2,0,1,2,0,1,2,0,1,2,0,1,2,0,1,2,0,1,2,0,1,2,0,1,2,0,1,2,0,1,2,0,1,2,0,1,2,0,1,2,0,1,2,0,1,2,0,1,2,0,1,2,0,1,2,0,1,2,0,1,2,0,1,2,0,1,2,0,1,2,0,1,2,0,1,2,0,1,2,0,1,2,0,1,2,0,1,2,0,1,2,0,1,2,0,1,2,0,1,2,0,1,2,0,1,2,0,1,2,0,1,2,0,1,2,0,1,2,0,1,2,0,1,2,0,1,2,0,1,2,0,1,2,0,1,2,0,1,2,0,1,2,0,1,2,0,1,2,0,1,2,0,1,2,0,1,2,0,1,2,0,1,2,0,1,2,0,1,2,0,1,2,0,1,2,0,1,2,0,1,2,0,1,2,0,1,2,0,1,2,0,1,2,0,1,2,0,1,2,0,1,2,0,1,2,0,1,2,0,1,2,0,1,2,0,1,2,0,1,2,0,1,2,0,1,2,0,1,2,0,1,2,0,1,2,0,1,2,0,1,2,0,1,2,0,1,2,0,1,2,0,1,2,0,1,2,0,1,2,0,1,2,0,1,2,0,1,2,0,1,2,0,1,2,0,1,2,0,1,2,0,1,2,0,1,2,0,1,2,0,1,2,0,1,2,0,1,2,0,1,2,0,1,2,0,1,2,0,1,2,0,1,2,0,1,2,0,1,2,0,1,2,0,1,2,0,1,2,0,1,2,0,1,2,0,1,2,0,1,2,0,1,2,0,1,2,0,1,2,0,1,2,0,1,2,0,1,2,0,1,2,0,1,2,0,1,2,0,1,2,0,1,2,0,1,2,0,1,2,0,1,2,0,1,2,0,1,2,0,1,2,0,1,2,0,1,2,0,1,2,0,1,2,0,1,2,0,1,2,0,1,2,0,1,2,0,1,2,0,1,2,0,1,2,0,1,2,0,1,2,0,1,2,0,1,2,0,1,2,0,1,2,0,1,2,0,1,2,0,1,2,0,1,2,0,1,2,0,1,2,0,1,2,0,1,2,0,1,2,0,1,2,0,1,2,0,1,2,0,1,2,0,1,2,0,1,2,0,1,2,0,1,2,0,1,2,0,1,2,0,1,2,0,1,2,0,1,2,0,1,2,0,1,2,0,1,2,0,1,2,0,1,2,0,1,2,0,1,2,0,1,2,0,1,2,0,1,2,0,1,2,0,1,2,0,1,2,0,1,2,0,1,2,0,1,2,0,1,2,0,1,2,0,1,2,0,1,2,0,1,2,0,1,2,0,1,2,0,1,2,0,1,2,0,1,2,0,1,2,0,1,2,0,1,2,0,1,2,0,1,2,0,1,2,0,1,2,0,1,2,0,1,2,0,1,2,0,1,2,0,1,2,0,1,2,0,1,2,0,1,2,0,1,2,0,1,2,0,1,2,0,1,2,0,1,2,0,1,2,0,1,2,0,1,2,0,1,2,0,1,2,0,1,2,0,1,2,0,1,2,0,1,2,0,1,2,0,1,2,0,1,2,0,1,2,0,1,2,0,1,2,0,1,2,0,1,2,0,1,2,0,1,2,0,1,2,0,1,2,0,1,2,0,1,2,0,1,2,0,1,2,0,1,2,0,1,2,0,1,2,0,1,2,0,1,2,0,1,2,0,1,2,0,1,2,0,1,2,0,1,2,0,1,2,0,1,2,0,1,2,0,1,2,0,1,2,0,1,2,0,1,2,0,1,2,0,1,2,0,1,2,0,1,2,0,1,2,0,1,2,0,1,2,0,1,2,0,1,2,0,1,2,0,1,2,0,1,2,0,1,2,0,1,2,0,1,2,0,1,2,0,1,2,0,1,2,0,1,2,0,1,2,0,1,2,0,1,2,0,1,2,0,1,2,0,1,2,0,1,2,0,1,2,0,1,2,0,1,2,0,1,2,0,1,2,0,1,2,0,1,2,0,1,2,0,1,2,0,1,2,0,1,2,0,1,2,0,1,2,0,1,2,0,1,2,0,1,2,0,1,2,0,1,2,0,1,2,0,1,2,0,1,2,0,1,2,0,1,2,0,1,2,0,1,2,0,1,2,0,1,2,0,1,2,0,1,2,0,1,2,0,1,2,0,1,2,0,1,2,0,1,2],"trees":[{"base_weights":[1.5157773E-4,-5.817901E-1,5.7248336E-1,-8.273066E-3,-3.304119E-1,3.837954E-2,7.530153E-1,-5.0634277E-1,3.249622E-2,1.848037E-1,-2.7346128E-1,5.475538E-1,8.018149E-3,-5.8272547E-1,-3.2652777E-1,1.0433309E-1,-3.8820044E-3,1.4479849E-1,8.588866E-3,-4.4526134E-2,-4.025864E-3,6.5555245E-1,2.5636268E-1,-4.8097825E-1,-6.618589E-3,-4.854058E-3,-2.1087196E-1,-1.0271874E-1,2.8300616E-1,4.789804E-2,4.327345E-3,-3.003882E-3,2.54814E-3,7.391772E-1,4.4725657E-1,5.0636763E-3,1.19730614E-1,2.4615198E-3,-4.328751E-3,-5.347076E-3,-1.13421E-3,6.960709E-5,-5.4670726E-3,-4.4619227E-3,2.7931428E-3,1.2714365E-3,-3.3343933E-3,1.5265442E-3,6.68059E-3,2.5702305E-3,5.998951E-3,-1.8971036E-3,2.1223475E-3],"categories":[],"categories_nodes":[],"categories_segments":[],"categories_sizes":[],"default_left":[0,0,0,0,0,0,0,0,0,0,0,0,0,0,0,0,0,0,0,0,0,0,0,0,0,0,0,0,0,0,0,0,0,0,0,0,0,0,0,0,0,0,0,0,0,0,0,0,0,0,0,0,0],"id":0,"left_children":[1,3,5,-1,7,9,11,13,15,17,19,21,-1,23,25,27,-1,29,-1,31,-1,33,35,37,-1,-1,39,41,43,45,-1,-1,-1,47,49,-1,51,-1,-1,-1,-1,-1,-1,-1,-1,-1,-1,-1,-1,-1,-1,-1,-1],"loss_changes":[1.3556329E3,1.8900922E2,1.9781409E2,0E0,7.700612E1,2.3678856E1,5.410144E1,1.1075638E1,1.3565947E1,1.1299973E1,7.2080927E0,2.1924805E1,0E0,1.0370041E1,6.4910336E0,1.268895E1,0E0,1.15247755E1,0E0,7.744658E0,0E0,8.774948E0,8.441576E0,5.194298E0,0E0,0E0,5.225579E0,9.317362E0,5.773508E0,1.1300936E1,0E0,0E0,0E0,6.4072266E0,5.3257923E0,0E0,5.690313E0,0E0,0E0,0E0,0E0,0E0,0E0,0E0,0E0,0E0,0E0,0E0,0E0,0E0,0E0,0E0,0E0],"parents":[2147483647,0,0,1,1,2,2,4,4,5,5,6,6,7,7,8,8,9,9,10,10,11,11,13,13,14,14,15,15,17,17,19,19,21,21,22,22,23,23,26,26,27,27,28,28,29,29,33,33,34,34,36,36],"right_children":[2,4,6,-1,8,10,12,14,16,18,20,22,-1,24,26,28,-1,30,-1,32,-1,34,36,38,-1,-1,40,42,44,46,-1,-1,-1,48,50,-1,52,-1,-1,-1,-1,-1,-1,-1,-1,-1,-1,-1,-1,-1,-1,-1,-1],"split_conditions":[-1.0832267E-2,-5.8153445E-1,1E0,-8.273066E-3,1E0,6.187952E-1,9.311606E-1,4.4339973E-1,2.4636343E-1,1.0047802E0,1.4955732E-1,5.830491E-1,8.018149E-3,3.7046317E-2,-7.128814E-1,6.304051E-2,-3.8820044E-3,0E0,8.588866E-3,1.608208E-1,-4.025864E-3,5.3919286E-1,1.260795E-2,-5.2893144E-1,-6.618589E-3,-4.854058E-3,-2.150484E-1,-1.9798873E-1,-2.1325023E0,6.0568815E-1,4.327345E-3,-3.003882E-3,2.54814E-3,7.996983E-2,6.117646E-1,5.0636763E-3,-4.696424E-2,2.4615198E-3,-4.328751E-3,-5.347076E-3,-1.13421E-3,6.960709E-5,-5.4670726E-3,-4.4619227E-3,2.7931428E-3,1.2714365E-3,-3.3343933E-3,1.5265442E-3,6.68059E-3,2.5702305E-3,5.998951E-3,-1.8971036E-3,2.1223475E-3],"split_indices":[1,0,3,0,3,33,0,33,11,32,6,33,0,39,4,33,0,5,0,30,0,6,2,6,0,0,1,6,38,32,0,0,0,1,4,0,12,0,0,0,0,0,0,0,0,0,0,0,0,0,0,0,0],"split_type":[0,0,0,0,0,0,0,0,0,0,0,0,0,0,0,0,0,0,0,0,0,0,0,0,0,0,0,0,0,0,0,0,0,0,0,0,0,0,0,0,0,0,0,0,0,0,0,0,0,0,0,0,0],"sum_hessian":[4.0699966E3,2.0179983E3,2.0519983E3,8.124993E2,1.205499E3,5.184996E2,1.5334988E3,8.119993E2,3.9349966E2,3.529997E2,1.6549986E2,6.994994E2,8.339993E2,5.694995E2,2.424998E2,3.4249973E2,5.0999958E1,3.3649973E2,1.6499987E1,7.549994E1,8.999992E1,5.0999957E2,1.8949985E2,3.649997E2,2.0449983E2,7.999993E1,1.6249986E2,1.5849986E2,1.8399985E2,2.644998E2,7.199994E1,3.9999966E1,3.549997E1,3.634997E2,1.4649988E2,5.5499954E1,1.339999E2,8.499993E0,3.564997E2,2.6499977E1,1.359999E2,1.309999E2,2.7499977E1,8.499993E0,1.7549985E2,2.1549982E2,4.8999958E1,1.9499983E1,3.4399973E2,9.099992E1,5.5499954E1,3.599997E1,9.7999916E1],"tree_param":{"num_deleted":"0","num_feature":"40","num_nodes":"53","size_leaf_vector":"1"}},{"base_weights":[-1.5495898E-2,5.547765E-1,-1.09333456E-1,6.219015E-4,1.0497956E-2,-1.6544068E-1,5.680079E-3,5.3954567E-3,-1.99E-3],"categories":[],"categories_nodes":[],"categories_segments":[],"categories_sizes":[],"default_left":[0,0,0,0,0,0,0,0,0],"id":1,"left_children":[1,3,5,-1,-1,7,-1,-1,-1],"loss_changes":[7.867508E0,6.488326E0,5.41916E0,0E0,0E0,5.9704103E0,0E0,0E0,0E0],"parents":[2147483647,0,0,1,1,2,2,5,5],"right_children":[2,4,6,-1,-1,8,-1,-1,-1],"split_conditions":[-7.873187E-1,2.9570142E-2,1.2609313E0,6.219015E-4,1.0497956E-2,-8.499559E-1,5.680079E-3,5.3954567E-3,-1.99E-3],"split_indices":[15,36,29,0,0,4,0,0,0],"split_type":[0,0,0,0,0,0,0,0,0],"sum_hessian":[1.4735704E2,2.0654348E1,1.267027E2,1.2020007E1,8.634342E0,1.1819375E2,8.508947E0,8.759737E0,1.0943401E2],"tree_param":{"num_deleted":"0","num_feature":"40","num_nodes":"9","size_leaf_vector":"1"}},{"base_weights":[6.626943E-4,5.7803005E-1,-5.692441E-1,8.340582E-3,3.1809294E-1,-5.1020138E-2,-7.4739474E-1,4.8198304E-1,-2.893297E-2,-3.2718974E-1,1.2394428E-1,-5.412229E-1,-7.986294E-3,5.8357894E-1,3.4166205E-1,-9.905015E-2,4.0423027E-1,-2.673591E-1,-7.978573E-3,-1.3857396E-2,2.5828215E-1,-6.500853E-1,-2.4944544E-1,6.3253397E-1,1.7246743E-1,2.542917E-1,5.511885E-3,8.591424E-2,-2.6647595E-1,7.5746123E-3,2.2012897E-1,-3.764075E-1,2.1255196E-3,-2.8796634E-3,7.733105E-2,2.2828057E-2,4.02396E-3,-4.6952438E-1,-7.169024E-1,-5.033294E-3,-1.1464951E-1,3.714504E-3,6.059711E-3,2.81206E-3,-4.554428E-3,3.0198572E-3,-2.3047802E-4,-5.089577E-3,1.4964262E-3,2.0001987E-3,-2.9618759E-3,-3.57254E-4,5.7504782E-3,-2.4736486E-3,-6.280954E-3,-1.1543062E-3,2.7726789E-3,2.6349006E-3,-3.263043E-3,-6.4411754E-4,-5.0914283E-3,8.475962E-5,-6.3705794E-3,3.2957955E-3,-1.69723E-3],"categories":[],"categories_nodes":[],"categories_segments":[],"categories_sizes":[],"default_left":[0,0,0,0,0,0,0,0,0,0,0,0,0,0,0,0,0,0,0,0,0,0,0,0,0,0,0,0,0,0,0,0,0,0,0,0,0,0,0,0,0,0,0,0,0,0,0,0,0,0,0,0,0,0,0,0,0,0,0,0,0,0,0,0,0],"id":2,"left_children":[1,3,5,-1,7,9,11,13,15,17,19,21,-1,23,25,27,29,31,-1,33,35,37,39,41,43,45,-1,47,49,-1,51,53,-1,-1,55,57,-1,59,61,-1,63,-1,-1,-1,-1,-1,-1,-1,-1,-1,-1,-1,-1,-1,-1,-1,-1,-1,-1,-1,-1,-1,-1,-1,-1],"loss_changes":[1.3462871E3,2.0294781E2,1.9003381E2,0E0,6.900462E1,2.5479116E1,5.4853394E1,1.1664627E1,1.1798193E1,7.1599827E0,5.986557E0,2.2219635E1,0E0,9.545792E0,8.836102E0,1.0388292E1,4.5866613E0,1.0417431E1,0E0,4.6374106E0,7.900708E0,6.053482E0,8.47999E0,5.6949615E0,5.423276E0,7.09713E0,0E0,9.271253E0,6.605377E0,0E0,4.5729203E0,4.7798176E0,0E0,0E0,6.326936E0,8.605463E0,0E0,6.411188E0,4.9666443E0,0E0,5.462312E0,0E0,0E0,0E0,0E0,0E0,0E0,0E0,0E0,0E0,0E0,0E0,0E0,0E0,0E0,0E0,0E0,0E0,0E0,0E0,0E0,0E0,0E0,0E0,0E0],"parents":[2147483647,0,0,1,1,2,2,4,4,5,5,6,6,7,7,8,8,9,9,10,10,11,11,13,13,14,14,15,15,16,16,17,17,19,19,20,20,21,21,22,22,23,23,24,24,25,25,27,27,28,28,30,30,31,31,34,34,35,35,37,37,38,38,40,40],"right_children":[2,4,6,-1,8,10,12,14,16,18,20,22,-1,24,26,28,30,32,-1,34,36,38,40,42,44,46,-1,48,50,-1,52,54,-1,-1,56,58,-1,60,62,-1,64,-1,-1,-1,-1,-1,-1,-1,-1,-1,-1,-1,-1,-1,-1,-1,-1,-1,-1,-1,-1,-1,-1,-1,-1],"split_conditions":[-1.0832267E-2,-5.8153445E-1,1E0,8.340582E-3,1E0,-2.094156E-1,9.311606E-1,-1.6453408E-1,2.4636343E-1,9.708786E-1,6.3092977E-1,5.830491E-1,-7.986294E-3,0E0,7.2597057E-1,6.304051E-2,6.0084677E-1,5.82492E-1,-7.978573E-3,1.1605914E-2,1.4955732E-1,1.7402898E-1,1.260795E-2,-3.390378E-1,8.155103E-1,9.647542E-1,5.511885E-3,-8.055976E-1,-9.156328E-1,7.5746123E-3,-5.462193E-2,0E0,2.1255196E-3,-2.8796634E-3,1.3541777E-1,2.79563E-1,4.02396E-3,-3.7573543E-1,6.0498472E-2,-5.033294E-3,7.996983E-2,3.714504E-3,6.059711E-3,2.81206E-3,-4.554428E-3,3.0198572E-3,-2.3047802E-4,-5.089577E-3,1.4964262E-3,2.0001987E-3,-2.9618759E-3,-3.57254E-4,5.7504782E-3,-2.4736486E-3,-6.280954E-3,-1.1543062E-3,2.7726789E-3,2.6349006E-3,-3.263043E-3,-6.4411754E-4,-5.0914283E-3,8.475962E-5,-6.3705794E-3,3.2957955E-3,-1.69723E-3],"split_indices":[1,0,3,0,3,33,0,1,11,2,33,33,0,5,34,33,11,32,0,11,6,4,2,6,15,33,0,26,37,0,1,5,0,0,38,30,0,14,1,0,1,0,0,0,0,0,0,0,0,0,0,0,0,0,0,0,0,0,0,0,0,0,0,0,0],"split_type":[0,0,0,0,0,0,0,0,0,0,0,0,0,0,0,0,0,0,0,0,0,0,0,0,0,0,0,0,0,0,0,0,0,0,0,0,0,0,0,0,0,0,0,0,0,0,0,0,0,0,0,0,0,0,0,0,0,0,0,0,0,0,0,0,0],"sum_hessian":[4.091293E3,2.0324004E3,2.0588926E3,8.197582E2,1.2126422E3,5.268446E2,1.532048E3,8.2375696E2,3.8888528E2,2.0443968E2,3.2240488E2,7.0179297E2,8.3025507E2,4.7735916E2,3.463978E2,3.349012E2,5.3984074E1,1.8594514E2,1.8494543E1,1.5895311E2,1.6345178E2,5.108493E2,1.9094366E2,4.263742E2,5.098496E1,2.674211E2,7.89767E1,1.5895311E2,1.7594809E2,1.4995576E1,3.89885E1,1.5345473E2,3.2490414E1,3.548953E1,1.2346358E2,7.647744E1,8.697434E1,1.3845915E2,3.7239014E2,5.498378E1,1.3595988E2,1.0546889E2,3.2090533E2,4.1987614E1,8.997346E0,2.0044087E2,6.698024E1,1.7994692E1,1.4095842E2,2.2993217E1,1.5295488E2,2.4492775E1,1.4495724E1,1.2196402E2,3.149071E1,6.598054E1,5.7483044E1,4.498673E1,3.149071E1,3.1990562E1,1.0646859E2,8.997346E0,3.633928E2,1.8994396E1,1.1696549E2],"tree_param":{"num_deleted":"0","num_feature":"40","num_nodes":"65","size_leaf_vector":"1"}},{"base_weights":[2.198353E-3,-5.36439E-1,6.1736315E-1,-8.191717E-3,-2.9401898E-1,7.712633E-2,7.7980083E-1,-4.675379E-1,3.6175035E-2,1.978961E-1,-3.2205898E-1,5.954106E-1,7.94612E-3,-5.5401456E-1,-3.0504665E-1,-1.3801198E-1,1.8090738E-1,1.4535826E-1,7.517898E-3,3.393071E-3,-3.4687563E-3,6.7730576E-1,2.800199E-1,-4.576469E-1,-7.386608E-1,-5.4319155E-1,-1.8914138E-1,5.1001473E-3,-1.836703E-1,2.9331294E-3,3.3872765E-1,2.5009453E-1,-3.5361344E-1,6.5008537E-3,3.8863298E-1,4.859526E-3,1.0757191E-3,3.103612E-3,-4.1471478E-3,-6.8001705E-3,-6.030215E-4,-5.3166673E-3,8.364756E-4,-4.9778214E-3,-1.1529055E-3,4.923204E-3,-1.9194647E-3,1.2823925E-3,-4.0467735E-3,3.8061654E-3,-3.3464532E-3,-2.0016844E-3,2.7131792E-3,-4.428719E-3,3.7424483E-3,1.9875364E-3,6.038274E-3],"categories":[],"categories_nodes":[],"categories_segments":[],"categories_sizes":[],"default_left":[0,0,0,0,0,0,0,0,0,0,0,0,0,0,0,0,0,0,0,0,0,0,0,0,0,0,0,0,0,0,0,0,0,0,0,0,0,0,0,0,0,0,0,0,0,0,0,0,0,0,0,0,0,0,0,0,0],"id":3,"left_children":[1,3,5,-1,7,9,11,13,15,17,19,21,-1,23,25,27,29,31,-1,-1,-1,33,35,37,39,41,43,-1,45,47,49,51,53,-1,55,-1,-1,-1,-1,-1,-1,-1,-1,-1,-1,-1,-1,-1,-1,-1,-1,-1,-1,-1,-1,-1,-1],"loss_changes":[1.3567347E3,2.1621204E2,1.6768457E2,0E0,7.855665E1,2.1311249E1,3.69881E1,1.2553528E1,1.1907004E1,1.1867236E1,5.7398815E0,1.611554E1,0E0,1.0316956E1,8.570148E0,7.0857625E0,7.2268867E0,1.646899E1,0E0,0E0,0E0,1.0353439E1,5.619482E0,6.590576E0,6.109688E0,4.629488E0,4.4983597E0,0E0,5.7193565E0,8.272545E0,9.965959E0,7.906229E0,6.776521E0,0E0,4.8608313E0,0E0,0E0,0E0,0E0,0E0,0E0,0E0,0E0,0E0,0E0,0E0,0E0,0E0,0E0,0E0,0E0,0E0,0E0,0E0,0E0,0E0,0E0],"parents":[2147483647,0,0,1,1,2,2,4,4,5,5,6,6,7,7,8,8,9,9,10,10,11,11,13,13,14,14,15,15,16,16,17,17,21,21,22,22,23,23,24,24,25,25,26,26,28,28,29,29,30,30,31,31,32,32,34,34],"right_children":[2,4,6,-1,8,10,12,14,16,18,20,22,-1,24,26,28,30,32,-1,-1,-1,34,36,38,40,42,44,-1,46,48,50,52,54,-1,56,-1,-1,-1,-1,-1,-1,-1,-1,-1,-1,-1,-1,-1,-1,-1,-1,-1,-1,-1,-1,-1,-1],"split_conditions":[7.996983E-2,-5.8153445E-1,1E0,-8.191717E-3,1E0,6.3092977E-1,9.311606E-1,4.300252E-1,1.5221706E-1,9.800681E-1,6.837947E-2,5.830491E-1,7.94612E-3,2.2644432E-1,-6.6183394E-1,-9.300839E-1,-4.4316375E-1,6.719687E-1,7.517898E-3,3.393071E-3,-3.4687563E-3,5.9396225E-1,3.1372022E-2,-5.2893144E-1,-4.2551868E-2,1.3916543E0,-2.150484E-1,5.1001473E-3,-8.6461174E-1,2.2530112E-1,3.5526626E-2,-7.111206E-1,0E0,6.5008537E-3,6.117646E-1,4.859526E-3,1.0757191E-3,3.103612E-3,-4.1471478E-3,-6.8001705E-3,-6.030215E-4,-5.3166673E-3,8.364756E-4,-4.9778214E-3,-1.1529055E-3,4.923204E-3,-1.9194647E-3,1.2823925E-3,-4.0467735E-3,3.8061654E-3,-3.3464532E-3,-2.0016844E-3,2.7131792E-3,-4.428719E-3,3.7424483E-3,1.9875364E-3,6.038274E-3],"split_indices":[1,0,3,0,3,33,0,33,33,0,32,33,0,31,4,26,31,2,0,0,0,6,6,6,1,9,1,0,8,11,2,24,5,0,4,0,0,0,0,0,0,0,0,0,0,0,0,0,0,0,0,0,0,0,0,0,0],"split_type":[0,0,0,0,0,0,0,0,0,0,0,0,0,0,0,0,0,0,0,0,0,0,0,0,0,0,0,0,0,0,0,0,0,0,0,0,0,0,0,0,0,0,0,0,0,0,0,0,0,0,0,0,0,0,0,0,0],"sum_hessian":[4.094345E3,2.1829038E3,1.9114412E3,8.1243207E2,1.3704717E3,4.4199576E2,1.4694454E3,8.9847534E2,4.7199637E2,3.3949774E2,1.02498E2,6.2698706E2,8.424584E2,5.859805E2,3.1249475E2,2.1399832E2,2.5799805E2,3.1499854E2,2.4499208E1,9.999894E0,9.249811E1,4.9748746E2,1.2949959E2,3.854891E2,2.0049144E2,1.01997505E2,2.1049725E2,1.2499967E1,2.0149835E2,1.2149902E2,1.3649902E2,2.604991E2,5.449942E1,3.9698886E2,1.004986E2,4.5999676E1,8.3499916E1,9.49997E0,3.7598914E2,1.8749167E2,1.2999773E1,9.1997696E1,9.999807E0,2.6499039E1,1.8399823E2,9.499908E0,1.9199844E2,9.299956E1,2.8499472E1,1.1999913E2,1.6499893E1,2.9999952E1,2.3049918E2,4.549945E1,8.999971E0,6.649953E1,3.399907E1],"tree_param":{"num_deleted":"0","num_feature":"40","num_nodes":"57","size_leaf_vector":"1"}},{"base_weights":[-6.8165567E-3,5.5616796E-1,-9.973683E-2,8.499365E-4,9.689914E-3,-1.4232744E-3,6.835425E-3],"categories":[],"categories_nodes":[],"categories_segments":[],"categories_sizes":[],"default_left":[0,0,0,0,0,0,0],"id":4,"left_children":[1,3,5,-1,-1,-1,-1],"loss_changes":[7.6598916E0,5.2442317E0,7.2061443E0,0E0,0E0,0E0,0E0],"parents":[2147483647,0,0,1,1,2,2],"right_children":[2,4,6,-1,-1,-1,-1],"split_conditions":[-7.873187E-1,5.754247E-2,1.2609313E0,8.499365E-4,9.689914E-3,-1.4232744E-3,6.835425E-3],"split_indices":[15,37,29,0,0,0,0],"split_type":[0,0,0,0,0,0,0],"sum_hessian":[1.467951E2,2.0626696E1,1.2616841E2,1.1490841E1,9.135855E0,1.1777363E2,8.394785E0],"tree_param":{"num_deleted":"0","num_feature":"40","num_nodes":"7","size_leaf_vector":"1"}},{"base_weights":[1.5449062E-3,5.3012186E-1,-6.0800695E-1,8.3052E-3,2.7874532E-1,-8.12702E-2,-7.682263E-1,4.636784E-1,-7.470434E-2,-2.1773367E-1,2.355192E-1,-5.737832E-1,-7.8960005E-3,5.8492297E-1,3.1580913E-1,6.299219E-2,-2.3868763E-1,-1.7657095E-1,-8.370267E-3,-3.7387798E-3,3.3041012E-1,-6.585795E-1,-2.6055238E-1,2.7697915E-1,6.497852E-1,3.4934264E-3,8.604573E-2,-1.23609435E-2,4.682955E-1,-1.7335582E-1,-6.371581E-3,-2.8269306E-1,2.4119216E-1,-5.112053E-4,3.8334825E-3,-6.434677E-3,-4.6777314E-1,-5.005591E-3,-9.5364355E-2,7.007878E-4,4.841368E-3,5.901859E-3,1.8268483E-3,-1.3570712E-3,2.7133862E-3,-6.742885E-3,2.2974989E-4,6.311835E-3,-1.2541182E-3,1.1815268E-3,-2.4516673E-3,1.8705076E-3,-3.0856347E-3,5.9271012E-3,-7.528541E-5,-2.3487937E-3,-5.701482E-3,-3.8023302E-3,4.3667422E-4],"categories":[],"categories_nodes":[],"categories_segments":[],"categories_sizes":[],"default_left":[0,0,0,0,0,0,0,0,0,0,0,0,0,0,0,0,0,0,0,0,0,0,0,0,0,0,0,0,0,0,0,0,0,0,0,0,0,0,0,0,0,0,0,0,0,0,0,0,0,0,0,0,0,0,0,0,0,0,0],"id":5,"left_children":[1,3,5,-1,7,9,11,13,15,17,19,21,-1,23,25,27,29,31,-1,-1,33,35,37,39,41,-1,43,45,47,49,-1,51,53,-1,-1,-1,55,-1,57,-1,-1,-1,-1,-1,-1,-1,-1,-1,-1,-1,-1,-1,-1,-1,-1,-1,-1,-1,-1],"loss_changes":[1.3199755E3,2.3606476E2,1.6050677E2,0E0,9.04137E1,1.919613E1,4.0372375E1,1.6200546E1,1.0737207E1,9.469061E0,8.460094E0,1.6345245E1,0E0,9.878952E0,8.176914E0,7.9107666E0,6.9673624E0,1.30656E1,0E0,0E0,5.1297398E0,7.6711884E0,6.865617E0,4.76364E0,5.564804E0,0E0,6.243742E0,6.525574E0,6.5178366E0,6.52705E0,0E0,8.60969E0,6.636198E0,0E0,0E0,0E0,5.495579E0,0E0,4.3850465E0,0E0,0E0,0E0,0E0,0E0,0E0,0E0,0E0,0E0,0E0,0E0,0E0,0E0,0E0,0E0,0E0,0E0,0E0,0E0,0E0],"parents":[2147483647,0,0,1,1,2,2,4,4,5,5,6,6,7,7,8,8,9,9,10,10,11,11,13,13,14,14,15,15,16,16,17,17,20,20,21,21,22,22,23,23,24,24,26,26,27,27,28,28,29,29,31,31,32,32,36,36,38,38],"right_children":[2,4,6,-1,8,10,12,14,16,18,20,22,-1,24,26,28,30,32,-1,-1,34,36,38,40,42,-1,44,46,48,50,-1,52,54,-1,-1,-1,56,-1,58,-1,-1,-1,-1,-1,-1,-1,-1,-1,-1,-1,-1,-1,-1,-1,-1,-1,-1,-1,-1],"split_conditions":[7.996983E-2,-5.8153445E-1,1E0,8.3052E-3,1E0,2.822123E-1,9.311606E-1,-1.560136E-1,3.620593E-1,1.0613616E0,6.837947E-2,5.830491E-1,-7.8960005E-3,-3.969536E-1,9.647542E-1,1.0729309E-1,1.3235102E0,6.719687E-1,-8.370267E-3,-3.7387798E-3,-6.0847676E-1,5.3919286E-1,3.1372022E-2,-1.7281461E-1,0E0,3.4934264E-3,9.512486E-3,-2.831417E-1,-6.699438E-1,-4.9057603E-1,-6.371581E-3,-7.111206E-1,5.2172893E-1,-5.112053E-4,3.8334825E-3,-6.434677E-3,3.7353683E-1,-5.005591E-3,4.8105188E-2,7.007878E-4,4.841368E-3,5.901859E-3,1.8268483E-3,-1.3570712E-3,2.7133862E-3,-6.742885E-3,2.2974989E-4,6.311835E-3,-1.2541182E-3,1.1815268E-3,-2.4516673E-3,1.8705076E-3,-3.0856347E-3,5.9271012E-3,-7.528541E-5,-2.3487937E-3,-5.701482E-3,-3.8023302E-3,4.3667422E-4],"split_indices":[1,0,3,0,3,33,0,1,33,2,32,33,0,6,33,11,35,2,0,0,37,6,6,39,5,0,11,4,22,36,0,24,10,0,0,0,4,0,4,0,0,0,0,0,0,0,0,0,0,0,0,0,0,0,0,0,0,0,0],"split_type":[0,0,0,0,0,0,0,0,0,0,0,0,0,0,0,0,0,0,0,0,0,0,0,0,0,0,0,0,0,0,0,0,0,0,0,0,0,0,0,0,0,0,0,0,0,0,0,0,0,0,0,0,0,0,0,0,0,0,0],"sum_hessian":[4.0966396E3,2.194117E3,1.9025228E3,8.1143506E2,1.382682E3,4.4385693E2,1.4586659E3,9.0783606E2,4.7484595E2,3.1038855E2,1.334684E2,6.181955E2,8.404704E2,4.984229E2,4.0941312E2,2.5792618E2,2.1691977E2,2.9439838E2,1.5990159E1,1.6495283E1,1.1697311E2,4.8624414E2,1.3195132E2,8.6983536E1,4.1143936E2,2.964421E2,1.12971016E2,2.1743459E2,4.0491596E1,1.9192944E2,2.4990324E1,2.3491338E2,5.9485E1,2.5993763E1,9.097935E1,3.3731424E2,1.4892992E2,4.4981953E1,8.6969376E1,5.148923E1,3.549431E1,3.8394473E2,2.7494658E1,5.448536E1,5.848566E1,1.04964695E1,2.0693813E2,2.849448E1,1.1997116E1,4.9983593E1,1.4194585E2,2.9989536E1,2.0492384E2,2.1494747E1,3.7990253E1,7.346945E1,7.546047E1,2.599082E1,6.0978554E1],"tree_param":{"num_deleted":"0","num_feature":"40","num_nodes":"59","size_leaf_vector":"1"}},{"base_weights":[-3.9185034E-3,-5.3583264E-1,6.1103183E-1,-8.179751E-3,-2.9105586E-1,8.2659654E-2,7.731475E-1,-4.6703875E-1,4.890221E-2,3.631958E-1,-5.3481802E-2,5.891875E-1,7.873534E-3,-5.7386535E-1,-3.3931538E-1,-9.963552E-2,2.2784135E-1,2.5274268E-1,6.442099E-3,1.4009021E-1,-1.7280792E-1,6.696657E-1,2.8818828E-1,-4.8334613E-1,-6.5670772E-3,-2.7807492E-1,-5.914994E-3,-2.4048718E-2,-5.0929683E-1,1.6509731E-1,6.0908063E-3,3.4591104E-3,-9.3556667E-4,-3.6234886E-3,1.899937E-3,2.3371153E-1,-2.5648367E-1,6.6527394E-3,4.4796863E-1,4.8412536E-3,1.4859776E-1,-1.4394231E-3,-4.80453E-3,-3.2050835E-3,-4.7392136E-4,4.2553577E-3,-6.698847E-4,-6.6902284E-3,1.0888755E-3,-1.0766282E-3,2.5029804E-3,-2.5555268E-3,4.6874885E-3,-9.3631394E-4,-4.251719E-3,2.6765051E-3,5.8954903E-3,3.1604348E-3,-1.0099453E-3],"categories":[],"categories_nodes":[],"categories_segments":[],"categories_sizes":[],"default_left":[0,0,0,0,0,0,0,0,0,0,0,0,0,0,0,0,0,0,0,0,0,0,0,0,0,0,0,0,0,0,0,0,0,0,0,0,0,0,0,0,0,0,0,0,0,0,0,0,0,0,0,0,0,0,0,0,0,0,0],"id":6,"left_children":[1,3,5,-1,7,9,11,13,15,17,19,21,-1,23,25,27,29,31,-1,33,35,37,39,41,-1,43,-1,45,47,49,-1,-1,-1,-1,-1,51,53,-1,55,-1,57,-1,-1,-1,-1,-1,-1,-1,-1,-1,-1,-1,-1,-1,-1,-1,-1,-1,-1],"loss_changes":[1.336398E3,2.1867688E2,1.6224457E2,0E0,8.196291E1,1.702111E1,3.594763E1,1.2235138E1,1.24254875E1,6.0291233E0,6.92449E0,1.4816818E1,0E0,8.055862E0,8.5684395E0,7.8627796E0,6.2521114E0,5.994928E0,0E0,5.0358005E0,6.3204474E0,1.0420807E1,4.8563623E0,7.370117E0,0E0,7.1348495E0,0E0,5.889266E0,6.6553717E0,6.7287855E0,0E0,0E0,0E0,0E0,0E0,5.1619673E0,5.3105164E0,0E0,4.7330017E0,0E0,4.952739E0,0E0,0E0,0E0,0E0,0E0,0E0,0E0,0E0,0E0,0E0,0E0,0E0,0E0,0E0,0E0,0E0,0E0,0E0],"parents":[2147483647,0,0,1,1,2,2,4,4,5,5,6,6,7,7,8,8,9,9,10,10,11,11,13,13,14,14,15,15,16,16,17,17,19,19,20,20,21,21,22,22,23,23,25,25,27,27,28,28,29,29,35,35,36,36,38,38,40,40],"right_children":[2,4,6,-1,8,10,12,14,16,18,20,22,-1,24,26,28,30,32,-1,34,36,38,40,42,-1,44,-1,46,48,50,-1,-1,-1,-1,-1,52,54,-1,56,-1,58,-1,-1,-1,-1,-1,-1,-1,-1,-1,-1,-1,-1,-1,-1,-1,-1,-1,-1],"split_conditions":[7.996983E-2,-5.8153445E-1,1E0,-8.179751E-3,1E0,-3.0561143E-1,9.311606E-1,-1.560136E-1,3.620593E-1,-6.418608E-2,-2.4317129E-1,5.830491E-1,7.873534E-3,1.78116E-2,9.57049E-1,1.0729309E-1,1.3235102E0,-3.40202E-1,6.442099E-3,-6.159517E-1,-6.8889767E-1,5.3919286E-1,3.1372022E-2,-3.969536E-1,-6.5670772E-3,9.647542E-1,-5.914994E-3,-8.055976E-1,-6.699438E-1,-4.2377487E-1,6.0908063E-3,3.4591104E-3,-9.3556667E-4,-3.6234886E-3,1.899937E-3,-6.9066256E-1,2.8267652E-1,6.6527394E-3,6.117646E-1,4.8412536E-3,1.2726784E0,-1.4394231E-3,-4.80453E-3,-3.2050835E-3,-4.7392136E-4,4.2553577E-3,-6.698847E-4,-6.6902284E-3,1.0888755E-3,-1.0766282E-3,2.5029804E-3,-2.5555268E-3,4.6874885E-3,-9.3631394E-4,-4.251719E-3,2.6765051E-3,5.8954903E-3,3.1604348E-3,-1.0099453E-3],"split_indices":[1,0,3,0,3,33,0,1,33,4,37,33,0,39,34,11,35,4,0,34,15,6,6,6,0,33,0,26,22,37,0,0,0,0,0,24,21,0,4,0,33,0,0,0,0,0,0,0,0,0,0,0,0,0,0,0,0,0,0],"split_type":[0,0,0,0,0,0,0,0,0,0,0,0,0,0,0,0,0,0,0,0,0,0,0,0,0,0,0,0,0,0,0,0,0,0,0,0,0,0,0,0,0,0,0,0,0,0,0,0,0,0,0,0,0,0,0,0,0,0,0],"sum_hessian":[4.0854036E3,2.190663E3,1.8947405E3,8.212538E2,1.3694092E3,4.4498508E2,1.4497554E3,9.024188E2,4.669904E2,1.454943E2,2.9949078E2,6.149402E2,8.348152E2,4.909426E2,4.1147623E2,2.5499527E2,2.1199512E2,1.1299711E2,3.249718E1,1.1399697E2,1.8549382E2,4.8494275E2,1.2999742E2,3.294679E2,1.6147472E2,3.494818E2,6.1994404E1,2.1549777E2,3.9497498E1,1.874961E2,2.4499027E1,8.0498085E1,3.249902E1,1.3999593E1,9.9997375E1,3.149971E1,1.5399411E2,3.35953E2,1.4898976E2,4.3997776E1,8.599965E1,6.0497013E1,2.689709E2,2.4748378E2,1.0199803E2,1.9999704E1,1.9549808E2,2.7997639E1,1.1499857E1,5.5999065E1,1.3149702E2,1.1499958E1,1.9999752E1,9.449675E1,5.949736E1,9.349665E1,5.5493114E1,4.7499798E1,3.8499847E1],"tree_param":{"num_deleted":"0","num_feature":"40","num_nodes":"59","size_leaf_vector":"1"}},{"base_weights":[-2.0149026E-2,5.57314E-1,-1.2043678E-1,-9.0974255E-4,1.3057722E-2,-2.1289152E-1,4.0479606E-1,-2.5116366E-3,2.8877738E-3,1.0201792E-2,-1.7917713E-3],"categories":[],"categories_nodes":[],"categories_segments":[],"categories_sizes":[],"default_left":[0,0,0,0,0,0,0,0,0,0,0],"id":7,"left_children":[1,3,5,-1,-1,7,9,-1,-1,-1,-1],"loss_changes":[8.479928E0,1.3716057E1,6.0786242E0,0E0,0E0,4.487681E0,8.908919E0,0E0,0E0,0E0,0E0],"parents":[2147483647,0,0,1,1,2,2,5,5,6,6],"right_children":[2,4,6,-1,-1,8,10,-1,-1,-1,-1],"split_conditions":[-5.799622E-1,2.9570142E-2,9.805363E-1,-9.0974255E-4,1.3057722E-2,1.1853802E0,4.1971734E-1,-2.5116366E-3,2.8877738E-3,1.0201792E-2,-1.7917713E-3],"split_indices":[35,36,24,0,0,39,12,0,0,0,0],"split_type":[0,0,0,0,0,0,0,0,0,0,0],"sum_hessian":[1.4670941E2,2.1545792E1,1.2516363E2,1.2702571E1,8.84322E0,1.06585144E2,1.8578484E1,9.357222E1,1.3012923E1,8.21712E0,1.0361364E1],"tree_param":{"num_deleted":"0","num_feature":"40","num_nodes":"11","size_leaf_vector":"1"}},{"base_weights":[1.5661216E-3,5.711286E-1,-5.578921E-1,8.225503E-3,3.176471E-1,-4.3825716E-2,-7.3311716E-1,4.879067E-1,-3.353767E-2,-2.5543222E-1,1.6000824E-1,-5.2613E-1,-7.852497E-3,5.909699E-1,3.5191718E-1,1.2010938E-1,-2.139918E-1,-1.9816825E-1,-7.2437087E-3,-2.2060009E-2,2.7399912E-1,-6.3253933E-1,-2.4018349E-1,2.712087E-1,6.6101944E-1,2.703151E-1,6.190126E-1,-4.2090146E-3,1.84658E-1,-2.73311E-1,3.115403E-3,-2.8886306E-1,3.439535E-3,-3.7765598E-3,1.243098E-3,3.1722332E-3,-7.397671E-4,-7.0180917E-1,-4.6198443E-1,-4.9978364E-3,-1.1018727E-1,6.9535006E-4,4.8189536E-3,5.915355E-3,-2.3772693E-3,3.1105364E-3,-0E0,-3.137038E-4,6.1109015E-3,-5.493729E-3,1.951233E-3,2.3550303E-3,-2.7918557E-3,-4.47531E-3,-1.3303158E-3,-1.5373094E-3,-6.3797096E-3,-2.366945E-3,-5.617299E-3,2.4054735E-3,-1.8362299E-3],"categories":[],"categories_nodes":[],"categories_segments":[],"categories_sizes":[],"default_left":[0,0,0,0,0,0,0,0,0,0,0,0,0,0,0,0,0,0,0,0,0,0,0,0,0,0,0,0,0,0,0,0,0,0,0,0,0,0,0,0,0,0,0,0,0,0,0,0,0,0,0,0,0,0,0,0,0,0,0,0,0],"id":8,"left_children":[1,3,5,-1,7,9,11,13,15,17,19,21,-1,23,25,27,29,31,-1,33,35,37,39,41,43,45,47,-1,49,51,-1,53,-1,-1,-1,-1,-1,55,57,-1,59,-1,-1,-1,-1,-1,-1,-1,-1,-1,-1,-1,-1,-1,-1,-1,-1,-1,-1,-1,-1],"loss_changes":[1.3075323E3,1.9470618E2,1.86406E2,0E0,7.282249E1,2.2715933E1,5.5119873E1,1.1410828E1,1.1028858E1,8.506529E0,5.579941E0,2.1321213E1,0E0,1.0360794E1,7.6420937E0,8.378063E0,6.2297974E0,1.2713325E1,0E0,7.0820603E0,5.480426E0,5.942932E0,8.304043E0,4.527876E0,7.7381744E0,6.509943E0,4.705534E0,0E0,6.4181447E0,4.430381E0,0E0,6.24666E0,0E0,0E0,0E0,0E0,0E0,6.4742126E0,5.14377E0,0E0,5.44432E0,0E0,0E0,0E0,0E0,0E0,0E0,0E0,0E0,0E0,0E0,0E0,0E0,0E0,0E0,0E0,0E0,0E0,0E0,0E0,0E0],"parents":[2147483647,0,0,1,1,2,2,4,4,5,5,6,6,7,7,8,8,9,9,10,10,11,11,13,13,14,14,15,15,16,16,17,17,19,19,20,20,21,21,22,22,23,23,24,24,25,25,26,26,28,28,29,29,31,31,37,37,38,38,40,40],"right_children":[2,4,6,-1,8,10,12,14,16,18,20,22,-1,24,26,28,30,32,-1,34,36,38,40,42,44,46,48,-1,50,52,-1,54,-1,-1,-1,-1,-1,56,58,-1,60,-1,-1,-1,-1,-1,-1,-1,-1,-1,-1,-1,-1,-1,-1,-1,-1,-1,-1,-1,-1],"split_conditions":[-1.0832267E-2,-5.8153445E-1,1E0,8.225503E-3,1E0,-7.5938806E-2,9.311606E-1,-1.6907437E-1,1.6888036E-1,9.311606E-1,1.4955732E-1,5.830491E-1,-7.852497E-3,-3.969536E-1,7.2597057E-1,-8.055976E-1,6.6732335E-1,6.932578E-1,-7.2437087E-3,-4.3548462E-1,1.4846857E0,5.3919286E-1,1.260795E-2,-1.6647185E-1,1.1861081E0,9.647542E-1,-1.4584245E-1,-4.2090146E-3,-8.6461174E-1,-1.1334877E0,3.115403E-3,2.3113541E-1,3.439535E-3,-3.7765598E-3,1.243098E-3,3.1722332E-3,-7.397671E-4,7.996983E-2,3.7353683E-1,-4.9978364E-3,-1.9580962E-1,6.9535006E-4,4.8189536E-3,5.915355E-3,-2.3772693E-3,3.1105364E-3,-0E0,-3.137038E-4,6.1109015E-3,-5.493729E-3,1.951233E-3,2.3550303E-3,-2.7918557E-3,-4.47531E-3,-1.3303158E-3,-1.5373094E-3,-6.3797096E-3,-2.366945E-3,-5.617299E-3,2.4054735E-3,-1.8362299E-3],"split_indices":[1,0,3,0,3,33,0,1,33,0,6,33,0,6,34,26,11,2,0,36,39,6,2,39,35,33,6,0,8,38,0,6,0,0,0,0,0,1,4,0,13,0,0,0,0,0,0,0,0,0,0,0,0,0,0,0,0,0,0,0,0],"split_type":[0,0,0,0,0,0,0,0,0,0,0,0,0,0,0,0,0,0,0,0,0,0,0,0,0,0,0,0,0,0,0,0,0,0,0,0,0,0,0,0,0,0,0,0,0,0,0,0,0,0,0,0,0,0,0,0,0,0,0,0,0],"sum_hessian":[4.103197E3,2.0332944E3,2.0699023E3,8.159996E2,1.2172948E3,5.2631714E2,1.5435851E3,8.199294E2,3.9736545E2,2.583808E2,2.6793637E2,7.0299817E2,8.405869E2,4.6597055E2,3.5395883E2,2.1444572E2,1.8291972E2,2.3539981E2,2.2980982E1,1.0297179E2,1.6496458E2,5.120868E2,1.909114E2,8.398982E1,3.819807E2,2.71465E2,8.249384E1,2.0490625E1,1.9395511E2,1.6592249E2,1.6997242E1,2.0440553E2,3.099427E1,2.9489885E1,7.34819E1,1.3147485E2,3.3489723E1,3.6368698E2,1.483998E2,5.296631E1,1.379451E2,5.0491722E1,3.34981E1,3.734815E2,8.499221E0,2.0447981E2,6.698519E1,9.499156E0,7.299469E1,8.996777E0,1.8495833E2,1.3494908E1,1.5242758E2,7.596336E1,1.2844217E2,2.2491657E1,3.4119534E2,7.39604E1,7.443939E1,2.8490973E1,1.09454124E2],"tree_param":{"num_deleted":"0","num_feature":"40","num_nodes":"61","size_leaf_vector":"1"}},{"base_weights":[-3.3942328E-3,-5.2651805E-1,6.032937E-1,-8.089241E-3,-2.8446874E-1,7.878096E-2,7.646319E-1,-4.5856905E-1,4.4349942E-2,3.7896568E-1,-7.6280184E-2,5.775181E-1,7.825555E-3,-5.284077E-1,-2.64362E-1,-9.152592E-2,2.216279E-1,2.4022534E-3,6.60921E-3,4.5885947E-2,-3.0211115E-1,6.613342E-1,2.7484438E-1,-4.388527E-1,-6.9384134E-1,-4.481889E-3,-1.4854623E-1,1.5459017E-2,-5.0359416E-1,-1.3915929E-1,3.2691422E-1,3.1883895E-1,-1.0584958E-1,4.42869E-3,-3.4282443E-3,6.319673E-3,3.933108E-1,5.041482E-3,1.1510341E-3,-1.1580653E-3,-4.2274226E-3,-6.642599E-3,-2.0643477E-3,-4.7501978E-3,-5.02195E-4,-3.505903E-4,3.4911977E-3,1.6823483E-3,-5.7067843E-3,4.597579E-3,-3.027995E-3,3.7124397E-3,-3.1110207E-3,5.6983405E-3,4.2246137E-4,-2.2938654E-3,2.9316032E-3,2.0037878E-3,6.1238804E-3],"categories":[],"categories_nodes":[],"categories_segments":[],"categories_sizes":[],"default_left":[0,0,0,0,0,0,0,0,0,0,0,0,0,0,0,0,0,0,0,0,0,0,0,0,0,0,0,0,0,0,0,0,0,0,0,0,0,0,0,0,0,0,0,0,0,0,0,0,0,0,0,0,0,0,0,0,0,0,0],"id":9,"left_children":[1,3,5,-1,7,9,11,13,15,17,19,21,-1,23,25,27,29,-1,-1,31,33,35,37,39,41,-1,43,45,47,49,51,53,55,-1,-1,-1,57,-1,-1,-1,-1,-1,-1,-1,-1,-1,-1,-1,-1,-1,-1,-1,-1,-1,-1,-1,-1,-1,-1],"loss_changes":[1.2948375E3,2.1565375E2,1.5979358E2,0E0,7.868173E1,2.0716097E1,3.723944E1,1.21197815E1,1.1466131E1,5.830017E0,8.104004E0,1.550882E1,0E0,9.680649E0,6.918705E0,1.1895496E1,7.864254E0,0E0,0E0,7.890241E0,7.846366E0,8.646576E0,5.768175E0,6.360237E0,7.577156E0,0E0,5.878928E0,4.6515574E0,6.0506535E0,6.5661864E0,1.1158897E1,6.179385E0,8.61625E0,0E0,0E0,0E0,4.878397E0,0E0,0E0,0E0,0E0,0E0,0E0,0E0,0E0,0E0,0E0,0E0,0E0,0E0,0E0,0E0,0E0,0E0,0E0,0E0,0E0,0E0,0E0],"parents":[2147483647,0,0,1,1,2,2,4,4,5,5,6,6,7,7,8,8,9,9,10,10,11,11,13,13,14,14,15,15,16,16,19,19,20,20,21,21,22,22,23,23,24,24,26,26,27,27,28,28,29,29,30,30,31,31,32,32,36,36],"right_children":[2,4,6,-1,8,10,12,14,16,18,20,22,-1,24,26,28,30,-1,-1,32,34,36,38,40,42,-1,44,46,48,50,52,54,56,-1,-1,-1,58,-1,-1,-1,-1,-1,-1,-1,-1,-1,-1,-1,-1,-1,-1,-1,-1,-1,-1,-1,-1,-1,-1],"split_conditions":[7.996983E-2,-5.8153445E-1,1E0,-8.089241E-3,1E0,-3.0561143E-1,9.311606E-1,6.535111E-1,-4.47872E-1,-2.7911103E-4,6.4448905E-1,5.830491E-1,7.825555E-3,2.2644432E-1,-6.883696E-1,1.6080473E-1,-1.6068542E-1,2.4022534E-3,6.60921E-3,2.1341573E-1,6.837947E-2,5.9396225E-1,2.394254E-2,-3.969536E-1,-5.954242E-2,-4.481889E-3,-1.7392598E-1,7.5394225E-1,-7.0076674E-1,-1.3738945E-1,-3.6537825E-4,1.03426725E-1,1.0081848E0,4.42869E-3,-3.4282443E-3,6.319673E-3,6.117646E-1,5.041482E-3,1.1510341E-3,-1.1580653E-3,-4.2274226E-3,-6.642599E-3,-2.0643477E-3,-4.7501978E-3,-5.02195E-4,-3.505903E-4,3.4911977E-3,1.6823483E-3,-5.7067843E-3,4.597579E-3,-3.027995E-3,3.7124397E-3,-3.1110207E-3,5.6983405E-3,4.2246137E-4,-2.2938654E-3,2.9316032E-3,2.0037878E-3,6.1238804E-3],"split_indices":[1,0,3,0,3,33,0,33,31,4,33,33,0,31,4,11,1,0,0,2,32,6,6,6,1,0,1,34,35,4,6,38,22,0,0,0,4,0,0,0,0,0,0,0,0,0,0,0,0,0,0,0,0,0,0,0,0,0,0],"split_type":[0,0,0,0,0,0,0,0,0,0,0,0,0,0,0,0,0,0,0,0,0,0,0,0,0,0,0,0,0,0,0,0,0,0,0,0,0,0,0,0,0,0,0,0,0,0,0,0,0,0,0,0,0,0,0,0,0,0,0],"sum_hessian":[4.0796814E3,2.1907783E3,1.8889032E3,8.1697095E2,1.3738073E3,4.4447192E2,1.4444312E3,8.983283E2,4.7547897E2,1.5148721E2,2.929847E2,6.14358E2,8.3007324E2,6.603526E2,2.3797571E2,2.689885E2,2.064905E2,1.1999312E2,3.1494099E1,1.8999326E2,1.0299147E2,4.8086438E2,1.3349362E2,4.2891907E2,2.3143353E2,7.4488365E1,1.6348734E2,2.1349445E2,5.5494038E1,4.6498466E1,1.5999202E2,6.799785E1,1.219954E2,1.04997635E1,9.249171E1,3.833778E2,9.748657E1,4.1994846E1,9.149877E1,5.9495377E1,3.6942368E2,1.9943727E2,3.1996273E1,2.9993294E1,1.3349405E2,1.8649513E2,2.6999308E1,9.999797E0,4.549424E1,1.099945E1,3.5499016E1,1.3949242E2,2.0499607E1,2.9998842E1,3.799901E1,8.9997E1,3.1998402E1,6.449586E1,3.2990715E1],"tree_param":{"num_deleted":"0","num_feature":"40","num_nodes":"59","size_leaf_vector":"1"}},{"base_weights":[7.6143052E-3,6.353339E-1,-9.713399E-2,5.733619E-4,1.2163519E-2,-1.5285757E-1,5.6279614E-3,5.1833964E-3,-1.8746754E-3],"categories":[],"categories_nodes":[],"categories_segments":[],"categories_sizes":[],"default_left":[0,0,0,0,0,0,0,0,0],"id":10,"left_children":[1,3,5,-1,-1,7,-1,-1,-1],"loss_changes":[9.667783E0,9.093291E0,5.1962624E0,0E0,0E0,5.5583534E0,0E0,0E0,0E0],"parents":[2147483647,0,0,1,1,2,2,5,5],"right_children":[2,4,6,-1,-1,8,-1,-1,-1],"split_conditions":[-7.873187E-1,2.9570142E-2,1.2609313E0,5.733619E-4,1.2163519E-2,-8.499559E-1,5.6279614E-3,5.1833964E-3,-1.8746754E-3],"split_indices":[15,36,29,0,0,4,0,0,0],"split_type":[0,0,0,0,0,0,0,0,0],"sum_hessian":[1.463055E2,2.0941166E1,1.2536433E2,1.2138838E1,8.802328E0,1.16811E2,8.553328E0,8.956153E0,1.0785484E2],"tree_param":{"num_deleted":"0","num_feature":"40","num_nodes":"9","size_leaf_vector":"1"}},{"base_weights":[6.373224E-4,5.6871915E-1,-5.56303E-1,8.177538E-3,3.1522366E-1,-5.081749E-2,-7.3265266E-1,4.747335E-1,-1.7404871E-2,-3.5749733E-1,1.2134979E-1,-5.3432757E-1,-7.7947224E-3,3.9255357E-1,6.172211E-1,-8.763288E-2,3.8549518E-3,-3.0076846E-1,-8.266402E-3,1.96117E-1,-1.3114553E-3,-6.3310874E-1,-2.6537797E-1,3.0325967E-1,5.310126E-1,5.9587974E-3,1.66914E-1,8.023781E-2,-2.6869458E-1,-3.3403032E-3,1.1676536E-3,3.7446782E-2,3.302025E-1,-6.8286836E-1,-3.68744E-1,-5.219297E-3,-9.7487554E-2,3.1190019E-3,-1.0098567E-4,5.860326E-3,2.6754434E-3,3.4426416E-3,-2.971562E-3,-4.427534E-3,1.2649364E-3,6.984087E-4,-3.3258884E-3,-2.083065E-3,1.76166E-3,4.965662E-4,4.3981685E-3,-2.409641E-3,-6.1833123E-3,-1.5305544E-3,-6.0226447E-3,3.6020284E-3,-1.6182148E-3],"categories":[],"categories_nodes":[],"categories_segments":[],"categories_sizes":[],"default_left":[0,0,0,0,0,0,0,0,0,0,0,0,0,0,0,0,0,0,0,0,0,0,0,0,0,0,0,0,0,0,0,0,0,0,0,0,0,0,0,0,0,0,0,0,0,0,0,0,0,0,0,0,0,0,0,0,0],"id":11,"left_children":[1,3,5,-1,7,9,11,13,15,17,19,21,-1,23,25,27,-1,29,-1,31,-1,33,35,37,39,-1,41,43,45,-1,-1,47,49,51,53,-1,55,-1,-1,-1,-1,-1,-1,-1,-1,-1,-1,-1,-1,-1,-1,-1,-1,-1,-1,-1,-1],"loss_changes":[1.2953479E3,1.9248773E2,1.8422888E2,0E0,6.419953E1,2.826199E1,5.0538757E1,9.483322E0,1.2703243E1,6.4008675E0,6.988562E0,1.8532059E1,0E0,6.347046E0,9.390068E0,1.0362748E1,0E0,6.510193E0,0E0,5.6984653E0,0E0,6.6415405E0,1.0608293E1,5.659853E0,6.4697113E0,0E0,4.78325E0,6.841835E0,6.6142874E0,0E0,0E0,5.694084E0,7.0033054E0,5.2487335E0,5.040325E0,0E0,5.7634187E0,0E0,0E0,0E0,0E0,0E0,0E0,0E0,0E0,0E0,0E0,0E0,0E0,0E0,0E0,0E0,0E0,0E0,0E0,0E0,0E0],"parents":[2147483647,0,0,1,1,2,2,4,4,5,5,6,6,7,7,8,8,9,9,10,10,11,11,13,13,14,14,15,15,17,17,19,19,21,21,22,22,23,23,24,24,26,26,27,27,28,28,31,31,32,32,33,33,34,34,36,36],"right_children":[2,4,6,-1,8,10,12,14,16,18,20,22,-1,24,26,28,-1,30,-1,32,-1,34,36,38,40,-1,42,44,46,-1,-1,48,50,52,54,-1,56,-1,-1,-1,-1,-1,-1,-1,-1,-1,-1,-1,-1,-1,-1,-1,-1,-1,-1,-1,-1],"split_conditions":[-1.0832267E-2,-5.8153445E-1,1E0,8.177538E-3,1E0,-2.4240762E-1,9.311606E-1,1.3054563E-1,1.3152087E-1,1.0520376E0,0E0,5.830491E-1,-7.7947224E-3,2.2530112E-1,-5.954242E-2,1.5221706E-1,3.8549518E-3,6.342612E-1,-8.266402E-3,4.7471547E-1,-1.3114553E-3,6.287852E-1,-1.9702585E-2,8.240773E-1,6.758953E-1,5.9587974E-3,4.7624394E-1,-8.055976E-1,-5.5698246E-1,-3.3403032E-3,1.1676536E-3,2.1341573E-1,1.4955732E-1,-7.002204E-1,6.117646E-1,-5.219297E-3,7.996983E-2,3.1190019E-3,-1.0098567E-4,5.860326E-3,2.6754434E-3,3.4426416E-3,-2.971562E-3,-4.427534E-3,1.2649364E-3,6.984087E-4,-3.3258884E-3,-2.083065E-3,1.76166E-3,4.965662E-4,4.3981685E-3,-2.409641E-3,-6.1833123E-3,-1.5305544E-3,-6.0226447E-3,3.6020284E-3,-1.6182148E-3],"split_indices":[1,0,3,0,3,33,0,31,11,2,5,33,0,11,1,33,0,2,0,33,0,6,6,15,11,0,10,26,37,0,0,2,6,22,4,0,1,0,0,0,0,0,0,0,0,0,0,0,0,0,0,0,0,0,0,0,0],"split_type":[0,0,0,0,0,0,0,0,0,0,0,0,0,0,0,0,0,0,0,0,0,0,0,0,0,0,0,0,0,0,0,0,0,0,0,0,0,0,0,0,0,0,0,0,0,0,0,0,0,0,0,0,0,0,0,0,0],"sum_hessian":[4.0939807E3,2.0267755E3,2.067205E3,8.1745575E2,1.2093198E3,5.3479034E2,1.5324148E3,8.17465E2,3.9185477E2,1.9238037E2,3.4240994E2,7.002969E2,8.321179E2,5.189748E2,2.9849023E2,3.4036188E2,5.149288E1,1.7590425E2,1.6476128E1,2.689356E2,7.3474335E1,5.11905E2,1.8839188E2,3.1598157E2,2.0299324E2,2.5799414E2,4.0496094E1,1.7645483E2,1.6390704E2,1.4741162E2,2.8492622E1,1.23457214E2,1.454784E2,4.3047574E2,8.142925E1,6.2449375E1,1.25942505E2,2.6798608E2,4.7995472E1,1.2249675E2,8.049649E1,2.7997498E1,1.2498597E1,1.748837E1,1.5896646E2,4.0482204E1,1.2342485E2,4.598284E1,7.747437E1,5.748573E1,8.799266E1,3.0468748E1,4.00007E2,5.1465557E1,2.9963697E1,1.8495064E1,1.0744744E2],"tree_param":{"num_deleted":"0","num_feature":"40","num_nodes":"57","size_leaf_vector":"1"}},{"base_weights":[2.0740596E-3,-5.2443063E-1,6.048673E-1,-8.7177914E-1,-2.8887555E-1,8.463357E-2,7.603516E-1,-7.873777E-3,-1.7645015E-1,-4.7439894E-1,1.4857787E-2,3.3832517E-1,-1.0529485E-1,5.824297E-1,7.792359E-3,1.1651267E-3,-5.5139875E-3,-6.150434E-1,-3.1927583E-1,-1.4894815E-1,1.5075502E-1,2.7064875E-1,7.951726E-3,-1.9652198E-1,1.4181938E-3,6.56659E-1,2.9977468E-1,-5.3656375E-1,-6.854032E-3,-4.7122636E-3,-2.0795286E-1,-4.2473376E-2,-3.8432282E-1,-3.641079E-2,2.843661E-1,3.7097326E-1,-1.9170068E-3,3.1539953E-1,-2.64911E-1,6.370819E-3,4.9292973E-1,5.1610027E-3,1.2333019E-3,-6.1556804E-3,-3.8265148E-3,-3.3451999E-3,-3.1246743E-4,6.4447307E-4,-3.9652768E-3,1.7230896E-3,-4.450201E-3,-4.964404E-3,8.1218954E-4,4.534553E-5,3.5298292E-3,2.5939737E-3,7.123655E-3,-2.4898895E-3,7.118126E-3,-2.6686965E-3,4.497419E-3,3.6805086E-5,4.9317414E-3],"categories":[],"categories_nodes":[],"categories_segments":[],"categories_sizes":[],"default_left":[0,0,0,0,0,0,0,0,0,0,0,0,0,0,0,0,0,0,0,0,0,0,0,0,0,0,0,0,0,0,0,0,0,0,0,0,0,0,0,0,0,0,0,0,0,0,0,0,0,0,0,0,0,0,0,0,0,0,0,0,0,0,0],"id":12,"left_children":[1,3,5,7,9,11,13,-1,15,17,19,21,23,25,-1,-1,-1,27,29,31,33,35,-1,37,-1,39,41,43,-1,-1,45,47,49,51,53,55,-1,57,59,-1,61,-1,-1,-1,-1,-1,-1,-1,-1,-1,-1,-1,-1,-1,-1,-1,-1,-1,-1,-1,-1,-1,-1],"loss_changes":[1.3011923E3,1.7894952E2,1.5455658E2,2.2500977E1,7.352682E1,2.1221813E1,3.6185425E1,0E0,6.4144845E0,1.7587967E1,1.1011137E1,7.289179E0,6.177522E0,1.3457397E1,0E0,0E0,0E0,5.727249E0,9.572567E0,5.586021E0,6.7833652E0,8.361114E0,0E0,6.5895553E0,0E0,6.4444733E0,6.210682E0,4.7473907E0,0E0,0E0,7.8686886E0,7.524949E0,5.272149E0,7.894749E0,5.3969584E0,4.446125E0,0E0,6.796033E0,5.6020594E0,0E0,6.138397E0,0E0,0E0,0E0,0E0,0E0,0E0,0E0,0E0,0E0,0E0,0E0,0E0,0E0,0E0,0E0,0E0,0E0,0E0,0E0,0E0,0E0,0E0],"parents":[2147483647,0,0,1,1,2,2,3,3,4,4,5,5,6,6,8,8,9,9,10,10,11,11,12,12,13,13,17,17,18,18,19,19,20,20,21,21,23,23,25,25,26,26,27,27,30,30,31,31,32,32,33,33,34,34,35,35,37,37,38,38,40,40],"right_children":[2,4,6,8,10,12,14,-1,16,18,20,22,24,26,-1,-1,-1,28,30,32,34,36,-1,38,-1,40,42,44,-1,-1,46,48,50,52,54,56,-1,58,60,-1,62,-1,-1,-1,-1,-1,-1,-1,-1,-1,-1,-1,-1,-1,-1,-1,-1,-1,-1,-1,-1,-1,-1],"split_conditions":[7.996983E-2,-4.641865E-1,1E0,-2.2737247E-1,0E0,-2.4240762E-1,8.459946E-1,-7.873777E-3,1.4784871E-1,-1.560136E-1,1.3981877E-1,9.708786E-1,0E0,5.830491E-1,7.792359E-3,1.1651267E-3,-5.5139875E-3,3.1611033E-2,-6.7003506E-1,-9.84803E-2,1.5903081E-1,6.342612E-1,7.951726E-3,9.011236E-2,1.4181938E-3,5.3919286E-1,3.1372022E-2,-3.0141872E-1,-6.854032E-3,-4.7122636E-3,6.3092977E-1,-2.3344304E-1,-4.9954242E-1,-3.0229786E-1,-6.06771E-1,2.4337487E-2,-1.9170068E-3,-2.2514544E-1,1.93511E0,6.370819E-3,-8.9248365E-1,5.1610027E-3,1.2333019E-3,-6.1556804E-3,-3.8265148E-3,-3.3451999E-3,-3.1246743E-4,6.4447307E-4,-3.9652768E-3,1.7230896E-3,-4.450201E-3,-4.964404E-3,8.1218954E-4,4.534553E-5,3.5298292E-3,2.5939737E-3,7.123655E-3,-2.4898895E-3,7.118126E-3,-2.6686965E-3,4.497419E-3,3.6805086E-5,4.9317414E-3],"split_indices":[1,32,3,12,5,33,32,0,22,1,33,2,5,33,0,0,0,31,4,11,4,2,0,32,0,6,6,10,0,0,33,6,10,39,31,4,0,10,14,0,14,0,0,0,0,0,0,0,0,0,0,0,0,0,0,0,0,0,0,0,0,0,0],"split_type":[0,0,0,0,0,0,0,0,0,0,0,0,0,0,0,0,0,0,0,0,0,0,0,0,0,0,0,0,0,0,0,0,0,0,0,0,0,0,0,0,0,0,0,0,0,0,0,0,0,0,0,0,0,0,0,0,0,0,0,0,0,0,0],"sum_hessian":[4.099664E3,2.188255E3,1.9114089E3,8.8406824E2,1.3041866E3,4.3995163E2,1.4714574E3,8.395807E2,4.4487534E1,8.097462E2,4.9444043E2,1.8847287E2,2.5147876E2,6.4521356E2,8.262438E2,2.649765E1,1.7989883E1,4.2431833E2,3.8542786E2,2.2397565E2,2.7046478E2,1.6898488E2,1.9487986E1,1.8798222E2,6.3496536E1,5.107273E2,1.344863E2,2.9389844E2,1.3041988E2,1.2746335E2,2.579645E2,1.5448637E2,6.948927E1,1.1248019E2,1.5798459E2,1.4048645E2,2.8498426E1,2.1998674E1,1.6598354E2,3.447952E2,1.659321E2,4.6489136E1,8.799716E1,1.0346294E2,1.904355E2,1.2647298E2,1.3149155E2,1.2049165E2,3.399472E1,1.2499102E1,5.6990173E1,2.199235E1,9.048783E1,4.849651E1,1.0948808E2,1.2148969E2,1.8996763E1,9.999453E0,1.1999223E1,1.5748405E2,8.49949E0,2.249371E1,1.4343839E2],"tree_param":{"num_deleted":"0","num_feature":"40","num_nodes":"63","size_leaf_vector":"1"}},{"base_weights":[-3.50395E-4,5.047726E-1,-1.2342952E-1,-1.1124975E-3,1.14889005E-2,-2.4181029E-1,4.9069318E-1,-2.788507E-3,3.262865E-3,9.330808E-3,-2.1986684E-3],"categories":[],"categories_nodes":[],"categories_segments":[],"categories_sizes":[],"default_left":[0,0,0,0,0,0,0,0,0,0,0],"id":13,"left_children":[1,3,5,-1,-1,7,9,-1,-1,-1,-1],"loss_changes":[9.119683E0,1.5018908E1,8.601386E0,0E0,0E0,4.9215846E0,8.400329E0,0E0,0E0,0E0,0E0],"parents":[2147483647,0,0,1,1,2,2,5,5,6,6],"right_children":[2,4,6,-1,-1,8,10,-1,-1,-1,-1],"split_conditions":[-4.4653586E-1,2.9570142E-2,9.666795E-1,-1.1124975E-3,1.14889005E-2,1.1853802E0,6.0613535E-2,-2.788507E-3,3.262865E-3,9.330808E-3,-2.1986684E-3],"split_indices":[16,36,24,0,0,39,6,0,0,0,0],"split_type":[0,0,0,0,0,0,0,0,0,0,0],"sum_hessian":[1.4689493E2,2.8615974E1,1.1827895E2,1.6157087E1,1.2458886E1,9.9303215E1,1.8975735E1,8.8069435E1,1.1233782E1,1.06426325E1,8.333102E0],"tree_param":{"num_deleted":"0","num_feature":"40","num_nodes":"11","size_leaf_vector":"1"}},{"base_weights":[2.4725788E-3,5.619866E-1,-5.3192335E-1,8.090478E-3,3.0449402E-1,-2.388198E-2,-7.200572E-1,5.058751E-1,-2.1574097E-2,-2.8294256E-1,1.3052885E-1,-5.1576835E-1,-7.715456E-3,5.6646395E-1,2.889314E-1,-8.673208E-2,3.693011E-1,-2.210184E-1,-7.423083E-3,1.8866904E-1,-1.0943211E-3,-6.219244E-1,-2.2407213E-1,4.7940004E-1,6.424398E-3,3.003113E-3,-3.8864673E-3,6.776217E-2,-2.3419185E-1,6.604242E-3,1.4741375E-3,-2.90996E-1,3.8944918E-3,9.7341207E-4,2.8383288E-1,-7.1801405E-5,-6.409643E-1,-4.9379566E-3,-1.1179525E-1,1.6384593E-3,4.500205E-3,-1.468003E-4,4.916781E-3,-2.508525E-3,2.5987593E-3,-5.241843E-3,-1.8175323E-3,-5.258095E-3,8.616161E-4,-5.135738E-5,3.3443673E-3,-5.9124716E-3,-3.1689222E-3,2.1176564E-3,-1.9946245E-3],"categories":[],"categories_nodes":[],"categories_segments":[],"categories_sizes":[],"default_left":[0,0,0,0,0,0,0,0,0,0,0,0,0,0,0,0,0,0,0,0,0,0,0,0,0,0,0,0,0,0,0,0,0,0,0,0,0,0,0,0,0,0,0,0,0,0,0,0,0,0,0,0,0,0,0],"id":14,"left_children":[1,3,5,-1,7,9,11,13,15,17,19,21,-1,23,25,27,29,31,-1,33,-1,35,37,39,-1,-1,-1,41,43,-1,-1,45,-1,47,49,-1,51,-1,53,-1,-1,-1,-1,-1,-1,-1,-1,-1,-1,-1,-1,-1,-1,-1,-1],"loss_changes":[1.2291017E3,1.9201196E2,2.0090326E2,0E0,7.79364E1,2.274926E1,5.320526E1,9.569962E0,1.1520346E1,7.4563923E0,5.3218822E0,2.153444E1,0E0,8.607437E0,6.8270597E0,8.861937E0,4.979388E0,9.0086355E0,0E0,5.1709023E0,0E0,5.9306946E0,7.1867533E0,4.377205E0,0E0,0E0,0E0,8.057863E0,5.8798227E0,0E0,0E0,4.3721285E0,0E0,5.840024E0,5.7196484E0,0E0,5.5374603E0,0E0,5.9488983E0,0E0,0E0,0E0,0E0,0E0,0E0,0E0,0E0,0E0,0E0,0E0,0E0,0E0,0E0,0E0,0E0],"parents":[2147483647,0,0,1,1,2,2,4,4,5,5,6,6,7,7,8,8,9,9,10,10,11,11,13,13,14,14,15,15,16,16,17,17,19,19,21,21,22,22,23,23,27,27,28,28,31,31,33,33,34,34,36,36,38,38],"right_children":[2,4,6,-1,8,10,12,14,16,18,20,22,-1,24,26,28,30,32,-1,34,-1,36,38,40,-1,-1,-1,42,44,-1,-1,46,-1,48,50,-1,52,-1,54,-1,-1,-1,-1,-1,-1,-1,-1,-1,-1,-1,-1,-1,-1,-1,-1],"split_conditions":[-2.5819806E-2,-5.8153445E-1,1E0,8.090478E-3,0E0,-2.094156E-1,9.311606E-1,6.3092977E-1,2.4636343E-1,8.783015E-1,0E0,5.830491E-1,-7.715456E-3,2.3175573E-1,5.2816826E-1,7.7887125E-2,6.0084677E-1,7.26359E-1,-7.423083E-3,7.3676016E-3,-1.0943211E-3,3.9475802E-2,1.260795E-2,-3.969536E-1,6.424398E-3,3.003113E-3,-3.8864673E-3,-1.8711661E-1,1.1862439E-1,6.604242E-3,1.4741375E-3,-6.9719124E-1,3.8944918E-3,-5.129916E-1,-5.40189E-1,-7.1801405E-5,6.932578E-1,-4.9379566E-3,-4.696424E-2,1.6384593E-3,4.500205E-3,-1.468003E-4,4.916781E-3,-2.508525E-3,2.5987593E-3,-5.241843E-3,-1.8175323E-3,-5.258095E-3,8.616161E-4,-5.135738E-5,3.3443673E-3,-5.9124716E-3,-3.1689222E-3,2.1176564E-3,-1.9946245E-3],"split_indices":[32,0,3,0,5,33,0,33,11,0,5,33,0,39,4,33,11,2,0,11,0,32,2,6,0,0,0,6,39,0,0,4,0,4,38,0,2,0,12,0,0,0,0,0,0,0,0,0,0,0,0,0,0,0,0],"split_type":[0,0,0,0,0,0,0,0,0,0,0,0,0,0,0,0,0,0,0,0,0,0,0,0,0,0,0,0,0,0,0,0,0,0,0,0,0,0,0,0,0,0,0,0,0,0,0,0,0,0,0,0,0,0,0],"sum_hessian":[4.110477E3,2.0081041E3,2.102373E3,8.2180475E2,1.1862994E3,5.6826764E2,1.5341053E3,7.334589E2,4.5284048E2,2.1234756E2,3.559201E2,6.9757336E2,8.365319E2,5.7297565E2,1.6048325E2,3.8834802E2,6.449247E1,1.9188202E2,2.0465538E1,2.9044376E2,6.547633E1,5.1119855E2,1.8637483E2,3.829835E2,1.8999216E2,1.4898912E2,1.1494128E1,1.894591E2,1.988889E2,2.1499607E1,4.2992867E1,1.7388469E2,1.799734E1,9.798073E1,1.9246303E2,1.5491983E1,4.9570654E2,4.5450348E1,1.4092448E2,4.6496235E1,3.3648727E2,1.6196207E2,2.749704E1,1.803924E2,1.8496517E1,3.5473537E1,1.3841115E2,1.3496401E1,8.448433E1,4.9988525E1,1.424745E2,4.3078116E2,6.4925385E1,3.498695E1,1.0593754E2],"tree_param":{"num_deleted":"0","num_feature":"40","num_nodes":"55","size_leaf_vector":"1"}},{"base_weights":[6.179252E-4,-5.16975E-1,5.967234E-1,-7.949079E-3,-2.7883974E-1,8.014538E-2,7.568005E-1,-4.5818436E-1,1.761986E-2,2.1154056E-1,-2.2108251E-1,5.7540506E-1,7.723567E-3,-5.737228E-1,-3.15602E-1,-1.14661284E-1,2.0107345E-1,1.6351976E-1,7.5732735E-3,3.154209E-3,-2.5960742E-3,6.5544677E-1,2.826503E-1,-3.0758784E-3,-6.414228E-1,-2.4079302E-1,-5.4334663E-3,1.1315927E-3,-1.9581525E-1,-7.535101E-2,2.7892852E-1,2.6724255E-1,-2.8287855E-1,6.420697E-3,4.4498265E-1,5.1329886E-3,1.1128732E-3,-6.4044935E-3,-4.378819E-3,-3.909729E-3,-1.2571127E-3,5.2646007E-3,-2.0411608E-3,1.9276751E-3,-3.7947958E-3,3.0663311E-3,-1.9022134E-3,-1.8585142E-3,2.8215637E-3,-4.8453487E-3,1.7124341E-3,2.473089E-3,6.121932E-3],"categories":[],"categories_nodes":[],"categories_segments":[],"categories_sizes":[],"default_left":[0,0,0,0,0,0,0,0,0,0,0,0,0,0,0,0,0,0,0,0,0,0,0,0,0,0,0,0,0,0,0,0,0,0,0,0,0,0,0,0,0,0,0,0,0,0,0,0,0,0,0,0,0],"id":15,"left_children":[1,3,5,-1,7,9,11,13,15,17,19,21,-1,23,25,27,29,31,-1,-1,-1,33,35,-1,37,39,-1,-1,41,43,45,47,49,-1,51,-1,-1,-1,-1,-1,-1,-1,-1,-1,-1,-1,-1,-1,-1,-1,-1,-1,-1],"loss_changes":[1.2622809E3,2.0859723E2,1.5717157E2,0E0,7.303587E1,1.7815985E1,3.5236755E1,1.4020248E1,1.2566892E1,9.890133E0,6.2761674E0,1.4406128E1,0E0,6.9086456E0,8.860168E0,5.9882646E0,4.6869097E0,1.3552597E1,0E0,0E0,0E0,8.611771E0,6.300605E0,0E0,4.668976E0,6.187502E0,0E0,0E0,7.1997595E0,5.1613607E0,6.3452053E0,6.6886177E0,7.345434E0,0E0,5.778967E0,0E0,0E0,0E0,0E0,0E0,0E0,0E0,0E0,0E0,0E0,0E0,0E0,0E0,0E0,0E0,0E0,0E0,0E0],"parents":[2147483647,0,0,1,1,2,2,4,4,5,5,6,6,7,7,8,8,9,9,10,10,11,11,13,13,14,14,15,15,16,16,17,17,21,21,22,22,24,24,25,25,28,28,29,29,30,30,31,31,32,32,34,34],"right_children":[2,4,6,-1,8,10,12,14,16,18,20,22,-1,24,26,28,30,32,-1,-1,-1,34,36,-1,38,40,-1,-1,42,44,46,48,50,-1,52,-1,-1,-1,-1,-1,-1,-1,-1,-1,-1,-1,-1,-1,-1,-1,-1,-1,-1],"split_conditions":[7.996983E-2,-5.8153445E-1,1E0,-7.949079E-3,0E0,2.9553202E-1,9.311606E-1,-1.560136E-1,3.620593E-1,1.024002E0,6.837947E-2,5.830491E-1,7.723567E-3,-3.390378E-1,8.172648E-1,-5.452867E-1,-6.06771E-1,6.719687E-1,7.5732735E-3,3.154209E-3,-2.5960742E-3,5.3919286E-1,3.1372022E-2,-3.0758784E-3,-2.1288799E-1,-6.7003506E-1,-5.4334663E-3,1.1315927E-3,-1.1257159E0,-3.490249E-1,1.1862439E-1,-7.311026E-1,9.675552E-1,6.420697E-3,6.117646E-1,5.1329886E-3,1.1128732E-3,-6.4044935E-3,-4.378819E-3,-3.909729E-3,-1.2571127E-3,5.2646007E-3,-2.0411608E-3,1.9276751E-3,-3.7947958E-3,3.0663311E-3,-1.9022134E-3,-1.8585142E-3,2.8215637E-3,-4.8453487E-3,1.7124341E-3,2.473089E-3,6.121932E-3],"split_indices":[1,0,3,0,5,33,0,1,33,0,32,33,0,6,34,34,31,2,0,0,0,6,6,0,0,4,0,0,15,10,39,24,30,0,4,0,0,0,0,0,0,0,0,0,0,0,0,0,0,0,0,0,0],"split_type":[0,0,0,0,0,0,0,0,0,0,0,0,0,0,0,0,0,0,0,0,0,0,0,0,0,0,0,0,0,0,0,0,0,0,0,0,0,0,0,0,0,0,0,0,0,0,0,0,0,0,0,0,0],"sum_hessian":[4.0909292E3,2.189612E3,1.9013171E3,8.1659894E2,1.3730132E3,4.499287E2,1.4513884E3,8.5558856E2,5.174246E2,3.134495E2,1.3647922E2,6.1809467E2,8.3329376E2,4.7219705E2,3.8339148E2,3.0045654E2,2.1696808E2,2.9246564E2,2.0983858E1,1.5999211E1,1.2048001E2,4.8511447E2,1.3298021E2,1.1194982E2,3.6024722E2,3.0942728E2,7.396421E1,7.449121E1,2.2596533E2,4.7495594E1,1.6947249E2,2.374738E2,5.499183E1,3.4468005E2,1.4043442E2,4.3983578E1,8.8996635E1,2.0934184E2,1.5090538E2,9.6461105E1,2.1296617E2,1.0499237E1,2.154661E2,2.5997593E1,2.1498E1,1.474759E2,2.1996582E1,2.5498919E1,2.1197488E2,3.4994923E1,1.9996906E1,8.747446E1,5.2959953E1],"tree_param":{"num_deleted":"0","num_feature":"40","num_nodes":"53","size_leaf_vector":"1"}},{"base_weights":[-5.089634E-3,5.2309954E-1,-9.5926866E-2,-8.8202505E-4,1.2372272E-2,-1.6647407E-3,4.3186307E-1,8.280876E-3,-2.1787947E-3],"categories":[],"categories_nodes":[],"categories_segments":[],"categories_sizes":[],"default_left":[0,0,0,0,0,0,0,0,0],"id":16,"left_children":[1,3,5,-1,-1,-1,7,-1,-1],"loss_changes":[7.000395E0,1.2190693E1,6.3412304E0,0E0,0E0,0E0,6.9405375E0,0E0,0E0],"parents":[2147483647,0,0,1,1,2,2,6,6],"right_children":[2,4,6,-1,-1,-1,8,-1,-1],"split_conditions":[-5.799622E-1,3.589921E-2,9.666795E-1,-8.8202505E-4,1.2372272E-2,-1.6647407E-3,6.0613535E-2,8.280876E-3,-2.1787947E-3],"split_indices":[35,36,24,0,0,0,6,0,0],"split_type":[0,0,0,0,0,0,0,0,0],"sum_hessian":[1.4628772E2,2.1292017E1,1.249957E2,1.2601063E1,8.690955E0,1.0588994E2,1.9105755E1,1.0848618E1,8.257138E0],"tree_param":{"num_deleted":"0","num_feature":"40","num_nodes":"9","size_leaf_vector":"1"}},{"base_weights":[4.0347935E-3,5.095213E-1,-5.884296E-1,8.0188215E-3,2.6800954E-1,-8.398169E-2,-7.4499136E-1,4.406913E-1,-6.0340777E-2,-3.1444585E-1,1.0436329E-1,-5.547267E-1,-7.661986E-3,5.531384E-1,3.0271116E-1,1.14899494E-1,-2.0202102E-1,-2.529132E-1,-7.367225E-3,-3.957115E-3,1.478708E-1,-6.363953E-1,-2.5078985E-1,4.5557442E-1,6.485984E-3,2.4542645E-1,5.4051043E-3,-1.6649854E-3,2.2610529E-1,-4.8113793E-2,-3.436886E-1,-3.5934585E-1,2.1463581E-3,-8.896505E-4,3.1737038E-3,-6.2278733E-3,-4.3227476E-1,-4.704669E-3,-8.983869E-4,4.446513E-3,6.206233E-4,2.8695022E-3,4.147688E-4,-4.2930413E-3,2.4109937E-3,-1.6259192E-3,3.5035894E-3,-3.6988312E-3,2.123951E-3,1.0001867E-3,-3.7942822E-3,-4.1026077E-3,7.8371784E-4,-1.916932E-3,-5.53748E-3],"categories":[],"categories_nodes":[],"categories_segments":[],"categories_sizes":[],"default_left":[0,0,0,0,0,0,0,0,0,0,0,0,0,0,0,0,0,0,0,0,0,0,0,0,0,0,0,0,0,0,0,0,0,0,0,0,0,0,0,0,0,0,0,0,0,0,0,0,0,0,0,0,0,0,0],"id":17,"left_children":[1,3,5,-1,7,9,11,13,15,17,19,21,-1,23,25,27,29,31,-1,-1,33,35,37,39,-1,41,-1,-1,43,45,47,49,-1,51,-1,-1,53,-1,-1,-1,-1,-1,-1,-1,-1,-1,-1,-1,-1,-1,-1,-1,-1,-1,-1],"loss_changes":[1.2253188E3,2.2157654E2,1.4870221E2,0E0,7.922592E1,1.9391567E1,3.7895996E1,1.4132248E1,1.1959323E1,6.5282536E0,5.978892E0,1.5005035E1,0E0,9.489502E0,7.4951286E0,7.3487115E0,5.781412E0,9.630384E0,0E0,0E0,7.4306192E0,7.9251404E0,5.49494E0,7.387657E0,0E0,5.8905354E0,0E0,0E0,5.9395294E0,8.0721445E0,6.797903E0,5.5748787E0,0E0,5.878034E0,0E0,0E0,5.9451103E0,0E0,0E0,0E0,0E0,0E0,0E0,0E0,0E0,0E0,0E0,0E0,0E0,0E0,0E0,0E0,0E0,0E0,0E0],"parents":[2147483647,0,0,1,1,2,2,4,4,5,5,6,6,7,7,8,8,9,9,10,10,11,11,13,13,14,14,15,15,16,16,17,17,20,20,21,21,22,22,23,23,25,25,28,28,29,29,30,30,31,31,33,33,36,36],"right_children":[2,4,6,-1,8,10,12,14,16,18,20,22,-1,24,26,28,30,32,-1,-1,34,36,38,40,-1,42,-1,-1,44,46,48,50,-1,52,-1,-1,54,-1,-1,-1,-1,-1,-1,-1,-1,-1,-1,-1,-1,-1,-1,-1,-1,-1,-1],"split_conditions":[7.996983E-2,-5.8153445E-1,1E0,8.0188215E-3,1E0,-2.094156E-1,9.311606E-1,-1.560136E-1,1.5221706E-1,8.783015E-1,6.837947E-2,5.830491E-1,-7.661986E-3,1.78116E-2,9.57049E-1,-5.452867E-1,-4.4316375E-1,5.82492E-1,-7.367225E-3,-3.957115E-3,6.3092977E-1,5.3919286E-1,3.1372022E-2,0E0,6.485984E-3,9.647542E-1,5.4051043E-3,-1.6649854E-3,-5.384799E-1,2.2530112E-1,3.5526626E-2,-7.111206E-1,2.1463581E-3,7.3676016E-3,3.1737038E-3,-6.2278733E-3,3.7353683E-1,-4.704669E-3,-8.983869E-4,4.446513E-3,6.206233E-4,2.8695022E-3,4.147688E-4,-4.2930413E-3,2.4109937E-3,-1.6259192E-3,3.5035894E-3,-3.6988312E-3,2.123951E-3,1.0001867E-3,-3.7942822E-3,-4.1026077E-3,7.8371784E-4,-1.916932E-3,-5.53748E-3],"split_indices":[1,0,3,0,3,33,0,1,33,0,32,33,0,39,34,34,31,32,0,0,33,6,6,5,0,33,0,0,7,11,2,24,0,11,0,0,4,0,0,0,0,0,0,0,0,0,0,0,0,0,0,0,0,0,0],"split_type":[0,0,0,0,0,0,0,0,0,0,0,0,0,0,0,0,0,0,0,0,0,0,0,0,0,0,0,0,0,0,0,0,0,0,0,0,0,0,0,0,0,0,0,0,0,0,0,0,0,0,0,0,0,0,0],"sum_hessian":[4.0912717E3,2.207755E3,1.8835168E3,8.1105945E2,1.3966953E3,4.4625067E2,1.4372661E3,9.1543024E2,4.8126508E2,2.0081293E2,2.4543776E2,6.073816E2,8.298846E2,5.0395813E2,4.114721E2,2.1495229E2,2.6631277E2,1.803602E2,2.0452728E1,1.7490211E1,2.2794754E2,4.7848767E2,1.2889394E2,3.364847E2,1.674734E2,3.494756E2,6.1996532E1,5.6980457E1,1.5797183E2,1.27927414E2,1.3838536E2,1.4886661E2,3.1493587E1,1.354528E2,9.2494736E1,3.4069922E2,1.3778844E2,4.2941727E1,8.595221E1,2.924881E2,4.3996624E1,2.4349083E2,1.0598474E2,1.0496285E1,1.4747554E2,9.79319E1,2.9995514E1,1.2138977E2,1.6995592E1,2.0987898E1,1.2787871E2,2.1988796E1,1.1346401E2,6.84232E1,6.9365234E1],"tree_param":{"num_deleted":"0","num_feature":"40","num_nodes":"55","size_leaf_vector":"1"}},{"base_weights":[3.676527E-3,-5.5091095E-1,5.482292E-1,-7.886145E-3,-3.108241E-1,4.2036127E-2,7.198484E-1,-4.6393785E-1,8.634689E-3,3.267803E-1,-1.1444156E-1,5.2981967E-1,7.626688E-3,-3.8451228E-1,-6.0213095E-1,-3.1099621E-2,6.0662753E-3,2.6300552E-1,8.271724E-3,2.577745E-3,-2.6855302E-1,6.3484436E-1,2.5046727E-1,-3.002216E-1,-5.1247984E-1,-6.1472273E-3,-3.0494586E-1,3.6979806E-2,-4.580646E-1,3.5622066E-1,-1.7792048E-3,3.101248E-1,-1.1700162E-1,-3.752276E-3,1.6009079E-1,4.477528E-1,6.1310176E-3,5.2302247E-3,9.5429234E-2,-3.0260535E-3,-2.486051E-5,-5.6129703E-3,-2.4974414E-3,-5.6556973E-4,-4.9749664E-3,-8.814562E-4,1.5598602E-3,-5.731441E-3,9.5061277E-4,1.7160418E-3,4.9890284E-3,-1.9341719E-4,4.757889E-3,-2.6070708E-3,1.155462E-3,6.327631E-3,-1.6657307E-3,-7.165756E-4,4.73319E-3,-2.518792E-3,1.8949E-3],"categories":[],"categories_nodes":[],"categories_segments":[],"categories_sizes":[],"default_left":[0,0,0,0,0,0,0,0,0,0,0,0,0,0,0,0,0,0,0,0,0,0,0,0,0,0,0,0,0,0,0,0,0,0,0,0,0,0,0,0,0,0,0,0,0,0,0,0,0,0,0,0,0,0,0,0,0,0,0,0,0],"id":18,"left_children":[1,3,5,-1,7,9,11,13,15,17,19,21,-1,23,25,27,-1,29,-1,31,33,35,37,39,41,-1,43,45,47,49,-1,51,53,-1,55,57,-1,-1,59,-1,-1,-1,-1,-1,-1,-1,-1,-1,-1,-1,-1,-1,-1,-1,-1,-1,-1,-1,-1,-1,-1],"loss_changes":[1.2417037E3,1.7547772E2,1.8017389E2,0E0,5.9751045E1,2.3431152E1,4.7012817E1,8.973267E0,1.0911369E1,7.362253E0,6.131903E0,2.072705E1,0E0,5.592163E0,9.49292E0,1.0902011E1,0E0,7.418846E0,0E0,7.0982738E0,1.0354036E1,6.88739E0,1.0569327E1,4.5890636E0,6.2256737E0,0E0,5.118229E0,6.404445E0,5.995721E0,4.853014E0,0E0,4.331252E0,6.3913555E0,0E0,8.201113E0,7.575283E0,0E0,0E0,6.4271045E0,0E0,0E0,0E0,0E0,0E0,0E0,0E0,0E0,0E0,0E0,0E0,0E0,0E0,0E0,0E0,0E0,0E0,0E0,0E0,0E0,0E0,0E0],"parents":[2147483647,0,0,1,1,2,2,4,4,5,5,6,6,7,7,8,8,9,9,10,10,11,11,13,13,14,14,15,15,17,17,19,19,20,20,21,21,22,22,23,23,24,24,26,26,27,27,28,28,29,29,31,31,32,32,34,34,35,35,38,38],"right_children":[2,4,6,-1,8,10,12,14,16,18,20,22,-1,24,26,28,-1,30,-1,32,34,36,38,40,42,-1,44,46,48,50,-1,52,54,-1,56,58,-1,-1,60,-1,-1,-1,-1,-1,-1,-1,-1,-1,-1,-1,-1,-1,-1,-1,-1,-1,-1,-1,-1,-1,-1],"split_conditions":[-1.0832267E-2,-5.8153445E-1,1E0,-7.886145E-3,1E0,-2.4240762E-1,9.311606E-1,1.0360752E-1,4.832735E-1,9.800681E-1,2.4243546E-1,5.830491E-1,7.626688E-3,2.2530112E-1,6.6813076E-1,7.247016E-2,6.0662753E-3,5.82492E-1,8.271724E-3,4.6550786E-1,8.355647E-1,1.8766181E-1,1.260795E-2,8.240773E-1,6.758953E-1,-6.1472273E-3,-1.5668884E-1,6.304051E-2,-6.2124705E-1,-3.7595063E-1,-1.7792048E-3,-8.410006E-2,2.79563E-1,-3.752276E-3,-4.002575E-1,-6.4082485E-1,6.1310176E-3,5.2302247E-3,-4.696424E-2,-3.0260535E-3,-2.486051E-5,-5.6129703E-3,-2.4974414E-3,-5.6556973E-4,-4.9749664E-3,-8.814562E-4,1.5598602E-3,-5.731441E-3,9.5061277E-4,1.7160418E-3,4.9890284E-3,-1.9341719E-4,4.757889E-3,-2.6070708E-3,1.155462E-3,6.327631E-3,-1.6657307E-3,-7.165756E-4,4.73319E-3,-2.518792E-3,1.8949E-3],"split_indices":[1,0,3,0,3,33,0,39,12,0,6,33,0,11,33,11,0,32,0,33,22,4,2,15,11,0,11,33,22,24,0,36,30,0,38,14,0,0,12,0,0,0,0,0,0,0,0,0,0,0,0,0,0,0,0,0,0,0,0,0,0],"split_type":[0,0,0,0,0,0,0,0,0,0,0,0,0,0,0,0,0,0,0,0,0,0,0,0,0,0,0,0,0,0,0,0,0,0,0,0,0,0,0,0,0,0,0,0,0,0,0,0,0,0,0,0,0,0,0,0,0,0,0,0,0],"sum_hessian":[4.111377E3,2.0368605E3,2.0745164E3,8.160128E2,1.2208477E3,5.253864E2,1.54913E3,8.254011E2,3.954465E2,1.8643707E2,3.389493E2,7.088835E2,8.402465E2,5.246868E2,3.0071426E2,3.7395233E2,2.1494188E1,1.6946228E2,1.6974792E1,1.9247267E2,1.4647664E2,5.1493134E2,1.9395221E2,3.1683368E2,2.0785318E2,2.2075073E2,7.996354E1,3.2247058E2,5.148175E1,1.4146687E2,2.7995415E1,5.3994877E1,1.384778E2,1.0598021E2,4.049644E1,1.4438538E2,3.7054593E2,5.8969704E1,1.349825E2,2.7185196E2,4.4981712E1,1.2939726E2,7.845591E1,4.248607E1,3.7477474E1,1.634886E2,1.5898198E2,3.798285E1,1.34989E1,8.2483246E1,5.8983627E1,2.2497902E1,3.1496973E1,7.998566E1,5.849214E1,1.5499049E1,2.4997389E1,2.248938E1,1.21895996E2,3.2496723E1,1.0248579E2],"tree_param":{"num_deleted":"0","num_feature":"40","num_nodes":"61","size_leaf_vector":"1"}},{"base_weights":[1.6696265E-2,-1.2454567E-3,3.1343657E-1,7.002771E-1,-8.489553E-4,-3.4757964E-3,1.2542433E-2],"categories":[],"categories_nodes":[],"categories_segments":[],"categories_sizes":[],"default_left":[0,0,0,0,0,0,0],"id":19,"left_children":[1,-1,3,5,-1,-1,-1],"loss_changes":[6.954032E0,0E0,8.213982E0,2.196236E1,0E0,0E0,0E0],"parents":[2147483647,0,0,2,2,3,3],"right_children":[2,-1,4,6,-1,-1,-1],"split_conditions":[3.0829182E-1,-1.2454567E-3,-4.434538E-2,-6.637794E-1,-8.489553E-4,-3.4757964E-3,1.2542433E-2],"split_indices":[26,0,2,11,0,0,0],"split_type":[0,0,0,0,0,0,0],"sum_hessian":[1.4567319E2,9.44484E1,5.1224792E1,2.6446848E1,2.4777945E1,1.0670801E1,1.5776047E1],"tree_param":{"num_deleted":"0","num_feature":"40","num_nodes":"7","size_leaf_vector":"1"}},{"base_weights":[7.1940175E-3,5.380805E-1,-5.571037E-1,7.9551665E-3,2.9800886E-1,-5.7467856E-2,-7.2301906E-1,4.6276212E-1,-3.7517365E-2,-1.7906605E-1,2.5613508E-1,-5.275505E-1,-7.593837E-3,5.61611E-1,3.3188367E-1,-9.928694E-2,3.4289783E-1,-1.3773923E-1,-7.3546087E-3,-2.1123469E-2,3.8265195E-3,-6.33381E-1,-2.2286317E-1,3.4224048E-1,5.640934E-3,3.5707098E-3,8.355446E-2,8.042729E-2,-2.4308425E-1,4.656863E-1,-3.261525E-3,-2.4296051E-1,3.062428E-1,1.3855815E-1,-5.4325606E-3,-6.135425E-3,-3.7373728E-3,-5.557438E-3,-8.6889905E-4,1.6381847E-3,4.8572994E-3,-1.4313529E-3,2.8434729E-3,-4.2917263E-3,1.287967E-3,4.5187E-4,-2.935504E-3,3.8729915E-5,5.867765E-3,2.424042E-3,-2.641316E-3,4.5179287E-3,-2.6744893E-3,4.16028E-3,-1.5429417E-3],"categories":[],"categories_nodes":[],"categories_segments":[],"categories_sizes":[],"default_left":[0,0,0,0,0,0,0,0,0,0,0,0,0,0,0,0,0,0,0,0,0,0,0,0,0,0,0,0,0,0,0,0,0,0,0,0,0,0,0,0,0,0,0,0,0,0,0,0,0,0,0,0,0,0,0],"id":20,"left_children":[1,3,5,-1,7,9,11,13,15,17,19,21,-1,23,25,27,29,31,-1,33,-1,35,37,39,-1,-1,41,43,45,47,-1,49,51,53,-1,-1,-1,-1,-1,-1,-1,-1,-1,-1,-1,-1,-1,-1,-1,-1,-1,-1,-1,-1,-1],"loss_changes":[1.221221E3,1.9142871E2,1.6374945E2,0E0,7.118865E1,1.879173E1,4.4280884E1,1.1094116E1,9.94789E0,9.755597E0,7.1003323E0,2.0959427E1,0E0,9.538406E0,7.367317E0,9.442429E0,5.241254E0,1.5647123E1,0E0,5.368278E0,0E0,7.1872864E0,8.585331E0,4.707754E0,0E0,0E0,5.5559945E0,6.3454475E0,5.749775E0,4.8871126E0,0E0,8.761089E0,8.503143E0,4.7402425E0,0E0,0E0,0E0,0E0,0E0,0E0,0E0,0E0,0E0,0E0,0E0,0E0,0E0,0E0,0E0,0E0,0E0,0E0,0E0,0E0,0E0],"parents":[2147483647,0,0,1,1,2,2,4,4,5,5,6,6,7,7,8,8,9,9,10,10,11,11,13,13,14,14,15,15,16,16,17,17,19,19,21,21,22,22,23,23,26,26,27,27,28,28,29,29,31,31,32,32,33,33],"right_children":[2,4,6,-1,8,10,12,14,16,18,20,22,-1,24,26,28,30,32,-1,34,-1,36,38,40,-1,-1,42,44,46,48,-1,50,52,54,-1,-1,-1,-1,-1,-1,-1,-1,-1,-1,-1,-1,-1,-1,-1,-1,-1,-1,-1,-1,-1],"split_conditions":[2.3291333E-2,-5.8153445E-1,1E0,7.9551665E-3,1E0,6.3092977E-1,9.311606E-1,-1.6068542E-1,2.5710556E-1,1.024002E0,1.4955732E-1,5.830491E-1,-7.593837E-3,-3.390378E-1,9.647542E-1,6.304051E-2,-4.4316375E-1,6.0568815E-1,-7.3546087E-3,5.382437E-1,3.8265195E-3,5.5011564E-1,1.260795E-2,-2.4906452E-1,5.640934E-3,3.5707098E-3,9.512486E-3,-8.055976E-1,-5.5698246E-1,-4.393256E-1,-3.261525E-3,-7.111206E-1,1.5880235E0,8.588271E-2,-5.4325606E-3,-6.135425E-3,-3.7373728E-3,-5.557438E-3,-8.6889905E-4,1.6381847E-3,4.8572994E-3,-1.4313529E-3,2.8434729E-3,-4.2917263E-3,1.287967E-3,4.5187E-4,-2.935504E-3,3.8729915E-5,5.867765E-3,2.424042E-3,-2.641316E-3,4.5179287E-3,-2.6744893E-3,4.16028E-3,-1.5429417E-3],"split_indices":[1,0,3,0,3,33,0,1,11,0,6,33,0,6,33,33,31,32,0,11,0,6,2,31,0,0,11,26,37,10,0,24,30,30,0,0,0,0,0,0,0,0,0,0,0,0,0,0,0,0,0,0,0,0,0],"split_type":[0,0,0,0,0,0,0,0,0,0,0,0,0,0,0,0,0,0,0,0,0,0,0,0,0,0,0,0,0,0,0,0,0,0,0,0,0,0,0,0,0,0,0,0,0,0,0,0,0,0,0,0,0,0,0],"sum_hessian":[4.0762778E3,2.1003794E3,1.9758984E3,8.132078E2,1.2871716E3,4.927036E2,1.4831948E3,8.6338324E2,4.237884E2,3.552199E2,1.3748369E2,6.5207434E2,8.311205E2,4.9141025E2,3.71973E2,3.647994E2,5.898897E1,3.34773E2,2.044691E1,5.49848E1,8.249889E1,4.837327E2,1.683416E2,1.4248483E2,3.489254E2,2.8098346E2,9.098953E1,1.6196579E2,2.0283362E2,5.049431E1,8.494662E0,2.7078958E2,6.398343E1,4.3487797E1,1.1497004E1,3.5297195E2,1.3076074E2,3.7935944E1,1.3040565E2,8.399452E1,5.8490307E1,4.4992912E1,4.5996624E1,1.6986502E1,1.449793E2,4.947052E1,1.533631E2,1.599753E1,3.449678E1,2.8487871E1,2.4230171E2,4.7492847E1,1.649058E1,2.0996878E1,2.249092E1],"tree_param":{"num_deleted":"0","num_feature":"40","num_nodes":"55","size_leaf_vector":"1"}},{"base_weights":[1.7523962E-3,-5.303463E-1,5.6250584E-1,-7.832873E-3,-2.9425672E-1,6.8859614E-2,7.222443E-1,-4.5289814E-1,2.8292056E-2,2.3274031E-1,-2.280629E-1,5.3808045E-1,7.548097E-3,-5.1099926E-1,-2.2092564E-1,-1.3247858E-1,1.5809423E-1,1.9118854E-1,8.219753E-3,-9.475914E-2,-4.2723436E-3,6.28471E-1,2.7453858E-1,-4.193024E-1,-5.916389E-3,-4.5252754E-3,-8.4693246E-2,4.552212E-3,-2.0043688E-1,-1.3450946E-1,2.5163603E-1,3.0777398E-1,-2.1004277E-1,-3.4860584E-3,8.552032E-4,6.063461E-3,3.8170852E-3,5.761517E-3,1.5693496E-1,-9.986429E-4,-4.0393337E-3,-3.0733214E-3,9.257817E-4,-8.587351E-4,-4.0700943E-3,8.312668E-4,-4.0904074E-3,7.072445E-4,3.5731436E-3,-1.6502909E-3,3.2830185E-3,-4.651122E-3,1.0412526E-3,-2.9898745E-3,1.9457996E-3],"categories":[],"categories_nodes":[],"categories_segments":[],"categories_sizes":[],"default_left":[0,0,0,0,0,0,0,0,0,0,0,0,0,0,0,0,0,0,0,0,0,0,0,0,0,0,0,0,0,0,0,0,0,0,0,0,0,0,0,0,0,0,0,0,0,0,0,0,0,0,0,0,0,0,0],"id":21,"left_children":[1,3,5,-1,7,9,11,13,15,17,19,21,-1,23,25,27,29,31,-1,33,-1,35,37,39,-1,-1,41,-1,43,45,47,49,51,-1,-1,-1,-1,-1,53,-1,-1,-1,-1,-1,-1,-1,-1,-1,-1,-1,-1,-1,-1,-1,-1],"loss_changes":[1.2162836E3,1.8430432E2,1.5645227E2,0E0,6.5613174E1,2.3627293E1,4.0923035E1,1.1522202E1,8.820917E0,9.215406E0,6.0501394E0,1.5891251E1,0E0,1.07118225E1,7.0351677E0,8.417853E0,6.4169145E0,1.38602705E1,0E0,6.8682866E0,0E0,6.570175E0,7.8089952E0,6.332123E0,0E0,0E0,6.1744905E0,0E0,4.6254997E0,4.4295626E0,4.8142653E0,8.143274E0,7.2144485E0,0E0,0E0,0E0,0E0,0E0,4.479938E0,0E0,0E0,0E0,0E0,0E0,0E0,0E0,0E0,0E0,0E0,0E0,0E0,0E0,0E0,0E0,0E0],"parents":[2147483647,0,0,1,1,2,2,4,4,5,5,6,6,7,7,8,8,9,9,10,10,11,11,13,13,14,14,15,15,16,16,17,17,19,19,21,21,22,22,23,23,26,26,28,28,29,29,30,30,31,31,32,32,38,38],"right_children":[2,4,6,-1,8,10,12,14,16,18,20,22,-1,24,26,28,30,32,-1,34,-1,36,38,40,-1,-1,42,-1,44,46,48,50,52,-1,-1,-1,-1,-1,54,-1,-1,-1,-1,-1,-1,-1,-1,-1,-1,-1,-1,-1,-1,-1,-1],"split_conditions":[2.3291333E-2,-5.8153445E-1,1E0,-7.832873E-3,1E0,2.9553202E-1,9.311606E-1,7.537479E-1,6.304051E-2,1.0047802E0,2.4243546E-1,5.830491E-1,7.548097E-3,2.2644432E-1,-7.225949E-1,-8.055976E-1,-5.5698246E-1,6.80282E-1,8.219753E-3,-1.1271792E-1,-4.2723436E-3,5.5011564E-1,1.260795E-2,-3.969536E-1,-5.916389E-3,-4.5252754E-3,-4.613082E-1,4.552212E-3,-1.9798873E-1,3.8236803E-1,-4.790728E-1,-7.111206E-1,6.0317326E-1,-3.4860584E-3,8.552032E-4,6.063461E-3,3.8170852E-3,5.761517E-3,7.996983E-2,-9.986429E-4,-4.0393337E-3,-3.0733214E-3,9.257817E-4,-8.587351E-4,-4.0700943E-3,8.312668E-4,-4.0904074E-3,7.072445E-4,3.5731436E-3,-1.6502909E-3,3.2830185E-3,-4.651122E-3,1.0412526E-3,-2.9898745E-3,1.9457996E-3],"split_indices":[1,0,3,0,3,33,0,33,33,32,6,33,0,31,4,26,37,6,0,10,0,6,2,6,0,0,38,0,6,26,31,24,31,0,0,0,0,0,1,0,0,0,0,0,0,0,0,0,0,0,0,0,0,0,0],"split_type":[0,0,0,0,0,0,0,0,0,0,0,0,0,0,0,0,0,0,0,0,0,0,0,0,0,0,0,0,0,0,0,0,0,0,0,0,0,0,0,0,0,0,0,0,0,0,0,0,0,0,0,0,0,0,0],"sum_hessian":[4.07614E3,2.0914512E3,1.9846887E3,8.098498E2,1.2816014E3,4.8534848E2,1.4993403E3,8.591857E2,4.2241574E2,3.128945E2,1.7245398E2,6.701908E2,8.291495E2,6.8677216E2,1.7241359E2,1.8847125E2,2.3394449E2,2.959297E2,1.6964825E1,1.149768E2,5.7477177E1,4.987446E2,1.714462E2,4.4812393E2,2.3864822E2,5.3456127E1,1.1895746E2,1.749723E1,1.7097403E2,5.6491592E1,1.774529E2,2.2944609E2,6.648358E1,4.449E1,7.048679E1,3.613644E2,1.3738019E2,3.9466236E1,1.3197997E2,5.9979645E1,3.881443E2,4.9479424E1,6.9478035E1,1.2448388E2,4.649015E1,3.3495975E1,2.2995615E1,8.648074E1,9.0972145E1,2.8498503E1,2.0094759E2,3.34909E1,3.2992687E1,1.5498803E1,1.1648116E2],"tree_param":{"num_deleted":"0","num_feature":"40","num_nodes":"55","size_leaf_vector":"1"}},{"base_weights":[3.8084175E-2,6.2462825E-1,-6.4923435E-2,-2.4648933E-4,1.31691005E-2,-1.5011758E-3,5.2125037E-1,9.700867E-3,-2.2171244E-3],"categories":[],"categories_nodes":[],"categories_segments":[],"categories_sizes":[],"default_left":[0,0,0,0,0,0,0,0,0],"id":22,"left_children":[1,3,5,-1,-1,-1,7,-1,-1],"loss_changes":[8.946225E0,1.3031435E1,7.944318E0,0E0,0E0,0E0,9.13823E0,0E0,0E0],"parents":[2147483647,0,0,1,1,2,2,6,6],"right_children":[2,4,6,-1,-1,-1,8,-1,-1],"split_conditions":[-5.799622E-1,2.9570142E-2,9.666795E-1,-2.4648933E-4,1.31691005E-2,-1.5011758E-3,6.0613535E-2,9.700867E-3,-2.2171244E-3],"split_indices":[35,36,24,0,0,0,6,0,0],"split_type":[0,0,0,0,0,0,0,0,0],"sum_hessian":[1.4729915E2,2.2024885E1,1.2527427E2,1.2745428E1,9.279456E0,1.05892624E2,1.9381647E1,1.097539E1,8.406258E0],"tree_param":{"num_deleted":"0","num_feature":"40","num_nodes":"9","size_leaf_vector":"1"}},{"base_weights":[1.7617011E-3,5.4945654E-1,-5.369826E-1,7.856831E-3,3.0572233E-1,-4.2601354E-2,-7.0809394E-1,4.5946935E-1,-1.8705094E-2,-3.2564127E-1,1.1451127E-1,-5.145292E-1,-7.5495183E-3,5.512786E-1,3.3319542E-1,1.06287576E-1,-2.2883439E-1,-2.6963192E-1,-8.050861E-3,1.8688025E-1,-1.4404278E-3,-6.176915E-1,-2.4353415E-1,2.919932E-3,5.554253E-3,2.4898878E-1,5.2484446E-3,4.068631E-2,4.4647427E-3,4.2848936E-3,-3.0364493E-1,-3.5825205E-1,1.4138198E-3,5.170283E-3,1.4039846E-1,-4.3576857E-1,-5.9201177E-3,-4.871526E-3,-1.1410148E-1,2.981411E-3,-3.1735536E-4,-6.407961E-3,6.6025334E-4,1.6010972E-3,-3.4160656E-3,6.027115E-4,-3.7030685E-3,-2.3919754E-3,1.6121189E-3,1.1008581E-3,-4.7280528E-3,3.2243738E-3,-1.7919437E-3],"categories":[],"categories_nodes":[],"categories_segments":[],"categories_sizes":[],"default_left":[0,0,0,0,0,0,0,0,0,0,0,0,0,0,0,0,0,0,0,0,0,0,0,0,0,0,0,0,0,0,0,0,0,0,0,0,0,0,0,0,0,0,0,0,0,0,0,0,0,0,0,0,0],"id":23,"left_children":[1,3,5,-1,7,9,11,13,15,17,19,21,-1,23,25,27,29,31,-1,33,-1,35,37,-1,-1,39,-1,41,-1,-1,43,45,-1,-1,47,49,-1,-1,51,-1,-1,-1,-1,-1,-1,-1,-1,-1,-1,-1,-1,-1,-1],"loss_changes":[1.2123175E3,1.7723102E2,1.7515662E2,0E0,6.0444176E1,2.3708067E1,4.8410522E1,9.452408E0,1.0237708E1,6.328474E0,6.962392E0,1.9603714E1,0E0,9.0466E0,7.8784027E0,6.507104E0,7.8726754E0,6.707308E0,0E0,5.133416E0,0E0,5.9595795E0,7.964301E0,0E0,0E0,7.2153053E0,0E0,5.7918763E0,0E0,0E0,5.855075E0,4.3058434E0,0E0,0E0,4.6535525E0,8.391609E0,0E0,0E0,6.2354636E0,0E0,0E0,0E0,0E0,0E0,0E0,0E0,0E0,0E0,0E0,0E0,0E0,0E0,0E0],"parents":[2147483647,0,0,1,1,2,2,4,4,5,5,6,6,7,7,8,8,9,9,10,10,11,11,13,13,14,14,15,15,16,16,17,17,19,19,21,21,22,22,25,25,27,27,30,30,31,31,34,34,35,35,38,38],"right_children":[2,4,6,-1,8,10,12,14,16,18,20,22,-1,24,26,28,30,32,-1,34,-1,36,38,-1,-1,40,-1,42,-1,-1,44,46,-1,-1,48,50,-1,-1,52,-1,-1,-1,-1,-1,-1,-1,-1,-1,-1,-1,-1,-1,-1],"split_conditions":[-1.0832267E-2,-5.8153445E-1,1E0,7.856831E-3,1E0,-2.4240762E-1,9.311606E-1,-1.6453408E-1,3.620593E-1,1.0520376E0,0E0,5.830491E-1,-7.5495183E-3,-3.390378E-1,7.2597057E-1,1.0729309E-1,-1.1334877E0,6.342612E-1,-8.050861E-3,-7.8114116E-1,-1.4404278E-3,1.5903081E-1,1.260795E-2,2.919932E-3,5.554253E-3,9.647542E-1,5.2484446E-3,-3.2684192E-1,4.4647427E-3,4.2848936E-3,-8.7109244E-1,-7.111206E-1,1.4138198E-3,5.170283E-3,-4.882875E-1,-6.4082485E-1,-5.9201177E-3,-4.871526E-3,7.996983E-2,2.981411E-3,-3.1735536E-4,-6.407961E-3,6.6025334E-4,1.6010972E-3,-3.4160656E-3,6.027115E-4,-3.7030685E-3,-2.3919754E-3,1.6121189E-3,1.1008581E-3,-4.7280528E-3,3.2243738E-3,-1.7919437E-3],"split_indices":[1,0,3,0,3,33,0,1,33,2,5,33,0,6,34,11,38,2,0,34,0,4,2,0,0,33,0,4,0,0,37,24,0,0,21,14,0,0,1,0,0,0,0,0,0,0,0,0,0,0,0,0,0],"split_type":[0,0,0,0,0,0,0,0,0,0,0,0,0,0,0,0,0,0,0,0,0,0,0,0,0,0,0,0,0,0,0,0,0,0,0,0,0,0,0,0,0,0,0,0,0,0,0,0,0,0,0,0,0],"sum_hessian":[4.1084116E3,2.0373419E3,2.0710698E3,8.2623865E2,1.2111033E3,5.326432E2,1.5384266E3,8.218077E2,3.8929556E2,1.9023862E2,3.424046E2,7.036734E2,8.347532E2,4.7534863E2,3.46459E2,2.4393211E2,1.4536346E2,1.7430736E2,1.5931258E1,2.7243652E2,6.996807E1,5.09391E2,1.9428242E2,1.4047653E2,3.348721E2,2.6497592E2,8.148308E1,2.1043758E2,3.349454E1,1.3492612E1,1.3187085E2,1.4482016E2,2.9487206E1,2.749745E1,2.4493907E2,1.351701E2,3.742209E2,5.5889023E1,1.383934E2,1.9898286E2,6.5993065E1,8.994023E0,2.0144354E2,2.049039E1,1.11380455E2,1.9989092E1,1.2483106E2,2.3992968E1,2.209461E2,2.1963053E1,1.1320705E2,2.1994938E1,1.1639847E2],"tree_param":{"num_deleted":"0","num_feature":"40","num_nodes":"53","size_leaf_vector":"1"}},{"base_weights":[-9.124442E-4,-5.088762E-1,5.842176E-1,-7.762339E-3,-2.8225243E-1,9.3810976E-2,7.351009E-1,-4.433205E-1,2.1033093E-2,3.300421E-1,-8.069159E-2,5.553723E-1,7.5260685E-3,-5.121194E-1,-2.426125E-1,-1.2138087E-1,1.9361678E-1,2.4681412E-1,6.46816E-3,-1.224764E-1,5.085994E-3,6.289672E-1,2.7843648E-1,-4.2350414E-1,-6.8352664E-1,-3.9661136E-3,-1.19143255E-1,-4.411266E-2,-5.3637856E-1,1.303605E-1,5.941667E-3,4.1830633E-3,1.1581946E-1,4.616449E-3,-1.6771783E-1,6.056761E-3,3.6364982E-1,4.880344E-3,1.4223334E-1,-1.27824E-3,-4.060609E-3,-6.4547868E-3,-2.3783382E-3,-3.1893014E-3,2.1546271E-4,6.0155215E-3,-7.0600037E-4,-6.585771E-3,-0E0,-1.5117766E-3,2.0486596E-3,2.7020657E-4,7.328206E-3,3.387134E-4,-2.5814339E-3,1.6663312E-3,5.870637E-3,4.5682723E-3,-4.726003E-6],"categories":[],"categories_nodes":[],"categories_segments":[],"categories_sizes":[],"default_left":[0,0,0,0,0,0,0,0,0,0,0,0,0,0,0,0,0,0,0,0,0,0,0,0,0,0,0,0,0,0,0,0,0,0,0,0,0,0,0,0,0,0,0,0,0,0,0,0,0,0,0,0,0,0,0,0,0,0,0],"id":24,"left_children":[1,3,5,-1,7,9,11,13,15,17,19,21,-1,23,25,27,29,31,-1,33,-1,35,37,39,41,-1,43,45,47,49,-1,-1,51,-1,53,-1,55,-1,57,-1,-1,-1,-1,-1,-1,-1,-1,-1,-1,-1,-1,-1,-1,-1,-1,-1,-1,-1,-1],"loss_changes":[1.2170679E3,1.9203632E2,1.4073492E2,0E0,6.755881E1,1.8483028E1,3.4717285E1,1.24079895E1,1.1791427E1,6.5161457E0,7.159927E0,1.2560974E1,0E0,1.0108994E1,6.0883245E0,8.378374E0,6.6912336E0,4.8681087E0,0E0,7.173494E0,0E0,8.985107E0,5.0078974E0,5.4666443E0,5.644058E0,0E0,5.2927227E0,6.0746336E0,4.971137E0,6.2299943E0,0E0,0E0,6.273655E0,0E0,6.1284413E0,0E0,5.44092E0,0E0,4.9027805E0,0E0,0E0,0E0,0E0,0E0,0E0,0E0,0E0,0E0,0E0,0E0,0E0,0E0,0E0,0E0,0E0,0E0,0E0,0E0,0E0],"parents":[2147483647,0,0,1,1,2,2,4,4,5,5,6,6,7,7,8,8,9,9,10,10,11,11,13,13,14,14,15,15,16,16,17,17,19,19,21,21,22,22,23,23,24,24,26,26,27,27,28,28,29,29,32,32,34,34,36,36,38,38],"right_children":[2,4,6,-1,8,10,12,14,16,18,20,22,-1,24,26,28,30,32,-1,34,-1,36,38,40,42,-1,44,46,48,50,-1,-1,52,-1,54,-1,56,-1,58,-1,-1,-1,-1,-1,-1,-1,-1,-1,-1,-1,-1,-1,-1,-1,-1,-1,-1,-1,-1],"split_conditions":[7.996983E-2,-5.8153445E-1,1E0,-7.762339E-3,1E0,-2.4240762E-1,9.311606E-1,6.6813076E-1,3.620593E-1,4.8105188E-2,1.2804695E0,5.830491E-1,7.5260685E-3,2.2644432E-1,-6.6183394E-1,1.0729309E-1,1.3235102E0,-5.4862475E-1,6.46816E-3,6.837947E-2,5.085994E-3,5.9396225E-1,3.1372022E-2,-3.969536E-1,-5.954242E-2,-3.9661136E-3,-4.7002125E-1,-2.831417E-1,-6.699438E-1,-4.6251592E-1,5.941667E-3,4.1830633E-3,9.708786E-1,4.616449E-3,8.75597E-2,6.056761E-3,6.117646E-1,4.880344E-3,-6.2395763E-1,-1.27824E-3,-4.060609E-3,-6.4547868E-3,-2.3783382E-3,-3.1893014E-3,2.1546271E-4,6.0155215E-3,-7.0600037E-4,-6.585771E-3,-0E0,-1.5117766E-3,2.0486596E-3,2.7020657E-4,7.328206E-3,3.387134E-4,-2.5814339E-3,1.6663312E-3,5.870637E-3,4.5682723E-3,-4.726003E-6],"split_indices":[1,0,3,0,3,33,0,33,33,4,34,33,0,31,4,11,35,4,0,32,0,6,6,6,1,0,38,4,22,36,0,0,2,0,27,0,4,0,36,0,0,0,0,0,0,0,0,0,0,0,0,0,0,0,0,0,0,0,0],"split_type":[0,0,0,0,0,0,0,0,0,0,0,0,0,0,0,0,0,0,0,0,0,0,0,0,0,0,0,0,0,0,0,0,0,0,0,0,0,0,0,0,0,0,0,0,0,0,0,0,0,0,0,0,0,0,0,0,0,0,0],"sum_hessian":[4.094592E3,2.1918904E3,1.9027015E3,8.095789E2,1.3823115E3,4.4780914E2,1.4548923E3,9.029475E2,4.7936404E2,1.9037679E2,2.5743234E2,6.199726E2,8.3491974E2,6.72089E2,2.308585E2,2.6244592E2,2.1691812E2,1.5891856E2,3.1458233E1,2.4243555E2,1.4996806E1,4.8952185E2,1.3045078E2,4.4351913E2,2.2856984E2,8.391859E1,1.4693993E2,2.214761E2,4.096981E1,1.9243294E2,2.4485191E1,5.6474308E1,1.0244425E2,1.5498041E1,2.269375E2,3.871287E2,1.0239316E2,4.1959583E1,8.849119E1,6.247343E1,3.8104572E2,1.9859024E2,2.9979607E1,5.397236E1,9.296757E1,1.04980545E1,2.1097804E2,2.8971699E1,1.1998112E1,4.948709E1,1.4294585E2,9.19693E1,1.0474952E1,8.7485245E1,1.3945227E2,6.645789E1,3.593526E1,2.3997555E1,6.449364E1],"tree_param":{"num_deleted":"0","num_feature":"40","num_nodes":"59","size_leaf_vector":"1"}},{"base_weights":[5.0254975E-4,-1.1497514E-3,4.110587E-1,1.1548276E-2,1.1481495E-1,-1.8199899E-3,5.8549484E-3],"categories":[],"categories_nodes":[],"categories_segments":[],"categories_sizes":[],"default_left":[0,0,0,0,0,0,0],"id":25,"left_children":[1,-1,3,-1,5,-1,-1],"loss_changes":[8.032338E0,0E0,9.722864E0,0E0,5.0387287E0,0E0,0E0],"parents":[2147483647,0,0,2,2,4,4],"right_children":[2,-1,4,-1,6,-1,-1],"split_conditions":[5.527832E-1,-1.1497514E-3,-4.6114013E-1,1.1548276E-2,6.9663876E-1,-1.8199899E-3,5.8549484E-3],"split_indices":[26,0,10,0,24,0,0],"split_type":[0,0,0,0,0,0,0],"sum_hessian":[1.4638681E2,1.10463715E2,3.5923096E1,8.602047E0,2.732105E1,1.7264957E1,1.0056092E1],"tree_param":{"num_deleted":"0","num_feature":"40","num_nodes":"7","size_leaf_vector":"1"}},{"base_weights":[-1.0026019E-3,4.9796653E-1,-5.8225894E-1,7.8639705E-3,2.5504234E-1,-1.0535875E-1,-7.283755E-1,4.2939258E-1,-7.553094E-2,-2.6589912E-1,1.5630409E-1,-5.460698E-1,-7.497115E-3,5.408578E-1,2.9039776E-1,7.7572785E-2,-2.1083516E-1,-1.740194E-1,-5.5755437E-3,-2.3340774E-1,2.539363E-1,-6.2551486E-1,-2.5066546E-1,5.867005E-1,1.3971016E-1,2.319706E-1,5.3583384E-3,-4.764726E-3,1.2985422E-1,3.840386E-1,-2.5958785E-1,-1.0776788E-1,-7.2357506E-3,2.610002E-3,-6.819303E-3,-1.0842653E-3,3.930927E-1,-6.1195884E-3,-4.3569094E-1,-4.7067697E-3,-7.7757664E-4,4.4017984E-3,6.386192E-3,2.6822295E-3,-4.4521336E-3,6.0553355E-3,1.6455452E-3,-4.4262707E-3,1.5042505E-3,7.867531E-3,-2.2402785E-3,-2.6611187E-3,2.7889118E-3,-2.1555827E-3,4.4516334E-3,5.785336E-3,1.9901628E-3,-1.9953977E-3,-5.5465465E-3],"categories":[],"categories_nodes":[],"categories_segments":[],"categories_sizes":[],"default_left":[0,0,0,0,0,0,0,0,0,0,0,0,0,0,0,0,0,0,0,0,0,0,0,0,0,0,0,0,0,0,0,0,0,0,0,0,0,0,0,0,0,0,0,0,0,0,0,0,0,0,0,0,0,0,0,0,0,0,0],"id":26,"left_children":[1,3,5,-1,7,9,11,13,15,17,19,21,-1,23,25,27,29,31,-1,33,35,37,39,41,43,45,-1,-1,47,49,51,53,-1,-1,-1,-1,55,-1,57,-1,-1,-1,-1,-1,-1,-1,-1,-1,-1,-1,-1,-1,-1,-1,-1,-1,-1,-1,-1],"loss_changes":[1.1832253E3,2.182279E2,1.312558E2,0E0,7.9445206E1,1.858673E1,3.58031E1,1.3909256E1,9.865988E0,9.445875E0,6.401144E0,1.4442993E1,0E0,9.145691E0,7.631794E0,7.295043E0,7.3336887E0,9.598199E0,0E0,9.9905405E0,7.1201906E0,7.3486633E0,6.139347E0,5.1930695E0,5.725687E0,6.639658E0,0E0,0E0,5.756873E0,6.489281E0,6.461522E0,1.7593544E1,0E0,0E0,0E0,0E0,4.3484316E0,0E0,6.044216E0,0E0,0E0,0E0,0E0,0E0,0E0,0E0,0E0,0E0,0E0,0E0,0E0,0E0,0E0,0E0,0E0,0E0,0E0,0E0,0E0],"parents":[2147483647,0,0,1,1,2,2,4,4,5,5,6,6,7,7,8,8,9,9,10,10,11,11,13,13,14,14,15,15,16,16,17,17,19,19,20,20,21,21,22,22,23,23,24,24,25,25,28,28,29,29,30,30,31,31,36,36,38,38],"right_children":[2,4,6,-1,8,10,12,14,16,18,20,22,-1,24,26,28,30,32,-1,34,36,38,40,42,44,46,-1,-1,48,50,52,54,-1,-1,-1,-1,56,-1,58,-1,-1,-1,-1,-1,-1,-1,-1,-1,-1,-1,-1,-1,-1,-1,-1,-1,-1,-1,-1],"split_conditions":[7.996983E-2,-5.8153445E-1,1E0,7.8639705E-3,1E0,9.823858E-2,9.311606E-1,-1.560136E-1,1.6888036E-1,0E0,9.011236E-2,5.7108295E-1,-7.497115E-3,0E0,9.57049E-1,-8.692265E-1,-1.1134317E0,9.800681E-1,-5.5755437E-3,-9.3745716E-2,-6.0847676E-1,5.3919286E-1,3.1372022E-2,3.1611033E-2,4.134716E-1,-7.351407E-1,5.3583384E-3,-4.764726E-3,-5.384799E-1,-2.3933435E-2,-3.6537825E-4,6.084942E-1,-7.2357506E-3,2.610002E-3,-6.819303E-3,-1.0842653E-3,4.686666E-2,-6.1195884E-3,3.7353683E-1,-4.7067697E-3,-7.7757664E-4,4.4017984E-3,6.386192E-3,2.6822295E-3,-4.4521336E-3,6.0553355E-3,1.6455452E-3,-4.4262707E-3,1.5042505E-3,7.867531E-3,-2.2402785E-3,-2.6611187E-3,2.7889118E-3,-2.1555827E-3,4.4516334E-3,5.785336E-3,1.9901628E-3,-1.9953977E-3,-5.5465465E-3],"split_indices":[1,0,3,0,3,27,0,1,33,5,32,33,0,5,34,26,38,0,0,10,37,6,6,31,38,21,0,0,7,12,6,1,0,0,0,0,9,0,4,0,0,0,0,0,0,0,0,0,0,0,0,0,0,0,0,0,0,0,0],"split_type":[0,0,0,0,0,0,0,0,0,0,0,0,0,0,0,0,0,0,0,0,0,0,0,0,0,0,0,0,0,0,0,0,0,0,0,0,0,0,0,0,0,0,0,0,0,0,0,0,0,0,0,0,0,0,0,0,0,0,0],"sum_hessian":[4.079464E3,2.1950576E3,1.8844066E3,8.1720685E2,1.3778507E3,4.4209616E2,1.4423105E3,9.0218915E2,4.7566153E2,2.7414597E2,1.6795018E2,6.1842975E2,8.2388074E2,5.002577E2,4.0193146E2,2.2294492E2,2.5271661E2,2.2073079E2,5.341519E1,3.3484383E1,1.3446579E2,4.8709915E2,1.3133061E2,4.487644E2,5.1493275E1,3.4145285E2,6.0478596E1,1.6981802E1,2.0596312E2,1.898942E1,2.337272E2,2.0081331E2,1.9917484E1,1.6995157E1,1.6489227E1,3.5985176E1,9.848061E1,3.4149252E2,1.4560663E2,4.6394108E1,8.49365E1,2.948978E2,1.5386662E2,4.0993824E1,1.049945E1,2.7994944E1,3.1345792E2,1.2994541E1,1.9296858E2,1.049554E1,8.49388E0,2.1623233E2,1.7494871E1,1.6381918E2,3.6994125E1,3.6496723E1,6.198389E1,7.286313E1,7.274349E1],"tree_param":{"num_deleted":"0","num_feature":"40","num_nodes":"59","size_leaf_vector":"1"}},{"base_weights":[-1.0043266E-3,-5.0391805E-1,5.784336E-1,-7.7156764E-3,-2.7519423E-1,7.054619E-2,7.3378885E-1,-4.6036837E-1,3.230219E-2,3.0033973E-1,-1.24944E-1,5.553428E-1,7.4921306E-3,-5.793622E-1,-3.1301638E-1,-1.0736552E-1,1.9444372E-1,2.4105035E-1,7.2938283E-3,1.4320659E-3,-2.1162277E-1,6.331956E-1,2.7136803E-1,-4.9397242E-1,-6.3663167E-3,-4.49561E-3,-2.015531E-1,2.8237197E-4,-3.6617148E-1,-1.03638595E-4,2.9386905E-1,3.133461E-1,-3.657494E-3,-5.71253E-2,-4.0047655E-1,6.253137E-3,4.205852E-1,4.734658E-3,1.0965767E-3,-1.1134276E-3,-4.616195E-3,-1.2051094E-3,-5.525638E-3,-2.4530224E-3,9.44484E-4,2.5617762E-3,-3.986435E-3,4.474416E-3,1.0440942E-3,2.1724335E-3,6.63802E-3,4.213186E-3,-1.5145073E-3,2.446758E-3,-4.2917784E-3,1.8904632E-3,5.2932394E-3],"categories":[],"categories_nodes":[],"categories_segments":[],"categories_sizes":[],"default_left":[0,0,0,0,0,0,0,0,0,0,0,0,0,0,0,0,0,0,0,0,0,0,0,0,0,0,0,0,0,0,0,0,0,0,0,0,0,0,0,0,0,0,0,0,0,0,0,0,0,0,0,0,0,0,0,0,0],"id":27,"left_children":[1,3,5,-1,7,9,11,13,15,17,19,21,-1,23,25,27,29,31,-1,-1,33,35,37,39,-1,-1,41,43,45,-1,47,49,-1,51,53,-1,55,-1,-1,-1,-1,-1,-1,-1,-1,-1,-1,-1,-1,-1,-1,-1,-1,-1,-1,-1,-1],"loss_changes":[1.1892294E3,1.9297205E2,1.4955597E2,0E0,7.818771E1,1.9976894E1,3.372113E1,1.4947754E1,1.1690189E1,6.4698334E0,6.0435457E0,1.3505066E1,0E0,6.1619873E0,8.730682E0,7.740911E0,4.923128E0,8.850549E0,0E0,0E0,5.366413E0,8.9444275E0,5.2267923E0,4.2769394E0,0E0,0E0,6.7247E0,6.013654E0,5.0862856E0,0E0,6.1807203E0,4.637974E0,0E0,6.5109415E0,5.399637E0,0E0,5.3954525E0,0E0,0E0,0E0,0E0,0E0,0E0,0E0,0E0,0E0,0E0,0E0,0E0,0E0,0E0,0E0,0E0,0E0,0E0,0E0,0E0],"parents":[2147483647,0,0,1,1,2,2,4,4,5,5,6,6,7,7,8,8,9,9,10,10,11,11,13,13,14,14,15,15,16,16,17,17,20,20,21,21,22,22,23,23,26,26,27,27,28,28,30,30,31,31,33,33,34,34,36,36],"right_children":[2,4,6,-1,8,10,12,14,16,18,20,22,-1,24,26,28,30,32,-1,-1,34,36,38,40,-1,-1,42,44,46,-1,48,50,-1,52,54,-1,56,-1,-1,-1,-1,-1,-1,-1,-1,-1,-1,-1,-1,-1,-1,-1,-1,-1,-1,-1,-1],"split_conditions":[7.996983E-2,-5.8153445E-1,1E0,-7.7156764E-3,0E0,-2.094156E-1,9.311606E-1,-1.560136E-1,2.6975703E-1,8.783015E-1,-6.0847676E-1,5.7108295E-1,7.4921306E-3,7.5524827E-3,-6.6183394E-1,-9.84803E-2,-4.981964E-1,7.26359E-1,7.2938283E-3,1.4320659E-3,6.3092977E-1,5.3919286E-1,3.1372022E-2,-4.299979E-1,-6.3663167E-3,-4.49561E-3,9.57049E-1,-6.210718E-1,-7.2877985E-1,-1.03638595E-4,-1.6034041E-1,4.8105188E-2,-3.657494E-3,1.1605914E-2,6.837947E-2,6.253137E-3,3.7353683E-1,4.734658E-3,1.0965767E-3,-1.1134276E-3,-4.616195E-3,-1.2051094E-3,-5.525638E-3,-2.4530224E-3,9.44484E-4,2.5617762E-3,-3.986435E-3,4.474416E-3,1.0440942E-3,2.1724335E-3,6.63802E-3,4.213186E-3,-1.5145073E-3,2.446758E-3,-4.2917784E-3,1.8904632E-3,5.2932394E-3],"split_indices":[1,0,3,0,5,33,0,1,33,0,37,33,0,39,4,11,31,2,0,0,33,6,6,6,0,0,34,11,16,0,6,4,0,11,32,0,4,0,0,0,0,0,0,0,0,0,0,0,0,0,0,0,0,0,0,0,0],"split_type":[0,0,0,0,0,0,0,0,0,0,0,0,0,0,0,0,0,0,0,0,0,0,0,0,0,0,0,0,0,0,0,0,0,0,0,0,0,0,0,0,0,0,0,0,0,0,0,0,0,0,0,0,0,0,0,0,0],"sum_hessian":[4.0808079E3,2.1847317E3,1.8960763E3,8.121982E2,1.3725333E3,4.4426166E2,1.4518147E3,8.5675854E2,5.1577484E2,2.043438E2,2.3991786E2,6.142103E2,8.376044E2,4.7358374E2,3.831748E2,2.7689114E2,2.3888371E2,1.8440717E2,1.993663E1,5.4986835E1,1.8493102E2,4.8177734E2,1.3243294E2,3.060508E2,1.6753293E2,1.3432423E2,2.4885057E2,1.9544312E2,8.1448044E1,7.747536E1,1.6140836E2,1.6641359E2,1.7993586E1,1.0197917E2,8.295185E1,3.3998975E2,1.4178761E2,4.5443626E1,8.698931E1,2.9484966E1,2.7656583E2,2.1789673E2,3.095384E1,5.3980095E1,1.4146301E2,9.998899E0,7.144915E1,7.0458725E1,9.094963E1,1.4643176E2,1.9981817E1,1.7996422E1,8.398275E1,9.998626E0,7.2953224E1,6.894661E1,7.2840996E1],"tree_param":{"num_deleted":"0","num_feature":"40","num_nodes":"57","size_leaf_vector":"1"}},{"base_weights":[1.7317098E-2,6.019113E-1,-8.4324084E-2,-1.0950224E-4,1.231066E-2,-1.6397753E-3,4.895923E-1,9.001853E-3,-2.133749E-3],"categories":[],"categories_nodes":[],"categories_segments":[],"categories_sizes":[],"default_left":[0,0,0,0,0,0,0,0,0],"id":28,"left_children":[1,3,5,-1,-1,-1,7,-1,-1],"loss_changes":[8.690203E0,1.099646E1,7.4548216E0,0E0,0E0,0E0,7.7913656E0,0E0,0E0],"parents":[2147483647,0,0,1,1,2,2,6,6],"right_children":[2,4,6,-1,-1,-1,8,-1,-1],"split_conditions":[-5.799622E-1,2.9570142E-2,9.666795E-1,-1.0950224E-4,1.231066E-2,-1.6397753E-3,6.012051E-2,9.001853E-3,-2.133749E-3],"split_indices":[35,36,24,0,0,0,2,0,0],"split_type":[0,0,0,0,0,0,0,0,0],"sum_hessian":[1.454998E2,2.1574566E1,1.2392524E2,1.2332405E1,9.242161E0,1.0492965E2,1.899559E1,1.0905801E1,8.08979E0],"tree_param":{"num_deleted":"0","num_feature":"40","num_nodes":"9","size_leaf_vector":"1"}},{"base_weights":[-1.5376658E-4,5.344926E-1,-5.2766347E-1,7.743707E-3,2.961062E-1,-4.906664E-2,-6.944195E-1,4.495829E-1,-1.8660972E-2,-2.2387972E-1,1.4223136E-1,-4.9739334E-1,-7.453287E-3,4.688653E-1,-3.670912E-2,-8.055695E-2,3.7792522E-1,-1.3707927E-1,-5.065797E-3,-6.390847E-2,2.8935272E-1,-6.164714E-1,-3.0612305E-1,3.9459702E-1,5.989396E-1,-5.5287797E-3,1.6409846E-3,6.127352E-2,-2.0392972E-1,7.7826204E-3,1.7247685E-3,-7.127837E-2,-6.7989253E-3,1.3161114E-3,-4.1485066E-3,3.3879107E-1,-4.386949E-3,-3.903034E-1,-6.0332674E-3,-4.9381815E-3,-2.1009758E-1,9.4036246E-4,3.7689228E-3,6.053838E-3,3.584977E-3,-7.029474E-4,3.175507E-3,1.5376093E-3,-2.5461845E-3,-1.7285782E-3,4.2561153E-3,2.1397604E-3,5.919701E-3,1.459467E-3,-4.1394276E-3,-3.8826864E-4,-4.4763032E-3],"categories":[],"categories_nodes":[],"categories_segments":[],"categories_sizes":[],"default_left":[0,0,0,0,0,0,0,0,0,0,0,0,0,0,0,0,0,0,0,0,0,0,0,0,0,0,0,0,0,0,0,0,0,0,0,0,0,0,0,0,0,0,0,0,0,0,0,0,0,0,0,0,0,0,0,0,0],"id":29,"left_children":[1,3,5,-1,7,9,11,13,15,17,19,21,-1,23,25,27,29,31,-1,33,35,37,39,41,43,-1,-1,45,47,-1,-1,49,-1,-1,-1,51,-1,53,-1,-1,55,-1,-1,-1,-1,-1,-1,-1,-1,-1,-1,-1,-1,-1,-1,-1,-1],"loss_changes":[1.1468689E3,1.727362E2,1.6331311E2,0E0,5.867231E1,1.770334E1,4.938965E1,7.6831512E0,9.74925E0,8.606383E0,7.675332E0,1.571756E1,0E0,7.49675E0,4.2667336E0,6.0360827E0,4.8962817E0,9.450817E0,0E0,9.4314165E0,5.809656E0,7.599594E0,6.685152E0,5.726692E0,5.1548615E0,0E0,0E0,6.9739394E0,6.332998E0,0E0,0E0,1.4615339E1,0E0,0E0,0E0,4.3218565E0,0E0,5.478853E0,0E0,0E0,9.872986E0,0E0,0E0,0E0,0E0,0E0,0E0,0E0,0E0,0E0,0E0,0E0,0E0,0E0,0E0,0E0,0E0],"parents":[2147483647,0,0,1,1,2,2,4,4,5,5,6,6,7,7,8,8,9,9,10,10,11,11,13,13,14,14,15,15,16,16,17,17,19,19,20,20,21,21,22,22,23,23,24,24,27,27,28,28,31,31,35,35,37,37,40,40],"right_children":[2,4,6,-1,8,10,12,14,16,18,20,22,-1,24,26,28,30,32,-1,34,36,38,40,42,44,-1,-1,46,48,-1,-1,50,-1,-1,-1,52,-1,54,-1,-1,56,-1,-1,-1,-1,-1,-1,-1,-1,-1,-1,-1,-1,-1,-1,-1,-1],"split_conditions":[-1.0832267E-2,-5.8153445E-1,1E0,7.743707E-3,1E0,8.75597E-2,9.311606E-1,1.2626469E0,1.7912138E-1,0E0,1.4955732E-1,1.7218344E-1,-7.453287E-3,9.370137E-2,1.2580066E0,-1.6068542E-1,-1.7992598E-1,9.800681E-1,-5.065797E-3,3.570885E-1,1.93511E0,1.7402898E-1,-2.9860053E-2,-3.969536E-1,3.5737428E-1,-5.5287797E-3,1.6409846E-3,-3.45655E-1,-2.7327368E-1,7.7826204E-3,1.7247685E-3,6.719687E-1,-6.7989253E-3,1.3161114E-3,-4.1485066E-3,6.4569235E-1,-4.386949E-3,-7.5091654E-1,-6.0332674E-3,-4.9381815E-3,8.316402E-1,9.4036246E-4,3.7689228E-3,6.053838E-3,3.584977E-3,-7.029474E-4,3.175507E-3,1.5376093E-3,-2.5461845E-3,-1.7285782E-3,4.2561153E-3,2.1397604E-3,5.919701E-3,1.459467E-3,-4.1394276E-3,-3.8826864E-4,-4.4763032E-3],"split_indices":[1,0,3,0,3,27,0,13,11,5,6,27,0,39,15,1,32,0,0,30,14,4,6,6,27,0,0,6,27,0,0,2,0,0,0,8,0,14,0,0,10,0,0,0,0,0,0,0,0,0,0,0,0,0,0,0,0],"split_type":[0,0,0,0,0,0,0,0,0,0,0,0,0,0,0,0,0,0,0,0,0,0,0,0,0,0,0,0,0,0,0,0,0,0,0,0,0,0,0,0,0,0,0,0,0,0,0,0,0,0,0,0,0,0,0,0,0],"sum_hessian":[4.0662668E3,2.0194104E3,2.0468566E3,8.056002E2,1.2138102E3,5.290322E2,1.5178243E3,8.160704E2,3.9773984E2,2.7659692E2,2.524353E2,6.9346234E2,8.2436194E2,7.850789E2,3.0991451E1,3.4425497E2,5.348488E1,2.2319482E2,5.3402107E1,1.0496824E2,1.4746707E2,4.270408E2,2.6642157E2,5.0031534E2,2.8476358E2,8.498756E0,2.2492695E1,1.5992336E2,1.843316E2,1.349501E1,3.998987E1,2.0279404E2,2.040079E1,6.898526E1,3.598298E1,1.3896976E2,8.497314E0,1.11619125E2,3.1542166E2,7.081269E1,1.9560889E2,6.1996136E1,4.3831918E2,1.8480806E2,9.995552E1,1.08944275E2,5.0979084E1,3.4995865E1,1.4933574E2,1.6529942E2,3.7494614E1,1.0997338E2,2.8996376E1,1.4974147E1,9.664498E1,1.272742E2,6.833469E1],"tree_param":{"num_deleted":"0","num_feature":"40","num_nodes":"57","size_leaf_vector":"1"}},{"base_weights":[-1.0673467E-3,-5.22349E-1,5.4865474E-1,-7.634983E-3,-2.9795906E-1,6.216664E-2,7.098268E-1,-4.5038214E-1,7.206333E-3,1.9837235E-1,-2.7633226E-1,5.316264E-1,7.4139587E-3,-5.058087E-1,-2.3694411E-1,7.842738E-2,-4.1415727E-1,1.5582459E-1,7.3708375E-3,-2.6890295E-2,-3.879575E-3,6.202952E-1,2.6981264E-1,-4.1200504E-1,-5.830253E-3,-4.2802207E-3,-7.547883E-2,-1.10180676E-1,2.3291379E-1,-5.5345255E-1,2.999546E-3,2.5446323E-1,-2.8105113E-1,-2.7828094E-1,2.8263922E-3,5.9544877E-3,3.6011535E-1,5.3531295E-3,1.5892698E-1,3.2173516E-3,-3.7232402E-3,-3.3403444E-3,1.0431685E-3,-1.4922647E-5,-4.773025E-3,-4.1337026E-4,2.8195856E-3,9.1797416E-4,-6.154511E-3,-1.9667107E-3,2.6987938E-3,-4.2597326E-3,3.634127E-3,1.2815815E-3,-5.019181E-3,-3.1032239E-3,3.8363345E-3,-1.895123E-3,2.1863496E-3],"categories":[],"categories_nodes":[],"categories_segments":[],"categories_sizes":[],"default_left":[0,0,0,0,0,0,0,0,0,0,0,0,0,0,0,0,0,0,0,0,0,0,0,0,0,0,0,0,0,0,0,0,0,0,0,0,0,0,0,0,0,0,0,0,0,0,0,0,0,0,0,0,0,0,0,0,0,0,0],"id":30,"left_children":[1,3,5,-1,7,9,11,13,15,17,19,21,-1,23,25,27,29,31,-1,33,-1,35,37,39,-1,-1,41,43,45,47,-1,49,51,53,-1,-1,55,-1,57,-1,-1,-1,-1,-1,-1,-1,-1,-1,-1,-1,-1,-1,-1,-1,-1,-1,-1,-1,-1],"loss_changes":[1.1713367E3,1.6873346E2,1.5593512E2,0E0,6.0072456E1,2.283592E1,3.864435E1,1.0125412E1,1.2883575E1,9.725716E0,6.0364475E0,1.5536285E1,0E0,1.0598602E1,7.3403883E0,1.073284E1,6.603098E0,1.4309723E1,0E0,5.1603513E0,0E0,8.628723E0,6.515643E0,6.0568924E0,0E0,0E0,6.6709514E0,7.8750744E0,5.272129E0,5.476162E0,0E0,7.439905E0,9.026278E0,4.4070086E0,0E0,0E0,6.123266E0,0E0,4.57405E0,0E0,0E0,0E0,0E0,0E0,0E0,0E0,0E0,0E0,0E0,0E0,0E0,0E0,0E0,0E0,0E0,0E0,0E0,0E0,0E0],"parents":[2147483647,0,0,1,1,2,2,4,4,5,5,6,6,7,7,8,8,9,9,10,10,11,11,13,13,14,14,15,15,16,16,17,17,19,19,21,21,22,22,23,23,26,26,27,27,28,28,29,29,31,31,32,32,33,33,36,36,38,38],"right_children":[2,4,6,-1,8,10,12,14,16,18,20,22,-1,24,26,28,30,32,-1,34,-1,36,38,40,-1,-1,42,44,46,48,-1,50,52,54,-1,-1,56,-1,58,-1,-1,-1,-1,-1,-1,-1,-1,-1,-1,-1,-1,-1,-1,-1,-1,-1,-1,-1,-1],"split_conditions":[2.3291333E-2,-5.8153445E-1,1E0,-7.634983E-3,1E0,6.3092977E-1,9.311606E-1,7.453659E-1,2.0852074E-1,1.024002E0,1.4955732E-1,5.830491E-1,7.4139587E-3,1.0360752E-1,-6.407405E-1,6.304051E-2,-4.4316375E-1,6.0568815E-1,7.3708375E-3,2.79563E-1,-3.879575E-3,5.9396225E-1,-2.9860053E-2,-5.2893144E-1,-5.830253E-3,-4.2802207E-3,-4.7002125E-1,-1.9798873E-1,-5.108391E-1,-5.075376E-1,2.999546E-3,-7.111206E-1,1.5880235E0,2.3175573E-1,2.8263922E-3,5.9544877E-3,-1.0261979E0,5.3531295E-3,-1.9580962E-1,3.2173516E-3,-3.7232402E-3,-3.3403444E-3,1.0431685E-3,-1.4922647E-5,-4.773025E-3,-4.1337026E-4,2.8195856E-3,9.1797416E-4,-6.154511E-3,-1.9667107E-3,2.6987938E-3,-4.2597326E-3,3.634127E-3,1.2815815E-3,-5.019181E-3,-3.1032239E-3,3.8363345E-3,-1.895123E-3,2.1863496E-3],"split_indices":[1,0,3,0,3,33,0,33,11,0,6,33,0,39,4,33,31,32,0,30,0,6,6,6,0,0,38,6,36,10,0,24,30,39,0,0,14,0,13,0,0,0,0,0,0,0,0,0,0,0,0,0,0,0,0,0,0,0,0],"split_type":[0,0,0,0,0,0,0,0,0,0,0,0,0,0,0,0,0,0,0,0,0,0,0,0,0,0,0,0,0,0,0,0,0,0,0,0,0,0,0,0,0,0,0,0,0,0,0,0,0,0,0,0,0,0,0,0,0,0,0],"sum_hessian":[4.0873882E3,2.098028E3,1.9893602E3,8.0727313E2,1.2907549E3,4.951932E2,1.494167E3,8.6091565E2,4.298393E2,3.5327594E2,1.4191728E2,6.723679E2,8.2179913E2,6.8308673E2,1.7782892E2,3.678919E2,6.194738E1,3.3184662E2,2.1429298E1,5.798499E1,8.393229E1,5.0197745E2,1.7039044E2,4.3779242E2,2.4529433E2,6.839191E1,1.09437004E2,1.6547354E2,2.0241837E2,5.24504E1,9.496978E0,2.7087836E2,6.0968273E1,3.3987946E1,2.3997042E1,3.9913855E2,1.0283891E2,4.0934315E1,1.2945613E2,9.497673E0,4.2829474E2,4.24673E1,6.69697E1,1.3298264E2,3.2490902E1,4.9988262E1,1.524301E2,9.9965315E0,4.245387E1,2.8497551E1,2.423808E2,4.6975323E1,1.39929495E1,1.3995608E1,1.9992338E1,1.0485369E1,9.2353546E1,2.5494225E1,1.0396191E2],"tree_param":{"num_deleted":"0","num_feature":"40","num_nodes":"59","size_leaf_vector":"1"}},{"base_weights":[-1.9201225E-3,4.5015508E-1,-1.14520416E-1,-1.2040508E-3,1.0649612E-2,-2.0047422E-3,4.9018136E-1,8.971167E-3,-2.1235764E-3],"categories":[],"categories_nodes":[],"categories_segments":[],"categories_sizes":[],"default_left":[0,0,0,0,0,0,0,0,0],"id":31,"left_children":[1,3,5,-1,-1,-1,7,-1,-1],"loss_changes":[7.4889226E0,1.3531116E1,8.34545E0,0E0,0E0,0E0,7.722208E0,0E0,0E0],"parents":[2147483647,0,0,1,1,2,2,6,6],"right_children":[2,4,6,-1,-1,-1,8,-1,-1],"split_conditions":[-4.4653586E-1,3.589921E-2,9.805363E-1,-1.2040508E-3,1.0649612E-2,-2.0047422E-3,6.0613535E-2,8.971167E-3,-2.1235764E-3],"split_indices":[16,36,24,0,0,0,6,0,0],"split_type":[0,0,0,0,0,0,0,0,0],"sum_hessian":[1.4735393E2,2.920854E1,1.1814539E2,1.6626427E1,1.2582114E1,9.9161514E1,1.8983877E1,1.0930788E1,8.05309E0],"tree_param":{"num_deleted":"0","num_feature":"40","num_nodes":"9","size_leaf_vector":"1"}},{"base_weights":[-9.340622E-4,5.3129905E-1,-5.2689546E-1,7.708357E-3,2.9254982E-1,-4.746399E-2,-6.9122076E-1,4.4489348E-1,-1.9648233E-2,-2.1839374E-1,2.1847528E-1,-5.007079E-1,-7.3897233E-3,5.4077005E-1,3.2019758E-1,1.3592146E-1,-1.952156E-1,-1.8010187E-1,-7.931483E-3,-3.7806697E-2,3.6954044E-3,-5.98247E-1,-2.3963788E-1,5.876184E-1,1.3577203E-1,2.3650222E-1,6.025193E-1,-3.650589E-3,1.899406E-1,-2.615263E-1,4.0117935E-3,-2.7934644E-1,2.4098586E-1,1.6569488E-3,-3.9430717E-3,-4.1713947E-1,-5.7480754E-3,-5.1248902E-3,-9.1372296E-2,3.4253667E-3,5.642948E-3,2.4752035E-3,-3.9969026E-3,1.5560332E-3,5.3435694E-3,-6.033062E-4,5.9126816E-3,-4.5105363E-3,1.9533297E-3,1.9823447E-4,-3.0514526E-3,3.5860455E-3,-2.6806118E-3,6.4017666E-3,-2.08716E-4,1.4610502E-3,-4.4756094E-3,-3.4636452E-3,1.6262145E-4],"categories":[],"categories_nodes":[],"categories_segments":[],"categories_sizes":[],"default_left":[0,0,0,0,0,0,0,0,0,0,0,0,0,0,0,0,0,0,0,0,0,0,0,0,0,0,0,0,0,0,0,0,0,0,0,0,0,0,0,0,0,0,0,0,0,0,0,0,0,0,0,0,0,0,0,0,0,0,0],"id":32,"left_children":[1,3,5,-1,7,9,11,13,15,17,19,21,-1,23,25,27,29,31,-1,33,-1,35,37,39,41,43,45,-1,47,49,-1,51,53,-1,-1,55,-1,-1,57,-1,-1,-1,-1,-1,-1,-1,-1,-1,-1,-1,-1,-1,-1,-1,-1,-1,-1,-1,-1],"loss_changes":[1.1400126E3,1.7296478E2,1.6132275E2,0E0,5.780262E1,2.378176E1,4.6786255E1,9.688187E0,1.0885619E1,8.412895E0,1.0927075E1,1.7759354E1,0E0,8.694412E0,8.329906E0,6.344385E0,8.17547E0,1.2639344E1,0E0,8.773538E0,0E0,5.898987E0,9.897942E0,4.9531097E0,4.3023796E0,5.8795786E0,4.386898E0,0E0,4.8409796E0,4.4106684E0,0E0,5.0878105E0,7.643445E0,0E0,0E0,7.8864136E0,0E0,0E0,4.5906687E0,0E0,0E0,0E0,0E0,0E0,0E0,0E0,0E0,0E0,0E0,0E0,0E0,0E0,0E0,0E0,0E0,0E0,0E0,0E0,0E0],"parents":[2147483647,0,0,1,1,2,2,4,4,5,5,6,6,7,7,8,8,9,9,10,10,11,11,13,13,14,14,15,15,16,16,17,17,19,19,21,21,22,22,23,23,24,24,25,25,26,26,28,28,29,29,31,31,32,32,35,35,38,38],"right_children":[2,4,6,-1,8,10,12,14,16,18,20,22,-1,24,26,28,30,32,-1,34,-1,36,38,40,42,44,46,-1,48,50,-1,52,54,-1,-1,56,-1,-1,58,-1,-1,-1,-1,-1,-1,-1,-1,-1,-1,-1,-1,-1,-1,-1,-1,-1,-1,-1,-1],"split_conditions":[-1.0832267E-2,-5.8153445E-1,1E0,7.708357E-3,1E0,2.9553202E-1,9.311606E-1,-1.6907437E-1,1.6888036E-1,1.0047802E0,1.4955732E-1,5.9532845E-1,-7.3897233E-3,0E0,7.2597057E-1,-8.055976E-1,6.6732335E-1,6.719687E-1,-7.931483E-3,2.96371E-1,3.6954044E-3,1.7402898E-1,-2.9860053E-2,-3.390378E-1,4.134716E-1,6.4891234E-2,-1.4584245E-1,-3.650589E-3,-8.6461174E-1,-5.5698246E-1,4.0117935E-3,-8.5320216E-1,5.2172893E-1,1.6569488E-3,-3.9430717E-3,-6.4082485E-1,-5.7480754E-3,-5.1248902E-3,6.523132E-2,3.4253667E-3,5.642948E-3,2.4752035E-3,-3.9969026E-3,1.5560332E-3,5.3435694E-3,-6.033062E-4,5.9126816E-3,-4.5105363E-3,1.9533297E-3,1.9823447E-4,-3.0514526E-3,3.5860455E-3,-2.6806118E-3,6.4017666E-3,-2.08716E-4,1.4610502E-3,-4.4756094E-3,-3.4636452E-3,1.6262145E-4],"split_indices":[1,0,3,0,3,33,0,1,33,32,6,33,0,5,34,26,11,2,0,30,0,4,6,6,38,6,6,0,8,37,0,35,10,0,0,14,0,0,4,0,0,0,0,0,0,